SNNS network definition file V1.4-3D
generated at Fri Feb 24 13:05:08 2006

network name : frequency_average_trained_20i_10h
source files :
no. of units : 91
no. of connections : 810
no. of unit types : 0
no. of site types : 0


learning function : Rprop
update function   : Topological_Order


unit default section :

act      | bias     | st | subnet | layer | act func     | out func
---------|----------|----|--------|-------|--------------|-------------
 0.00000 |  0.00000 | h  |      0 |     1 | Act_Logistic | Out_Identity 
---------|----------|----|--------|-------|--------------|-------------


unit definition section :

no. | typeName | unitName | act      | bias     | st | position | act func | out func | sites
----|----------|----------|----------|----------|----|----------|----------|----------|-------
  1 |          |          |  4.00000 |  0.73768 | i  |  2, 2,-5592 |||
  2 |          |          |  3.00000 |  0.86829 | i  |  3, 2,-5592 |||
  3 |          |          |  0.53000 |  0.41141 | i  |  4, 2,-5592 |||
  4 |          |          |  0.00000 |  0.28382 | i  |  5, 2,-5592 |||
  5 |          |          | 10.00000 |  0.93485 | i  |  2, 3,-5592 |||
  6 |          |          |  6.00000 | -0.37760 | i  |  3, 3,-5592 |||
  7 |          |          |  0.37000 |  0.91689 | i  |  4, 3,-5592 |||
  8 |          |          |  0.00000 |  0.21484 | i  |  5, 3,-5592 |||
  9 |          |          |  3.00000 | -0.65279 | i  |  2, 4,-5592 |||
 10 |          |          |  2.00000 | -0.61974 | i  |  3, 4,-5592 |||
 11 |          |          |  0.54000 | -0.11400 | i  |  4, 4,-5592 |||
 12 |          |          |  0.00000 | -0.24968 | i  |  5, 4,-5592 |||
 13 |          |          |  8.00000 | -0.82078 | i  |  2, 5,-5592 |||
 14 |          |          |  6.00000 |  0.05230 | i  |  3, 5,-5592 |||
 15 |          |          |  0.02000 | -0.13870 | i  |  4, 5,-5592 |||
 16 |          |          |  0.00000 | -0.51446 | i  |  5, 5,-5592 |||
 17 |          |          |  4.00000 | -0.73710 | i  |  2, 6,-5592 |||
 18 |          |          |  3.00000 |  0.84997 | i  |  3, 6,-5592 |||
 19 |          |          | -0.72000 | -0.72323 | i  |  4, 6,-5592 |||
 20 |          |          | -1.00000 |  0.02622 | i  |  5, 6,-5592 |||
 21 |          |          |  5.00000 |  0.39343 | i  |  2, 7,-5592 |||
 22 |          |          |  4.00000 | -0.12043 | i  |  3, 7,-5592 |||
 23 |          |          | -0.69000 |  0.23849 | i  |  4, 7,-5592 |||
 24 |          |          |  0.00000 | -0.57598 | i  |  5, 7,-5592 |||
 25 |          |          |  4.00000 | -0.97010 | i  |  2, 8,-5592 |||
 26 |          |          |  3.00000 | -0.90019 | i  |  3, 8,-5592 |||
 27 |          |          | -0.72000 | -0.04021 | i  |  4, 8,-5592 |||
 28 |          |          | -1.00000 |  0.97068 | i  |  5, 8,-5592 |||
 29 |          |          |  0.00000 | -0.01578 | i  |  2, 9,-5592 |||
 30 |          |          |  0.00000 | -0.33548 | i  |  3, 9,-5592 |||
 31 |          |          |  0.16000 |  0.31512 | i  |  4, 9,-5592 |||
 32 |          |          |  0.00000 |  0.90010 | i  |  5, 9,-5592 |||
 33 |          |          |  4.00000 |  0.72124 | i  |  2,10,-5592 |||
 34 |          |          |  3.00000 | -0.17845 | i  |  3,10,-5592 |||
 35 |          |          | -0.72000 |  0.71279 | i  |  4,10,-5592 |||
 36 |          |          | -1.00000 |  0.55323 | i  |  5,10,-5592 |||
 37 |          |          |  4.00000 |  0.47921 | i  |  2,11,-5592 |||
 38 |          |          |  3.00000 | -0.84233 | i  |  3,11,-5592 |||
 39 |          |          |  0.73000 | -0.27828 | i  |  4,11,-5592 |||
 40 |          |          |  0.00000 |  0.06229 | i  |  5,11,-5592 |||
 41 |          |          |  3.00000 | -0.12072 | i  |  2,12,-5592 |||
 42 |          |          |  4.00000 | -0.63709 | i  |  3,12,-5592 |||
 43 |          |          | -0.07000 | -0.23170 | i  |  4,12,-5592 |||
 44 |          |          |  0.00000 |  0.57467 | i  |  5,12,-5592 |||
 45 |          |          |  8.00000 |  0.40692 | i  |  2,13,-5592 |||
 46 |          |          |  6.00000 |  0.34937 | i  |  3,13,-5592 |||
 47 |          |          |  0.02000 |  0.73649 | i  |  4,13,-5592 |||
 48 |          |          |  0.00000 | -0.60018 | i  |  5,13,-5592 |||
 49 |          |          |  3.00000 |  0.09048 | i  |  2,14,-5592 |||
 50 |          |          |  2.00000 | -0.26822 | i  |  3,14,-5592 |||
 51 |          |          |  0.54000 |  0.79140 | i  |  4,14,-5592 |||
 52 |          |          |  0.00000 |  0.62725 | i  |  5,14,-5592 |||
 53 |          |          |  8.00000 | -0.05748 | i  |  2,15,-5592 |||
 54 |          |          |  6.00000 | -0.18875 | i  |  3,15,-5592 |||
 55 |          |          |  0.02000 |  0.38172 | i  |  4,15,-5592 |||
 56 |          |          |  0.00000 | -0.89515 | i  |  5,15,-5592 |||
 57 |          |          |  4.00000 |  0.92866 | i  |  2,16,-5592 |||
 58 |          |          |  3.00000 | -0.53047 | i  |  3,16,-5592 |||
 59 |          |          | -0.64000 | -0.31956 | i  |  4,16,-5592 |||
 60 |          |          |  0.00000 | -0.97521 | i  |  5,16,-5592 |||
 61 |          |          | 10.00000 |  0.14331 | i  |  2,17,-5592 |||
 62 |          |          |  6.00000 |  0.16702 | i  |  3,17,-5592 |||
 63 |          |          |  0.37000 | -0.93771 | i  |  4,17,-5592 |||
 64 |          |          |  0.00000 |  0.55066 | i  |  5,17,-5592 |||
 65 |          |          |  4.00000 |  0.85124 | i  |  2,18,-5592 |||
 66 |          |          |  3.00000 | -0.34795 | i  |  3,18,-5592 |||
 67 |          |          |  0.53000 | -0.70141 | i  |  4,18,-5592 |||
 68 |          |          |  0.00000 | -0.78694 | i  |  5,18,-5592 |||
 69 |          |          |  6.00000 | -0.45887 | i  |  2,19,-5592 |||
 70 |          |          |  4.00000 |  0.35684 | i  |  3,19,-5592 |||
 71 |          |          | -0.40000 | -0.47110 | i  |  4,19,-5592 |||
 72 |          |          |  0.50000 |  0.44972 | i  |  5,19,-5592 |||
 73 |          |          |  1.00000 | -0.82956 | i  |  2,20,-5592 |||
 74 |          |          |  1.00000 | -0.17780 | i  |  3,20,-5592 |||
 75 |          |          |  0.25000 |  0.64015 | i  |  4,20,-5592 |||
 76 |          |          |  0.00000 | -0.61264 | i  |  5,20,-5592 |||
 77 |          |          |  5.00000 | -0.51009 | i  |  2,21,-5592 |||
 78 |          |          |  4.00000 | -0.87709 | i  |  3,21,-5592 |||
 79 |          |          | -0.69000 |  0.18844 | i  |  4,21,-5592 |||
 80 |          |          |  0.00000 | -0.55884 | i  |  5,21,-5592 |||
 81 |          |          |  0.00020 | -0.64472 | h  |  8, 2,-5592 |||
 82 |          |          |  0.00000 | -0.13341 | h  |  8, 3,-5592 |||
 83 |          |          |  0.00000 | -0.78968 | h  |  8, 4,-5592 |||
 84 |          |          |  0.00281 |  0.96794 | h  |  8, 5,-5592 |||
 85 |          |          |  0.24380 | -0.74951 | h  |  8, 6,-5592 |||
 86 |          |          |  1.00000 | 39.97031 | h  |  8, 7,-5592 |||
 87 |          |          |  0.00000 |  0.90008 | h  |  8, 8,-5592 |||
 88 |          |          |  1.00000 |  0.90486 | h  |  8, 9,-5592 |||
 89 |          |          |  0.00000 | -0.55146 | h  |  8,10,-5592 |||
 90 |          |          |  0.00000 | -1.11617 | h  |  8,11,-5592 |||
 91 |          |          |  0.48394 |  0.25132 | o  | 11, 2,-5592 |||
----|----------|----------|----------|----------|----|----------|----------|----------|-------


connection definition section :

target | site | source:weight
-------|------|---------------------------------------------------------------------------------------------------------------------
    81 |      |  1: 0.04918,  2:-0.50449,  3:-1.54227,  4:-0.01519,  5:-0.24525,  6:-0.87814,  7:-5.68561,  8:201.81810,  9:-0.67216,
                10:-0.47543, 11:-0.60139, 12: 0.67528, 13:-0.23433, 14: 0.77878, 15:-0.66977, 16:-2.59951, 17: 0.28382, 18:-0.20012,
                19: 0.84319, 20:-0.66784, 21:-0.04655, 22:-0.67330, 23:-0.89887, 24: 5.20331, 25: 0.25065, 26: 0.15916, 27: 3.49966,
                28:-1.85202, 29:-1.53221, 30: 0.36003, 31: 2.49974, 32:-2.65243, 33:-0.14104, 34: 0.42654, 35: 1.71079, 36: 6.28664,
                37: 0.71475, 38:-1.04531, 39:-0.23812, 40:-2.91916, 41: 0.70327, 42:-0.32565, 43:-4.73743, 44:-0.79515, 45:-0.68207,
                46: 0.71862, 47: 1.77311, 48: 2.86888, 49:-0.60083, 50: 0.03750, 51: 1.86578, 52: 0.23572, 53:-0.53772, 54:-0.80535,
                55: 4.38700, 56: 0.32664, 57:-0.58566, 58:-0.83087, 59:-1.16255, 60:-2.11547, 61: 0.81889, 62: 0.05541, 63:-2.09957,
                64:-0.67125, 65: 1.12122, 66: 0.94135, 67: 8.79058, 68:-224.73386, 69: 0.54010, 70: 0.63059, 71: 0.03825, 72:-3.82612,
                73:-0.40647, 74:-0.02467, 75: 0.21830, 76:-0.92887, 77: 0.82438, 78:-0.14373, 79: 0.24063, 80:-0.50526
    82 |      |  1: 0.83823,  2:-0.09939,  3: 0.78698,  4: 0.41158,  5:-0.23039,  6:-0.08178,  7:-0.36988,  8: 5.30005,  9:-0.57365,
                10: 0.85373, 11: 0.33273, 12:-0.13284, 13: 0.00066, 14:-0.34733, 15:-0.45544, 16:-14.54754, 17:-0.34835, 18:-0.45121,
                19: 2.04668, 20: 0.77858, 21: 0.12759, 22:-0.46294, 23:-0.67271, 24:-5.87076, 25:-0.65085, 26: 0.66974, 27: 2.85242,
                28:-0.99064, 29:-357.05096, 30:-329.07452, 31: 1.09279, 32:-256.37680, 33: 0.36536, 34:-0.28551, 35:-2.63049, 36:-0.12327,
                37: 0.82838, 38: 0.95175, 39:-1.48837, 40: 0.78244, 41:-0.96527, 42:-0.73153, 43:-2.64566, 44: 0.67876, 45:-0.50125,
                46: 0.51443, 47:-13.05081, 48: 2.55072, 49: 0.83873, 50:-0.14690, 51: 1.69578, 52:-81.34795, 53:-0.75315, 54:-0.77439,
                55:-1.35637, 56:-243.14796, 57: 0.75489, 58: 0.42919, 59:-0.08751, 60: 0.12976, 61:-0.44327, 62:-0.82880, 63:-0.02473,
                64: 0.56959, 65: 0.51723, 66: 0.94701, 67:-2.71101, 68: 4.36848, 69:-0.14312, 70: 0.20527, 71:-0.18794, 72:-0.33310,
                73: 0.36824, 74:-0.13748, 75:-3.02363, 76:-0.39018, 77:-0.37195, 78: 0.05185, 79:-0.67567, 80:-4.37848
    83 |      |  1:-0.40891,  2: 0.18667,  3: 0.59515,  4:-0.23055,  5: 0.18819,  6:-1.19715,  7:-0.86460,  8: 5.13839,  9:-0.36685,
                10:-0.75579, 11:-0.44572, 12:-0.13905, 13:-0.56915, 14: 0.33395, 15: 1.31612, 16:11.03642, 17: 0.41627, 18: 0.43449,
                19: 0.89802, 20: 1.34085, 21:-0.55683, 22:-0.27833, 23:-0.53913, 24:12.74475, 25:-0.96738, 26: 0.46102, 27: 0.33238,
                28: 2.44142, 29: 0.88503, 30: 0.61440, 31:-1.19052, 32: 2.05610, 33:-0.49563, 34: 0.35251, 35:-0.33350, 36:25.75573,
                37: 0.86365, 38: 0.36023, 39: 1.14998, 40:-16.44546, 41: 0.62734, 42: 0.28715, 43: 0.01830, 44:-0.43614, 45:-0.91738,
                46:-0.50237, 47:-0.58997, 48: 3.81418, 49: 0.86609, 50: 1.41052, 51: 1.16728, 52:-17.17246, 53:-0.23416, 54: 0.86614,
                55: 0.67466, 56:-10.06428, 57: 0.62407, 58:-1.13936, 59: 0.84628, 60:-1.52527, 61:-0.61897, 62:-0.87778, 63:-2.71758,
                64:-27.22102, 65:-1.20718, 66:-0.68989, 67: 4.75056, 68:-273.98053, 69: 0.33949, 70:-0.25445, 71:-0.50401, 72: 1.01589,
                73:-0.90567, 74: 0.30735, 75: 0.04275, 76:-0.28667, 77:-0.35084, 78:-0.32938, 79: 0.52486, 80:-4.16940
    84 |      |  1: 0.88814,  2:-0.50985,  3:-0.11367,  4:-0.27566,  5: 0.89486,  6: 0.26071,  7: 0.48210,  8:-6.12109,  9: 0.45090,
                10:-0.01718, 11: 0.91904, 12:-0.28691, 13:-0.88280, 14:-0.85411, 15: 1.14830, 16: 2.49139, 17:-0.27645, 18: 0.94223,
                19:-0.43849, 20:-0.84860, 21: 0.14151, 22: 0.79520, 23: 0.36223, 24: 4.42920, 25: 0.85088, 26:-0.61965, 27: 5.41494,
                28:-5.04972, 29:-0.22293, 30: 0.12915, 31:-0.33304, 32:-10.35386, 33: 0.58977, 34: 0.59738, 35:-0.58008, 36: 1.08673,
                37:-0.96965, 38: 0.73343, 39: 2.42352, 40:11.18854, 41:-0.01911, 42: 0.21915, 43: 5.32115, 44: 0.93501, 45:-0.36767,
                46:-0.67660, 47: 1.48606, 48:-2.16082, 49:-1.29661, 50:-0.75331, 51: 0.24796, 52:13.39622, 53:-0.10699, 54:-0.06442,
                55:-6.27846, 56:24.90839, 57: 0.28105, 58:-0.25462, 59:-0.85130, 60: 0.59881, 61:-0.46993, 62:-0.96734, 63:-0.03765,
                64: 3.07604, 65: 0.56344, 66:-0.49562, 67: 0.93599, 68:-13.57953, 69: 0.32600, 70:-0.24792, 71:-2.31593, 72:-0.18576,
                73: 0.66238, 74:-0.34313, 75: 1.75997, 76: 0.64297, 77:-0.85249, 78: 0.37584, 79: 0.39685, 80:-1.32807
    85 |      |  1:-0.71932,  2: 0.60585,  3:-0.12661,  4: 0.08597,  5: 0.01778,  6: 0.14331,  7:-0.26410,  8: 5.98484,  9:-0.33396,
                10:-0.56141, 11:-0.60480, 12:-0.44333, 13:-0.80928, 14: 0.57497, 15:-1.04665, 16:-5.07730, 17:-0.76107, 18: 0.65623,
                19: 2.62866, 20: 0.57051, 21: 0.25207, 22: 0.61248, 23:-0.76016, 24:-15.80408, 25: 0.10753, 26: 1.05330, 27:-3.49871,
                28:-0.60679, 29: 0.10240, 30: 0.50335, 31:17.72933, 32: 3.26917, 33: 0.32739, 34:-0.78645, 35: 1.84100, 36:-3.16801,
                37: 0.11245, 38:-0.13733, 39: 0.64408, 40: 0.43879, 41: 1.02358, 42:-0.49719, 43: 3.19176, 44: 0.10398, 45:-0.12365,
                46:-0.64081, 47: 1.38131, 48: 3.00970, 49: 0.71736, 50: 0.08520, 51: 0.63751, 52:-2.35220, 53: 0.83822, 54:-0.43165,
                55:-26.73044, 56:-4.86814, 57: 0.49554, 58:-0.10567, 59: 6.90169, 60: 0.90276, 61:-0.88090, 62:-0.81368, 63:-0.52048,
                64:-1.29145, 65: 1.03149, 66: 0.31342, 67: 2.58689, 68: 0.21980, 69: 0.44192, 70:-0.85163, 71: 3.25152, 72:10.00134,
                73: 0.58573, 74:-0.67969, 75: 0.31165, 76:-0.13708, 77: 0.35580, 78:-0.83611, 79:-0.44383, 80:-6.90483
    86 |      |  1:39.51839,  2:39.20054,  3:39.90223,  4:-0.14971,  5:39.79462,  6:39.80207,  7:41.00005,  8:-39.05476,  9:39.35801,
                10:40.53254, 11:39.40865, 12:-0.22734, 13:39.92716, 14:40.18942, 15:40.29562, 16:-39.51824, 17:39.75750, 18:39.51354,
                19:-39.32848, 20:-39.90716, 21:40.48169, 22:40.97822, 23:-39.43978, 24:39.84440, 25:39.07328, 26:39.44173, 27:39.11028,
                28:39.61011, 29:39.74229, 30:39.23254, 31:40.75312, 32:-39.92441, 33:40.33396, 34:39.82457, 35:39.94386, 36:-40.62788,
                37:39.41510, 38:39.45186, 39:-39.96543, 40:40.91948, 41:40.93357, 42:39.99253, 43:39.65791, 44:-0.18934, 45:40.71132,
                46:40.87596, 47:39.93921, 48:-39.12239, 49:40.50763, 50:39.25729, 51:-39.14909, 52:39.02806, 53:39.73678, 54:39.35177,
                55:39.04181, 56:39.18822, 57:39.76081, 58:40.68815, 59:-40.85054, 60:39.56992, 61:40.96023, 62:39.65547, 63:40.61832,
                64:-39.42137, 65:40.31777, 66:40.57836, 67:40.66301, 68:-39.19598, 69:40.17788, 70:39.62929, 71:-39.33035, 72:40.67378,
                73:39.15865, 74:39.10863, 75:39.92815, 76:-0.23609, 77:40.22690, 78:40.39741, 79:-40.74376, 80:-40.12502
    87 |      |  1:-0.39078,  2:-0.52631,  3: 1.00202,  4:-0.27900,  5:-0.71254,  6: 0.35957,  7: 0.45633,  8:-4.27471,  9:-0.02379,
                10: 0.82886, 11:-0.53963, 12:-0.70854, 13:-0.28327, 14: 0.28738, 15:-4.91213, 16:-3.93328, 17:-0.92641, 18:-0.15383,
                19: 2.33123, 20:-1.79668, 21:-0.03369, 22: 0.72190, 23:-0.37870, 24: 5.85474, 25:-0.90171, 26: 0.58312, 27: 1.39801,
                28: 1.08365, 29: 0.57563, 30:-0.02994, 31:-1.34769, 32:-2.53880, 33:-0.38436, 34: 0.18034, 35:-0.48709, 36: 6.53531,
                37:-0.36759, 38: 0.45444, 39:-0.81303, 40:-11.49047, 41:-0.84090, 42:-0.97354, 43:-5.47874, 44:-0.89897, 45:-0.05889,
                46:-0.69448, 47:-2.28083, 48:-3.92477, 49: 0.13441, 50:-0.46565, 51: 0.48405, 52: 2.59523, 53:-0.14494, 54: 0.22715,
                55:11.57096, 56:-4.77288, 57: 0.17903, 58: 0.69157, 59: 2.92476, 60:-2.89065, 61: 0.11626, 62:-0.07963, 63:-0.58998,
                64:-1.66275, 65: 0.18723, 66: 0.97373, 67: 1.39649, 68:-9.88528, 69: 0.29332, 70: 1.08628, 71: 0.73570, 72:14.65770,
                73:-0.44475, 74: 0.20433, 75:-2.23025, 76:-0.76466, 77:-0.88741, 78:-0.18232, 79: 0.78657, 80: 0.07202
    88 |      |  1:-0.43749,  2:-0.97832,  3:-0.09391,  4: 0.46271,  5:-0.70497,  6: 0.84715,  7:-0.32920,  8:17.23936,  9: 0.80856,
                10:-0.58619, 11: 0.05461, 12: 0.64820, 13: 0.82737, 14:-0.37484, 15: 8.94773, 16: 4.40786, 17: 0.27187, 18: 0.95169,
                19: 0.25016, 20:-0.61971, 21: 0.17655, 22: 0.67067, 23: 0.15950, 24:-3.18251, 25: 0.97011, 26: 1.41017, 27:-2.38049,
                28:-3.75079, 29: 0.31986, 30: 0.13882, 31: 0.65883, 32:-0.48192, 33: 1.35969, 34:-0.01540, 35:-15.34595, 36:13.44151,
                37:-0.89920, 38:-0.74715, 39:-6.59805, 40: 1.72883, 41:-0.24424, 42: 0.77081, 43: 5.65320, 44: 0.01547, 45:-0.35173,
                46:-0.18018, 47: 0.69086, 48:69.53440, 49: 0.20698, 50:-0.84366, 51: 0.65296, 52:-1.15872, 53:-0.36580, 54: 0.20727,
                55:-11.22109, 56: 1.47580, 57: 0.21855, 58: 0.92102, 59: 1.22709, 60:-3.87233, 61: 1.62200, 62:-0.17114, 63:-2.66228,
                64: 2.68267, 65:-0.83850, 66: 0.25649, 67: 0.46438, 68: 3.59546, 69: 0.88877, 70: 0.02713, 71:-8.23704, 72:-24.35417,
                73:-0.85560, 74: 0.16475, 75: 0.88386, 76:-0.98967, 77:-0.75757, 78: 0.04430, 79:-0.66649, 80:17.63714
    89 |      |  1:-2.23333,  2:-1.37908,  3:-1.62295,  4: 0.36538,  5:-1.79205,  6:-1.88540,  7:-0.60660,  8: 0.94062,  9:-1.21058,
                10:-1.71424, 11:-0.56255, 12: 0.89868, 13:-1.09117, 14:-0.73724, 15:25.25903, 16:-37.95512, 17:-40.95654, 18:-17.85823,
                19:61.16639, 20:338.67438, 21:-1.37529, 22:-1.33143, 23: 1.62089, 24:-220.73578, 25:-0.92201, 26:-1.58002, 27:51.13077,
                28:60.94568, 29:-253.55342, 30:-225.36726, 31: 0.11281, 32:-256.89612, 33:-1.81205, 34:-1.14794, 35:-105.69626, 36:99.94975,
                37:-1.18315, 38:-0.56614, 39:-1.16374, 40:47.48753, 41:-0.51620, 42:-0.63726, 43:25.66875, 44:-0.26148, 45:-0.41445,
                46:-1.90517, 47:36.93052, 48: 1.15131, 49:-295.69943, 50:-278.01562, 51:-10.08274, 52:323.08224, 53:-0.02737, 54:-1.44438,
                55:-74.10921, 56:-272.28146, 57:-2.31413, 58:-4.13037, 59:-15.54985, 60:313.16663, 61:-0.57140, 62:-1.71036, 63:-13.15473,
                64:301.48773, 65:-1.42860, 66:-3.71684, 67:59.36724, 68:-89.90123, 69: 3.71716, 70: 0.63946, 71:38.96882, 72:301.85468,
                73:-0.28474, 74:-1.87371, 75:35.58216, 76: 0.54423, 77:-0.81897, 78:-1.61855, 79: 0.14068, 80:-24.61942
    90 |      |  1:-1.39513,  2:-0.12679,  3: 0.02433,  4: 0.96914,  5:-0.79756,  6:-1.84439,  7:-1.03605,  8: 4.12965,  9:-1.96393,
                10:-0.35184, 11:-0.51270, 12: 0.69790, 13:-2.24361, 14:-2.25612, 15:-1.31373, 16: 9.22181, 17:12.74175, 18:-0.35554,
                19:-24.16332, 20:-25.05044, 21:-1.14026, 22:-1.13349, 23: 1.36970, 24:-0.24196, 25:-9.35028, 26:-11.06392, 27:-56.17758,
                28:-33.07534, 29:-0.33676, 30: 0.06035, 31:-0.63240, 32: 0.51687, 33:-1.70075, 34:-1.67924, 35:26.73399, 36:47.77642,
                37:-0.77983, 38:-1.66373, 39: 0.15878, 40:-36.99221, 41:-1.86167, 42:-0.62188, 43:-2.18200, 44:-0.53912, 45:-1.04399,
                46:-0.19333, 47:-14.88946, 48:-4.39883, 49: 1.33117, 50: 0.40892, 51: 0.47977, 52:-26.30435, 53:-1.87143, 54:-0.62442,
                55:26.05569, 56:54.57198, 57: 0.45532, 58: 5.15170, 59:42.59902, 60:-99.82034, 61:-2.15423, 62:-1.86692, 63:39.03131,
                64:-15.88544, 65:-1.78296, 66: 0.26890, 67:-6.61820, 68:-180.75427, 69: 0.52547, 70:-1.03925, 71:-0.59400, 72:37.96916,
                73:-1.35547, 74:-1.07435, 75:-1.02965, 76:-0.69292, 77:-1.35905, 78:-0.12989, 79: 1.34045, 80:-18.78143
    91 |      | 81:-1.12447, 82:-0.69847, 83:-6.12501, 84: 0.48244, 85:-0.65589, 86: 0.43608, 87: 1.72808, 88:-0.59303, 89:-0.22824,
                90: 1.15070
-------|------|---------------------------------------------------------------------------------------------------------------------
