SNNS network definition file V1.4-3D
generated at Mon Feb 27 17:29:26 2006

network name : frequency_average_trained_20i_30h
source files :
no. of units : 111
no. of connections : 2430
no. of unit types : 0
no. of site types : 0


learning function : Rprop
update function   : Topological_Order


unit default section :

act      | bias     | st | subnet | layer | act func     | out func
---------|----------|----|--------|-------|--------------|-------------
 0.00000 |  0.00000 | h  |      0 |     1 | Act_Logistic | Out_Identity 
---------|----------|----|--------|-------|--------------|-------------


unit definition section :

no. | typeName | unitName | act      | bias     | st | position | act func | out func | sites
----|----------|----------|----------|----------|----|----------|----------|----------|-------
  1 |          |          |  4.00000 | -0.05549 | i  |  2, 2,-5592 |||
  2 |          |          |  3.00000 |  0.72728 | i  |  3, 2,-5592 |||
  3 |          |          |  0.53000 |  0.64085 | i  |  4, 2,-5592 |||
  4 |          |          |  0.00000 | -0.15649 | i  |  5, 2,-5592 |||
  5 |          |          | 10.00000 | -0.92473 | i  |  2, 3,-5592 |||
  6 |          |          |  6.00000 |  0.57401 | i  |  3, 3,-5592 |||
  7 |          |          |  0.37000 |  0.22006 | i  |  4, 3,-5592 |||
  8 |          |          |  0.00000 | -0.62637 | i  |  5, 3,-5592 |||
  9 |          |          |  3.00000 |  0.84639 | i  |  2, 4,-5592 |||
 10 |          |          |  2.00000 | -0.59317 | i  |  3, 4,-5592 |||
 11 |          |          |  0.54000 |  0.85255 | i  |  4, 4,-5592 |||
 12 |          |          |  0.00000 |  0.37264 | i  |  5, 4,-5592 |||
 13 |          |          |  2.00000 | -0.93776 | i  |  2, 5,-5592 |||
 14 |          |          |  2.00000 |  0.32174 | i  |  3, 5,-5592 |||
 15 |          |          | -0.26000 | -0.05368 | i  |  4, 5,-5592 |||
 16 |          |          |  0.00000 | -0.56915 | i  |  5, 5,-5592 |||
 17 |          |          |  4.00000 | -0.06998 | i  |  2, 6,-5592 |||
 18 |          |          |  3.00000 |  0.78271 | i  |  3, 6,-5592 |||
 19 |          |          | -0.72000 | -0.50429 | i  |  4, 6,-5592 |||
 20 |          |          | -1.00000 | -0.01637 | i  |  5, 6,-5592 |||
 21 |          |          |  5.00000 | -0.77496 | i  |  2, 7,-5592 |||
 22 |          |          |  4.00000 |  0.91796 | i  |  3, 7,-5592 |||
 23 |          |          | -0.69000 |  0.66999 | i  |  4, 7,-5592 |||
 24 |          |          |  0.00000 | -0.50334 | i  |  5, 7,-5592 |||
 25 |          |          |  0.00000 |  0.61802 | i  |  2, 8,-5592 |||
 26 |          |          |  0.00000 | -0.83082 | i  |  3, 8,-5592 |||
 27 |          |          |  0.16000 | -0.19240 | i  |  4, 8,-5592 |||
 28 |          |          |  0.00000 | -0.93258 | i  |  5, 8,-5592 |||
 29 |          |          |  0.00000 | -0.61425 | i  |  2, 9,-5592 |||
 30 |          |          |  0.00000 |  0.15225 | i  |  3, 9,-5592 |||
 31 |          |          |  0.16000 |  0.94047 | i  |  4, 9,-5592 |||
 32 |          |          |  0.00000 | -0.06383 | i  |  5, 9,-5592 |||
 33 |          |          |  3.00000 | -0.80454 | i  |  2,10,-5592 |||
 34 |          |          |  2.00000 |  0.43210 | i  |  3,10,-5592 |||
 35 |          |          | -0.18000 |  0.49672 | i  |  4,10,-5592 |||
 36 |          |          |  0.00000 |  0.00643 | i  |  5,10,-5592 |||
 37 |          |          |  7.00000 | -0.59301 | i  |  2,11,-5592 |||
 38 |          |          |  6.00000 |  0.64045 | i  |  3,11,-5592 |||
 39 |          |          | -1.80000 | -0.03036 | i  |  4,11,-5592 |||
 40 |          |          |  1.00000 | -0.45230 | i  |  5,11,-5592 |||
 41 |          |          |  7.00000 |  0.96786 | i  |  2,12,-5592 |||
 42 |          |          |  5.00000 |  0.47775 | i  |  3,12,-5592 |||
 43 |          |          |  0.61000 | -0.76439 | i  |  4,12,-5592 |||
 44 |          |          |  0.00000 | -0.09234 | i  |  5,12,-5592 |||
 45 |          |          |  4.00000 | -0.95584 | i  |  2,13,-5592 |||
 46 |          |          |  3.00000 |  0.74025 | i  |  3,13,-5592 |||
 47 |          |          |  0.73000 |  0.71035 | i  |  4,13,-5592 |||
 48 |          |          |  0.00000 | -0.24463 | i  |  5,13,-5592 |||
 49 |          |          |  0.00000 |  0.06506 | i  |  2,14,-5592 |||
 50 |          |          |  0.00000 | -0.20732 | i  |  3,14,-5592 |||
 51 |          |          |  0.16000 |  0.72803 | i  |  4,14,-5592 |||
 52 |          |          |  0.00000 | -0.58489 | i  |  5,14,-5592 |||
 53 |          |          |  4.00000 |  0.85836 | i  |  2,15,-5592 |||
 54 |          |          |  3.00000 |  0.65370 | i  |  3,15,-5592 |||
 55 |          |          |  0.73000 | -0.79407 | i  |  4,15,-5592 |||
 56 |          |          |  0.00000 | -0.12207 | i  |  5,15,-5592 |||
 57 |          |          |  4.00000 | -0.51467 | i  |  2,16,-5592 |||
 58 |          |          |  3.00000 | -0.04385 | i  |  3,16,-5592 |||
 59 |          |          | -0.64000 |  0.83320 | i  |  4,16,-5592 |||
 60 |          |          |  0.00000 |  0.58492 | i  |  5,16,-5592 |||
 61 |          |          |  7.00000 |  0.68133 | i  |  2,17,-5592 |||
 62 |          |          |  5.00000 |  0.96135 | i  |  3,17,-5592 |||
 63 |          |          |  0.61000 |  0.42641 | i  |  4,17,-5592 |||
 64 |          |          |  0.00000 |  0.89779 | i  |  5,17,-5592 |||
 65 |          |          |  1.00000 |  0.37809 | i  |  2,18,-5592 |||
 66 |          |          |  1.00000 | -0.88481 | i  |  3,18,-5592 |||
 67 |          |          |  0.25000 | -0.31972 | i  |  4,18,-5592 |||
 68 |          |          |  0.00000 | -0.01524 | i  |  5,18,-5592 |||
 69 |          |          | 10.00000 | -0.50267 | i  |  2,19,-5592 |||
 70 |          |          |  6.00000 | -0.50484 | i  |  3,19,-5592 |||
 71 |          |          |  0.37000 | -0.02267 | i  |  4,19,-5592 |||
 72 |          |          |  0.00000 | -0.32439 | i  |  5,19,-5592 |||
 73 |          |          |  4.00000 | -0.59440 | i  |  2,20,-5592 |||
 74 |          |          |  3.00000 | -0.83201 | i  |  3,20,-5592 |||
 75 |          |          |  0.53000 | -0.90446 | i  |  4,20,-5592 |||
 76 |          |          |  0.00000 |  0.54384 | i  |  5,20,-5592 |||
 77 |          |          |  5.00000 |  0.41699 | i  |  2,21,-5592 |||
 78 |          |          |  4.00000 |  0.80643 | i  |  3,21,-5592 |||
 79 |          |          | -0.62000 |  0.17391 | i  |  4,21,-5592 |||
 80 |          |          | -1.00000 | -0.73484 | i  |  5,21,-5592 |||
 81 |          |          |  1.00000 | 20.30305 | h  |  8, 2,-5592 |||
 82 |          |          |  0.00000 | -0.67766 | h  |  8, 3,-5592 |||
 83 |          |          |  0.00000 |  0.04153 | h  |  8, 4,-5592 |||
 84 |          |          |  0.00000 | -0.86796 | h  |  8, 5,-5592 |||
 85 |          |          |  0.00000 | -0.43279 | h  |  8, 6,-5592 |||
 86 |          |          |  1.00000 | -0.44143 | h  |  8, 7,-5592 |||
 87 |          |          |  0.08331 | -0.93550 | h  |  8, 8,-5592 |||
 88 |          |          |  1.00000 | 19.13168 | h  |  8, 9,-5592 |||
 89 |          |          |  0.00000 | -0.50232 | h  |  8,10,-5592 |||
 90 |          |          |  1.00000 | 10.45137 | h  |  8,11,-5592 |||
 91 |          |          |  1.00000 | 20.43236 | h  |  8,12,-5592 |||
 92 |          |          |  1.00000 |  0.23452 | h  |  8,13,-5592 |||
 93 |          |          |  0.00001 | -0.39095 | h  |  8,14,-5592 |||
 94 |          |          |  0.00000 |  0.32227 | h  |  8,15,-5592 |||
 95 |          |          |  1.00000 |  0.88271 | h  |  8,16,-5592 |||
 96 |          |          |  0.00000 | -0.86812 | h  |  8,17,-5592 |||
 97 |          |          |  0.00000 | -0.70223 | h  |  8,18,-5592 |||
 98 |          |          |  1.00000 | 20.81063 | h  |  8,19,-5592 |||
 99 |          |          |  0.00000 | -0.23317 | h  |  8,20,-5592 |||
100 |          |          |  1.00000 | -0.88434 | h  |  8,21,-5592 |||
101 |          |          |  1.00000 | -0.44691 | h  |  8,22,-5592 |||
102 |          |          |  1.00000 | 23.64072 | h  |  8,23,-5592 |||
103 |          |          |  1.00000 | 23.93577 | h  |  8,24,-5592 |||
104 |          |          |  0.36325 | -0.22467 | h  |  8,25,-5592 |||
105 |          |          |  1.00000 |  0.80407 | h  |  8,26,-5592 |||
106 |          |          |  1.00000 | 20.60501 | h  |  8,27,-5592 |||
107 |          |          |  1.00000 | 23.17613 | h  |  8,28,-5592 |||
108 |          |          |  0.00000 | -0.88864 | h  |  8,29,-5592 |||
109 |          |          |  0.00000 | -0.78999 | h  |  8,30,-5592 |||
110 |          |          |  0.00000 | -0.33399 | h  |  8,31,-5592 |||
111 |          |          |  0.67682 |  0.62640 | o  | 11, 2,-5592 |||
----|----------|----------|----------|----------|----|----------|----------|----------|-------


connection definition section :

target | site | source:weight
-------|------|----------------------------------------------------------------------------------------------------------------
    81 |      |   1:19.84479,   2:20.99051,   3:19.23295,   4: 0.66660,   5:20.52263,   6:20.01900,   7:19.87921,   8: 0.47356,
                  9:20.00622,  10:19.62308,  11:19.39393,  12:-0.79848,  13:20.61119,  14:19.60484,  15:19.14149,  16:-0.39131,
                 17:20.29764,  18:19.84497,  19:20.46595,  20:-20.32436,  21:20.98079,  22:20.37945,  23:-20.46877,  24: 0.91689,
                 25:19.80342,  26:19.58725,  27:19.97099,  28:-19.94063,  29:19.94994,  30:19.57498,  31:-20.61448,  32:20.57171,
                 33:20.53902,  34:19.91211,  35:-19.07616,  36: 0.19643,  37:20.90012,  38:19.89114,  39:-20.52854,  40:-20.54178,
                 41:19.49916,  42:19.97254,  43:-19.67809,  44:-0.97428,  45:20.90492,  46:20.25851,  47:19.97416,  48:19.20071,
                 49:20.54889,  50:19.17289,  51:-20.95177,  52:20.06713,  53:19.28925,  54:20.17704,  55:20.76763,  56:-0.20412,
                 57:19.70032,  58:20.71186,  59:-19.61402,  60:-20.91906,  61:19.92181,  62:20.73207,  63:19.04523,  64:20.95611,
                 65:19.26089,  66:19.51563,  67:19.39566,  68:19.55863,  69:20.58147,  70:19.93533,  71:20.78235,  72:-0.51716,
                 73:20.97024,  74:19.33265,  75:-19.35362,  76:-0.11212,  77:19.96255,  78:20.52073,  79:-19.91189,  80: 0.64571
    82 |      |   1: 0.22424,   2:-1.01794,   3: 0.42025,   4:-0.20354,   5: 0.50628,   6:-0.96374,   7: 0.39550,   8:18.97466,
                  9:-1.00773,  10:-0.91843,  11:-0.60224,  12: 0.16626,  13:-0.63046,  14: 0.70229,  15:10.10095,  16:27.23196,
                 17: 0.65383,  18: 0.00853,  19:-0.33106,  20: 0.62136,  21:-0.10669,  22: 0.19580,  23:-0.37153,  24: 0.09331,
                 25: 0.98712,  26: 0.06633,  27:-1.21443,  28: 0.78729,  29: 1.53462,  30: 0.36325,  31:-1.00024,  32: 0.79147,
                 33:-0.09693,  34: 0.43400,  35: 1.52671,  36:-36.51495,  37:-1.05421,  38: 0.04947,  39: 0.81173,  40:-30.14255,
                 41:-0.96351,  42:-0.45561,  43: 1.19549,  44: 0.21585,  45:-0.07550,  46:-0.24252,  47: 0.59079,  48: 5.52871,
                 49:-2.10396,  50:-1.53729,  51:-0.28562,  52:-0.00902,  53:-1.06737,  54:-0.14253,  55:-0.26701,  56:17.25971,
                 57:-0.62846,  58: 0.38382,  59:-1.02739,  60:-8.46284,  61: 0.72480,  62:-0.76348,  63:-0.20834,  64: 3.37148,
                 65:-1.20593,  66:-0.47295,  67: 2.56858,  68:-90.62763,  69: 0.00218,  70: 0.72737,  71:-0.43372,  72:-8.99687,
                 73: 0.32073,  74: 0.22711,  75: 3.09428,  76: 0.11014,  77:-0.59601,  78:-1.07544,  79:-0.53729,  80:-0.18696
    83 |      |   1:-1.28063,   2:-1.73326,   3:-0.11178,   4: 0.58554,   5:-0.50924,   6: 0.21596,   7:-0.40495,   8:-3.47271,
                  9:-1.41700,  10:-0.74720,  11:-0.73694,  12:-0.99147,  13:-0.86185,  14:-0.67151,  15:-0.47048,  16:-14.13528,
                 17:-0.09069,  18:-0.65988,  19: 5.37116,  20:-2.93070,  21:-0.42618,  22:-1.73465,  23: 0.76714,  24:-45.34093,
                 25:-0.66518,  26:-1.39733,  27:-0.20295,  28:37.82770,  29: 2.57388,  30: 1.10990,  31:-20.55399,  32: 9.86801,
                 33:-1.08577,  34:-0.21018,  35: 1.69483,  36: 9.04683,  37:-0.60826,  38: 0.17086,  39: 5.68056,  40:-24.16239,
                 41: 0.12651,  42:-1.26590,  43: 4.10240,  44:-0.34302,  45: 0.05558,  46:-1.38421,  47:-0.94207,  48:-14.17351,
                 49: 0.24813,  50:-1.13103,  51: 9.09434,  52: 2.07693,  53:-0.85514,  54:-0.97807,  55: 8.96660,  56:55.55979,
                 57: 1.43407,  58:-0.25384,  59:-1.91253,  60: 1.23528,  61:-0.79199,  62:-0.65877,  63: 1.79850,  64:10.87488,
                 65:-1.41312,  66: 0.28256,  67:-6.68261,  68:43.43362,  69: 0.10597,  70:-0.37738,  71:-1.45091,  72: 0.96119,
                 73: 0.20478,  74:-1.11832,  75:-18.33580,  76: 0.21241,  77:-1.12750,  78:-0.96169,  79: 0.53429,  80:22.39411
    84 |      |   1:-0.84442,   2:-0.28991,   3:-0.75696,   4:-0.05851,   5:-0.36668,   6:-0.60463,   7:-0.77734,   8:16.96559,
                  9:-1.59530,  10:-0.88782,  11:-1.68383,  12:-0.39235,  13:-1.80573,  14:-1.47084,  15:-0.90481,  16:18.94348,
                 17:-1.32474,  18:-1.01580,  19: 2.40170,  20: 0.58751,  21:-0.63936,  22:-0.38892,  23: 1.00676,  24:40.94030,
                 25:-0.59985,  26:-0.95749,  27:-6.20393,  28:-38.39397,  29:-45.54992,  30:-37.25150,  31:19.53362,  32:-33.09807,
                 33:-1.24442,  34:-1.32079,  35: 0.91565,  36:53.95628,  37:-0.77863,  38:-0.66417,  39: 0.39960,  40:11.77696,
                 41:-0.85373,  42:-0.99998,  43:-1.11188,  44: 0.85622,  45:-0.93103,  46:-1.32639,  47: 1.78609,  48:10.37800,
                 49:-1.23405,  50:-0.58027,  51:-0.38931,  52:-5.78870,  53:-1.33612,  54:-1.70794,  55:-3.00561,  56:11.30449,
                 57:-1.14199,  58:-1.34754,  59: 3.47938,  60:80.85645,  61:-0.61854,  62:-1.05414,  63:-42.87146,  64: 1.64403,
                 65:-0.12867,  66:-1.69858,  67: 3.08973,  68:-18.24694,  69:-1.21495,  70:-0.68265,  71:43.31261,  72: 3.82639,
                 73: 3.11041,  74:10.45207,  75: 0.45082,  76: 0.48739,  77:-1.31267,  78:-0.23215,  79: 0.56601,  80: 0.09283
    85 |      |   1:-0.17078,   2:-0.77022,   3: 0.64774,   4: 0.52900,   5:-0.02640,   6:-0.93835,   7:-1.00748,   8:-18.26874,
                  9:-0.89164,  10:-0.27100,  11:-0.08472,  12:-0.86545,  13: 0.79247,  14:-0.29696,  15: 1.24493,  16:-25.47943,
                 17:-1.06173,  18: 0.79435,  19:-0.18237,  20:-0.32541,  21: 0.79266,  22:-0.09322,  23: 0.38410,  24:-0.57467,
                 25: 0.45257,  26:-0.69965,  27:-6.39730,  28: 2.63127,  29: 0.20982,  30: 1.75075,  31: 4.15927,  32: 0.73319,
                 33:-0.59246,  34: 0.50676,  35:-1.36662,  36: 0.64547,  37:-0.23733,  38:-0.26568,  39: 0.21896,  40:-6.24257,
                 41:-0.07410,  42:-0.24336,  43:-6.49079,  44: 0.50078,  45:-0.43637,  46: 0.01512,  47: 4.73227,  48:-5.46875,
                 49:-0.40125,  50:-0.74304,  51:-0.24289,  52:-9.02149,  53:-0.51420,  54:-1.13952,  55:14.25900,  56:-0.90707,
                 57:-0.05228,  58: 0.25305,  59: 1.08778,  60: 0.76586,  61: 0.36850,  62: 0.55948,  63: 1.05998,  64: 0.62392,
                 65: 0.60076,  66: 1.26637,  67:-5.01139,  68:-84.57060,  69:-1.22325,  70:-0.65258,  71: 1.79148,  72: 4.11700,
                 73:-0.46529,  74: 0.49412,  75: 0.01977,  76:-0.10813,  77: 0.63366,  78:-0.51905,  79: 0.44443,  80: 7.19671
    86 |      |   1: 0.13234,   2: 0.44978,   3: 0.56359,   4:-0.98916,   5: 0.84588,   6:-0.53108,   7:-0.15783,   8:-0.48846,
                  9: 0.90355,  10: 0.03927,  11:-0.26706,  12:-0.88585,  13:-0.45265,  14: 0.98675,  15: 0.69818,  16:-0.07742,
                 17: 0.22177,  18:-0.13169,  19: 0.62468,  20: 0.97535,  21:-0.54883,  22:-0.92130,  23:-0.38519,  24: 0.27596,
                 25: 0.14215,  26: 0.19819,  27:-0.23683,  28: 0.78109,  29: 0.27663,  30: 0.37611,  31: 0.35088,  32:-0.70505,
                 33:-0.58551,  34:-0.71267,  35:-0.06469,  36: 0.07035,  37: 0.39845,  38:-0.02518,  39:-0.31313,  40:-0.16622,
                 41: 0.25529,  42: 0.41127,  43:-0.69451,  44:-0.62286,  45: 0.84304,  46:-0.57087,  47:-0.81405,  48:-0.17130,
                 49: 0.34805,  50: 0.67700,  51:-0.09041,  52:-0.63724,  53: 0.55290,  54: 0.20236,  55: 0.30639,  56:-0.84535,
                 57:-0.14201,  58: 0.21943,  59:-0.59052,  60: 0.65388,  61: 0.54783,  62: 0.52436,  63:-0.26242,  64: 0.14609,
                 65: 0.66706,  66: 0.13976,  67: 0.08081,  68: 0.60913,  69:-0.74942,  70: 0.22175,  71:-0.10712,  72:-0.86018,
                 73: 0.39273,  74: 0.50413,  75: 0.53683,  76: 0.92956,  77: 0.82062,  78: 0.88902,  79:-0.00967,  80:-0.31464
    87 |      |   1:-0.11673,   2: 0.67389,   3: 0.42912,   4: 0.85338,   5:-0.28389,   6: 0.10414,   7:-0.99949,   8:-19.35224,
                  9:-0.87202,  10: 0.09397,  11: 0.19965,  12:-0.74662,  13: 0.83507,  14:-0.16323,  15: 1.46989,  16:-5.46794,
                 17: 1.01824,  18: 0.53846,  19:-2.63011,  20:-1.19622,  21: 0.02691,  22:-0.64925,  23: 0.33803,  24: 6.18886,
                 25:-0.02470,  26:-0.67184,  27:-0.53819,  28:-0.84882,  29:-0.94785,  30: 0.28443,  31:-3.99618,  32: 1.58156,
                 33:-0.06141,  34: 0.69695,  35: 1.12128,  36:-0.37075,  37: 0.48589,  38:-0.55980,  39: 0.37338,  40: 1.04625,
                 41: 0.67985,  42:-0.11207,  43:-2.66336,  44:-0.33064,  45:-0.11083,  46:-1.12670,  47:-1.24455,  48:-5.28611,
                 49: 0.76650,  50:-0.34041,  51:-3.30639,  52:-0.81098,  53:-0.88869,  54:-0.16763,  55: 8.06355,  56:-22.50939,
                 57:-0.30811,  58:-0.42939,  59:-5.22729,  60:-0.25207,  61:-1.20728,  62: 0.17996,  63:-3.78028,  64:-1.11563,
                 65: 0.97572,  66: 0.83699,  67: 0.97892,  68:-0.01207,  69: 0.15840,  70:-0.08353,  71: 0.33019,  72: 5.02383,
                 73:-0.27772,  74: 0.95031,  75:-2.86392,  76: 0.56826,  77: 0.49673,  78:-0.68547,  79:-0.44075,  80:-0.35787
    88 |      |   1:20.16412,   2:19.87326,   3:19.09555,   4: 0.81674,   5:20.70832,   6:20.97715,   7:19.65295,   8:-20.32271,
                  9:20.67806,  10:19.92334,  11:20.34801,  12: 0.44121,  13:19.07139,  14:20.11854,  15:20.20272,  16:20.05857,
                 17:20.52899,  18:20.22793,  19:-19.26471,  20:-19.89442,  21:20.13511,  22:20.75110,  23:-19.65093,  24:19.47003,
                 25:19.04634,  26:20.38828,  27:19.18177,  28:-19.19189,  29:20.56856,  30:20.99052,  31:20.61217,  32:-19.35500,
                 33:20.57050,  34:20.40240,  35:20.37132,  36:19.89086,  37:19.01429,  38:19.94556,  39:-19.74518,  40:19.42290,
                 41:19.92992,  42:20.84789,  43:-20.14133,  44: 0.54274,  45:19.35947,  46:20.38497,  47:19.35730,  48: 0.20435,
                 49:19.11444,  50:19.74747,  51:19.12333,  52:20.41128,  53:19.06201,  54:20.15541,  55:20.68634,  56:20.93666,
                 57:19.98710,  58:20.07570,  59:-20.90666,  60:19.20307,  61:19.74029,  62:20.72617,  63:19.83803,  64:-19.20598,
                 65:20.71836,  66:20.62150,  67:-19.94496,  68:19.51851,  69:20.04528,  70:20.58581,  71:-19.75856,  72:20.42570,
                 73:19.90613,  74:20.36449,  75:-19.80943,  76:-0.28155,  77:20.08236,  78:20.25322,  79:-20.34544,  80:-19.45832
    89 |      |   1: 0.08952,   2:-0.31470,   3:-0.20272,   4: 0.33501,   5:-0.17405,   6: 0.20289,   7:-0.87422,   8:18.08833,
                  9:-0.26847,  10:-0.50378,  11: 0.11291,  12: 0.16648,  13: 1.21206,  14: 0.74168,  15: 0.65925,  16:27.56878,
                 17:-0.91971,  18:-1.35500,  19: 1.67460,  20:-27.95654,  21:-1.45466,  22:-0.56518,  23: 1.01183,  24:-13.12176,
                 25: 0.09482,  26: 0.42621,  27:-0.31550,  28:15.42581,  29: 0.33286,  30: 0.49964,  31: 0.52140,  32: 1.07685,
                 33: 0.37706,  34: 0.79626,  35: 0.04487,  36:-11.90371,  37:-0.89187,  38:-0.44944,  39: 0.13794,  40:17.90807,
                 41:-0.53538,  42: 0.20212,  43: 0.27485,  44:-0.42191,  45:-0.40471,  46:-0.29413,  47:-0.40001,  48: 5.58194,
                 49:-0.49248,  50:-0.45361,  51:-0.01137,  52: 0.75018,  53:-0.62628,  54: 0.39343,  55:-1.99284,  56:-10.64976,
                 57:-0.84602,  58:-1.83337,  59: 3.65136,  60:27.92843,  61:-1.25158,  62:-1.54492,  63:-0.21577,  64:-0.65185,
                 65:-0.94083,  66:-0.99419,  67:-0.93454,  68:17.97925,  69:-1.36414,  70:-1.41273,  71:-0.01234,  72:-1.30210,
                 73:-1.03707,  74:-1.06303,  75: 0.65642,  76: 0.49424,  77:-0.11053,  78: 0.21335,  79: 0.45265,  80: 1.31437
    90 |      |   1:10.23344,   2: 9.46731,   3:10.35808,   4:-0.45706,   5: 9.73941,   6: 9.17407,   7: 9.53486,   8:20.08360,
                  9:10.39782,  10: 9.00528,  11:10.47757,  12:-0.92120,  13:10.74508,  14:10.29980,  15: 0.26937,  16:29.15610,
                 17:10.24756,  18: 9.11246,  19:-10.06754,  20:-9.54132,  21: 9.58487,  22:10.77045,  23:-10.17157,  24:20.26010,
                 25: 9.77551,  26:10.19615,  27:-0.19095,  28:10.13449,  29:19.23694,  30:20.97694,  31:-0.23951,  32:19.75069,
                 33:10.27365,  34: 9.56119,  35:-9.46993,  36:19.31050,  37: 9.85980,  38: 9.57176,  39:-9.14844,  40:-0.73216,
                 41: 9.75377,  42: 9.10472,  43:-1.29892,  44:-0.49903,  45: 9.49506,  46:10.41937,  47: 9.41746,  48:19.07673,
                 49:-10.14594,  50:-8.73457,  51: 9.37448,  52:20.52786,  53: 9.31334,  54:10.81889,  55: 9.29134,  56:19.74458,
                 57: 9.85737,  58: 9.23717,  59:-10.36441,  60:-19.04827,  61:10.15628,  62: 9.96818,  63:-0.85853,  64:20.40839,
                 65:10.78534,  66:10.77197,  67:-0.18428,  68:20.42831,  69: 9.98478,  70: 9.09721,  71:10.42351,  72:20.96991,
                 73: 9.20939,  74:10.79990,  75:-1.40484,  76:-0.93003,  77:10.63886,  78:10.34494,  79:-10.46171,  80: 1.17862
    91 |      |   1:20.58414,   2:20.05470,   3:20.56686,   4:-0.95338,   5:20.28831,   6:19.83058,   7:20.29218,   8:-0.75365,
                  9:19.40660,  10:19.16711,  11:19.58340,  12: 0.69001,  13:20.05317,  14:19.16570,  15:-19.90070,  16:19.56111,
                 17:20.84516,  18:20.89074,  19:-20.20346,  20:-20.25779,  21:19.14588,  22:20.24086,  23:-19.04617,  24:19.82274,
                 25:19.55624,  26:19.17546,  27:20.47844,  28:-19.16329,  29:-19.45899,  30:-19.31596,  31:19.89920,  32:-20.69298,
                 33:20.11649,  34:20.69656,  35:20.75135,  36:-20.08978,  37:20.14459,  38:19.16822,  39:-19.35894,  40:19.07240,
                 41:20.90528,  42:19.95530,  43:19.55450,  44:-0.01816,  45:20.52334,  46:20.42009,  47:19.45181,  48:-19.00392,
                 49:19.62485,  50:20.52567,  51:19.96218,  52:20.08802,  53:20.75018,  54:20.53213,  55:-19.73626,  56:20.89375,
                 57:20.85770,  58:20.28428,  59:-19.22047,  60:19.88793,  61:19.36185,  62:19.95325,  63:-19.97107,  64:19.23590,
                 65:20.05109,  66:20.39671,  67:20.31714,  68:-19.31371,  69:19.75921,  70:20.93778,  71:19.49169,  72:19.42607,
                 73:20.49616,  74:20.20594,  75:-19.09243,  76:-0.20940,  77:20.90172,  78:19.07442,  79:-20.72404,  80:-19.00592
    92 |      |   1: 0.97946,   2: 0.07664,   3:-0.77302,   4: 0.85703,   5: 0.79588,   6: 0.63291,   7:-0.61586,   8: 0.37783,
                  9: 0.71963,  10:-0.68068,  11:-0.11590,  12: 0.66288,  13: 0.48680,  14: 0.32480,  15:-0.71909,  16:-0.93390,
                 17:-0.07276,  18: 0.15469,  19: 0.13677,  20:-0.95774,  21:-0.03804,  22:-0.05986,  23: 0.61826,  24: 0.21828,
                 25: 0.33154,  26:-0.45327,  27:-0.07919,  28: 0.78488,  29:-0.32159,  30:-0.55975,  31:-0.44646,  32:-0.65615,
                 33:-0.83970,  34: 0.87697,  35:-0.91170,  36:-0.93368,  37:-0.92540,  38: 0.93126,  39: 0.76698,  40:-0.01318,
                 41: 0.52166,  42: 0.44246,  43: 0.66714,  44: 0.62320,  45: 0.89615,  46:-0.46388,  47: 0.45899,  48:-0.13599,
                 49: 0.90502,  50: 0.92690,  51:-0.61871,  52: 0.53639,  53:-0.72737,  54:-0.19019,  55:-0.63038,  56:-0.56318,
                 57:-0.31867,  58: 0.45513,  59:-0.54200,  60: 0.39593,  61:-0.34907,  62: 0.39655,  63: 0.03304,  64:-0.47860,
                 65:-0.20649,  66: 0.69040,  67:-0.64421,  68:-0.16972,  69: 0.47069,  70: 0.57132,  71: 0.30588,  72: 0.59442,
                 73: 0.57608,  74:-0.02857,  75: 0.59183,  76: 0.77896,  77:-0.31639,  78:-0.06113,  79:-0.02768,  80: 0.69228
    93 |      |   1:-0.50877,   2:-0.88952,   3: 0.25240,   4:-0.12702,   5: 0.66236,   6: 0.71037,   7:-1.04703,   8:-18.90361,
                  9:-0.03337,  10: 0.58945,  11: 0.62904,  12:-0.17851,  13: 0.13450,  14:-0.12265,  15: 0.13231,  16:-51.04679,
                 17:-0.74864,  18:-0.16454,  19:-0.65897,  20: 1.43068,  21:-0.91690,  22:-0.46558,  23: 1.04620,  24:11.92320,
                 25: 0.25952,  26:-0.60896,  27:-1.08209,  28:-3.19614,  29:-0.18484,  30:-0.02474,  31:-0.31417,  32:-0.44834,
                 33:-0.04154,  34:-0.03479,  35:-1.06071,  36:-16.38304,  37:-0.18057,  38:-0.07687,  39:-2.37943,  40: 2.60296,
                 41: 0.34149,  42:-0.68450,  43:-0.10218,  44: 0.46383,  45:-1.11774,  46:-0.87886,  47: 0.36081,  48:-4.64184,
                 49:-0.41096,  50:-0.53715,  51: 0.30363,  52: 0.67129,  53: 0.24526,  54: 0.32314,  55: 0.69113,  56:-4.09234,
                 57:-0.43218,  58:-1.08870,  59: 0.21306,  60: 0.17897,  61:-0.30558,  62: 0.16127,  63: 0.14868,  64: 2.81644,
                 65:-1.01835,  66:-0.31034,  67: 0.91415,  68:-121.55130,  69: 0.03455,  70: 1.13241,  71: 0.25814,  72:13.82823,
                 73:-0.16886,  74:-1.15055,  75: 0.77581,  76:-0.17821,  77:-0.74791,  78: 0.36883,  79: 0.66546,  80: 0.23259
    94 |      |   1:-0.82730,   2:-0.89412,   3:-0.84050,   4: 0.48730,   5: 0.48420,   6: 0.44394,   7:-0.24092,   8:17.89638,
                  9:-1.74309,  10:-0.98772,  11:-0.45544,  12:-0.42794,  13:-0.56886,  14:-0.41486,  15:-0.20340,  16:-10.90202,
                 17: 1.20086,  18:-0.17018,  19: 0.55382,  20:-0.77542,  21:-0.34473,  22: 0.24576,  23:-0.42533,  24:-5.68639,
                 25: 1.25353,  26:-0.51479,  27: 1.24843,  28: 2.56447,  29: 0.14055,  30:-0.04639,  31: 4.66916,  32:-5.29621,
                 33: 0.09316,  34:-0.57083,  35:-0.61961,  36: 6.45495,  37:-0.06557,  38:-0.73870,  39:-0.73357,  40: 1.03118,
                 41:-0.70437,  42:-0.59940,  43: 1.43579,  44:-0.55332,  45: 0.13886,  46:-0.05584,  47: 1.10654,  48: 5.83907,
                 49:-0.90497,  50:-0.66367,  51:-1.12093,  52:-0.51499,  53:-0.24845,  54:-0.33427,  55:-1.53350,  56:-127.43066,
                 57: 0.79063,  58: 1.24199,  59:-0.13059,  60:-0.79281,  61:-0.56217,  62:-0.01728,  63:-2.40341,  64:-0.48756,
                 65: 1.08020,  66:-0.37032,  67: 2.60047,  68: 6.54708,  69:-1.28991,  70: 0.36786,  71: 0.16394,  72:-3.99915,
                 73:-0.02350,  74:-0.00989,  75: 0.31775,  76: 0.28379,  77: 0.61909,  78: 0.98962,  79:-0.76109,  80:-1.56275
    95 |      |   1:-0.24963,   2:-0.68348,   3:-0.59559,   4:-0.15536,   5:-0.41638,   6: 0.23846,   7:-0.20792,   8:150.16467,
                  9:-0.32961,  10:-0.89348,  11:-0.40769,  12:-0.37098,  13: 0.81694,  14:-0.13152,  15: 0.77981,  16: 6.81774,
                 17: 0.07641,  18:-0.37645,  19: 1.19196,  20: 0.47937,  21:-0.12313,  22:-0.20113,  23:-0.11189,  24:-1.00669,
                 25: 0.75229,  26:-0.82964,  27:-2.38603,  28: 4.20594,  29: 2.29084,  30: 0.86895,  31:-4.76019,  32: 9.28644,
                 33: 0.72742,  34: 0.17324,  35:-0.23067,  36:-8.47021,  37: 0.63027,  38: 1.05766,  39: 0.63884,  40: 0.52215,
                 41: 0.81310,  42:-0.86883,  43: 4.52541,  44:-0.37366,  45:-0.36467,  46:-0.91639,  47: 3.42930,  48: 3.98554,
                 49:-0.86846,  50: 0.33203,  51:-0.80391,  52: 0.36792,  53:-0.50360,  54:-0.07186,  55:-5.61412,  56:-2.38955,
                 57:-0.21741,  58: 0.14312,  59:-1.68015,  60:-0.03103,  61: 0.66250,  62:-0.01230,  63:-1.31505,  64: 2.18540,
                 65:-1.07338,  66: 0.44701,  67: 5.33889,  68:-5.62430,  69: 0.60914,  70: 0.81399,  71:14.96716,  72:-0.00908,
                 73: 0.98475,  74:-0.50062,  75: 0.47061,  76:-0.45745,  77:-0.80383,  78: 0.59832,  79:-0.56207,  80:-11.72308
    96 |      |   1:-0.97178,   2:-1.43721,   3:-1.96944,   4:-0.27261,   5:-1.17189,   6:-1.27649,   7:-1.49636,   8:18.42612,
                  9:-1.84904,  10:-1.85078,  11:-0.82452,  12:-0.18759,  13:-0.18947,  14:-0.94138,  15: 0.99613,  16:38.60385,
                 17:-2.05931,  18:-0.80608,  19: 4.67086,  20: 8.33415,  21:-1.09877,  22:-1.11877,  23: 1.30009,  24:51.50953,
                 25:-0.36845,  26:-2.08080,  27:-36.23457,  28:-32.30981,  29:-12.20343,  30:-7.59626,  31:53.14172,  32:-32.65614,
                 33:-1.87619,  34:-1.89629,  35:-0.17090,  36:-41.77417,  37:-0.49740,  38:-1.42507,  39: 0.19871,  40:11.02607,
                 41: 0.61644,  42:-1.02209,  43:10.62403,  44:-0.18205,  45:-0.89619,  46:-1.29872,  47:46.20110,  48: 4.26550,
                 49:-0.97215,  50:-1.62698,  51:-1.73260,  52: 0.56117,  53:-0.72622,  54:-1.04482,  55:16.22656,  56:10.92874,
                 57:-3.01797,  58:-2.60097,  59:-21.89142,  60:72.46394,  61: 0.08906,  62:-0.13957,  63: 6.52162,  64:-41.18169,
                 65: 1.01679,  66:-0.19450,  67: 0.24435,  68: 7.35491,  69:-1.27642,  70:-0.06315,  71:-14.37354,  72:21.85534,
                 73: 3.35630,  74:10.31263,  75: 4.06815,  76:-0.19938,  77:-1.89944,  78:-0.65908,  79: 1.62385,  80:-3.41154
    97 |      |   1: 0.42686,   2: 0.30881,   3:-0.34817,   4:-0.78438,   5:-0.90110,   6:-0.66926,   7: 0.51174,   8:-17.92114,
                  9: 0.86164,  10:-0.59645,  11: 0.68532,  12:-0.43211,  13: 0.14630,  14:-0.45916,  15: 0.23573,  16:-24.87978,
                 17:-1.02450,  18:-0.29851,  19:-0.39112,  20: 0.18197,  21: 0.61840,  22:-0.02744,  23:-0.26479,  24:-0.89842,
                 25:-0.46037,  26: 0.81635,  27: 1.10506,  28: 0.20125,  29: 0.94214,  30: 0.18948,  31: 0.88609,  32: 1.71932,
                 33:-0.47715,  34: 0.53596,  35:-0.12296,  36: 1.82692,  37:-1.30986,  38:-0.50635,  39:-0.65550,  40:-6.21151,
                 41:-0.97910,  42: 0.36214,  43: 3.95440,  44:-0.79577,  45:-0.80130,  46: 0.94151,  47:-9.19926,  48:-5.04722,
                 49:-0.05557,  50: 0.51994,  51:-1.23815,  52: 0.42435,  53:-0.44213,  54:-0.16090,  55:-0.13412,  56:-2.73096,
                 57: 0.75182,  58:-1.03243,  59: 0.28893,  60:-3.28818,  61:-0.17543,  62: 0.55556,  63:-0.41426,  64:-2.65774,
                 65:-0.08498,  66:-0.91160,  67:-0.47738,  68:-3.77815,  69: 1.73697,  70: 0.73390,  71:-0.53218,  72:-8.82651,
                 73:-0.93327,  74:-0.49328,  75:-0.82527,  76:-0.40943,  77: 0.75327,  78:-0.64439,  79: 0.20249,  80: 2.86187
    98 |      |   1:20.90955,   2:19.89861,   3:19.52585,   4: 0.91910,   5:19.82070,   6:19.79638,   7:20.36472,   8:20.27324,
                  9:19.92789,  10:20.09292,  11:20.31074,  12:-0.69188,  13:20.80087,  14:19.92106,  15:19.38571,  16:19.98966,
                 17:19.31341,  18:19.20174,  19:-20.51327,  20:-19.71807,  21:20.14400,  22:20.89061,  23:-19.76855,  24:-19.03706,
                 25:20.96271,  26:19.75520,  27:-19.04591,  28:-20.52097,  29:19.32213,  30:19.27126,  31:-20.02872,  32:19.37014,
                 33:20.17096,  34:20.72450,  35:-19.12825,  36:20.33974,  37:19.84059,  38:20.70098,  39:-20.42735,  40:-20.08066,
                 41:20.08004,  42:20.08509,  43:-20.58693,  44: 0.10877,  45:20.71588,  46:19.04356,  47:20.27573,  48:20.68077,
                 49:20.49273,  50:19.68386,  51:20.26527,  52:19.93420,  53:19.02609,  54:19.90813,  55:19.91669,  56:19.56721,
                 57:20.21121,  58:20.05400,  59:-19.67889,  60:-20.37638,  61:19.23767,  62:20.18054,  63:-19.53209,  64:20.83309,
                 65:20.13412,  66:20.12401,  67:-20.98996,  68:19.40618,  69:20.80766,  70:19.86008,  71:-20.47030,  72:20.84126,
                 73:19.36020,  74:20.25774,  75:-19.84961,  76: 0.52318,  77:19.29259,  78:20.32836,  79:-20.58730,  80:19.91615
    99 |      |   1: 0.03564,   2:-1.64093,   3:-1.08570,   4:-0.13429,   5:-0.62640,   6:-1.03368,   7:-1.37408,   8:-19.52463,
                  9:-1.04608,  10:-0.70985,  11: 0.06561,  12:-0.24924,  13:-0.99568,  14:-1.13302,  15:22.74157,  16:-7.88781,
                 17:-0.27372,  18:-0.46839,  19:-46.66058,  20:-34.32470,  21:-1.91471,  22:-0.94620,  23: 0.20174,  24:-4.45316,
                 25:-0.19377,  26:-0.99521,  27:109.39584,  28:135.55653,  29:-1.64002,  30:-2.67512,  31:28.00441,  32:-29.34143,
                 33:-1.33151,  34:-0.03812,  35: 4.54050,  36:-29.56120,  37:-2.71301,  38:-7.03362,  39: 1.89295,  40:-54.81646,
                 41:-42.80499,  42:-1.95106,  43:-32.02365,  44: 0.48841,  45:-1.56836,  46:-0.36995,  47:-103.76169,  48:-4.48409,
                 49:-0.22813,  50:-0.98535,  51:33.43334,  52:-34.94639,  53:-0.30534,  54:-1.37492,  55:-34.72863,  56:-18.24461,
                 57:-1.00290,  58:-0.17206,  59:78.17026,  60:-102.12727,  61:-9.00618,  62:-0.64834,  63:-68.68182,  64:22.17654,
                 65:-69.95791,  66:-66.27871,  67:-11.67418,  68: 7.94567,  69: 0.34071,  70:-1.01627,  71:35.31243,  72: 1.70110,
                 73:-57.29332,  74:-56.61226,  75: 0.39590,  76:-0.77233,  77:-1.15439,  78:-0.61213,  79: 0.25110,  80:12.62043
   100 |      |   1: 0.02656,   2:-0.68155,   3: 0.17816,   4: 0.82895,   5:-0.11007,   6: 0.25962,   7: 0.70257,   8:-15.54117,
                  9: 0.71893,  10: 0.92112,  11:-0.93528,  12: 0.88720,  13:-0.93190,  14:-0.75449,  15:-14.06098,  16:-29.18532,
                 17: 0.32584,  18:-0.20456,  19: 0.32770,  20:-0.81406,  21: 0.18351,  22: 0.73670,  23: 0.57282,  24:-16.80882,
                 25: 0.35655,  26:-0.30872,  27:-0.57867,  28:-6.03799,  29:-1.17945,  30:-1.21973,  31: 1.09604,  32:-2.14099,
                 33:-0.85583,  34:-0.03736,  35: 2.35907,  36: 0.07805,  37:-0.86261,  38: 1.00010,  39:-0.71335,  40:-1.05395,
                 41: 0.88859,  42:-0.96717,  43: 7.23261,  44: 0.13805,  45: 0.57569,  46:-0.84236,  47:-1.13787,  48:-4.67369,
                 49: 0.14122,  50:-1.10093,  51:-0.27121,  52: 1.13963,  53: 0.12020,  54: 0.76687,  55:-0.53958,  56: 0.22493,
                 57:-0.03881,  58: 0.15060,  59:-2.52472,  60:-16.50602,  61: 0.28677,  62: 0.58590,  63: 1.91137,  64: 1.14302,
                 65: 0.12975,  66:-0.65681,  67: 3.32208,  68:-1.86875,  69: 0.10321,  70: 1.00145,  71:-3.50958,  72:-5.35673,
                 73:-0.68568,  74: 0.22878,  75: 6.48853,  76: 0.39022,  77:-0.81307,  78:-0.92022,  79:-0.28474,  80:-4.30954
   101 |      |   1: 0.59943,   2:-0.36460,   3:-0.58416,   4:-0.80122,   5:-0.64423,   6: 0.86775,   7:-0.29289,   8: 9.82224,
                  9: 1.19721,  10: 0.61800,  11: 0.27463,  12: 0.11517,  13: 0.66466,  14: 0.08397,  15:-0.45916,  16:21.10266,
                 17: 0.61537,  18: 0.46912,  19:-0.64362,  20:-0.19640,  21: 0.49707,  22: 0.85145,  23:-1.10223,  24:-10.90374,
                 25:-0.97184,  26:-0.86786,  27: 1.66361,  28:-7.81751,  29:-5.00524,  30:-5.12520,  31:23.92456,  32: 3.18663,
                 33:-0.17733,  34: 0.27920,  35:-1.19329,  36: 2.37128,  37: 0.04055,  38:-0.49803,  39:-0.16261,  40: 0.05603,
                 41: 0.29795,  42: 0.71030,  43: 3.68976,  44:-0.48003,  45:-0.16181,  46: 0.01995,  47:-0.18323,  48: 4.66356,
                 49:-0.31343,  50: 1.03805,  51:-0.58316,  52: 4.72028,  53: 0.06597,  54:-0.50027,  55:-1.09885,  56:24.35134,
                 57: 0.05856,  58:-0.62239,  59: 1.27001,  60:-1.64647,  61: 0.33196,  62: 0.34994,  63:-1.17638,  64:11.87509,
                 65:-1.06465,  66: 0.10224,  67: 1.27557,  68:61.73507,  69:-0.26496,  70: 0.80420,  71: 6.96436,  72:-0.31717,
                 73:-1.09420,  74:-0.57883,  75: 5.86789,  76:-0.43002,  77: 0.92760,  78:-0.54856,  79:-0.98848,  80:-14.06824
   102 |      |   1:23.30061,   2:23.09653,   3:23.53613,   4: 0.26137,   5:23.19816,   6:24.42103,   7:23.72179,   8: 0.53125,
                  9:24.26985,  10:23.94137,  11:23.67138,  12: 0.29053,  13:23.18152,  14:24.02830,  15:-1.08253,  16:-0.47139,
                 17:23.37519,  18:24.46998,  19:-23.51339,  20:-24.31393,  21:23.35912,  22:23.91424,  23:-24.13772,  24:23.88156,
                 25:24.01296,  26:23.03345,  27:-0.49016,  28:-0.02687,  29:23.22065,  30:-0.66189,  31:-0.64298,  32:-1.03782,
                 33:23.53431,  34:23.97135,  35:-24.23503,  36: 1.04126,  37:24.59995,  38:23.27102,  39:-24.79967,  40:24.73215,
                 41:24.72396,  42:24.67103,  43:23.41986,  44:-0.23699,  45:23.42824,  46:22.96071,  47:24.55110,  48:-0.80043,
                 49:23.05201,  50:23.61665,  51:24.30573,  52:24.14606,  53:23.54824,  54:24.38543,  55:23.13918,  56:23.72119,
                 57:24.44975,  58:23.18425,  59:-23.50362,  60:24.27168,  61:23.62037,  62:23.80330,  63:24.24161,  64: 0.45368,
                 65:23.65535,  66:23.08516,  67:24.86469,  68: 0.57373,  69:24.66589,  70:23.55298,  71:24.95972,  72:24.35019,
                 73:24.40755,  74:23.69437,  75: 0.01773,  76:-0.11950,  77:23.24304,  78:23.95945,  79:-23.77646,  80: 0.68277
   103 |      |   1:23.02185,   2:23.85184,   3:23.23802,   4:-0.31912,   5:23.84398,   6:24.52138,   7:23.89849,   8:-0.85803,
                  9:24.79376,  10:23.17147,  11:23.49614,  12:-0.15844,  13:23.53019,  14:23.44095,  15:-0.82341,  16:24.19491,
                 17:24.00709,  18:23.68929,  19:-23.67008,  20:-23.97408,  21:23.97805,  22:23.39216,  23:-23.66373,  24: 0.00002,
                 25:24.40502,  26:23.92156,  27:-0.41272,  28:-23.84229,  29:-0.55437,  30: 0.44724,  31: 0.43891,  32:-0.19299,
                 33:23.59219,  34:24.00323,  35: 0.19996,  36:-23.23886,  37:24.47359,  38:23.59212,  39:-23.87322,  40:24.87651,
                 41:23.96751,  42:24.27740,  43:-24.11287,  44: 0.04223,  45:23.81036,  46:23.44292,  47:23.28748,  48:-0.19987,
                 49:23.29914,  50:23.05982,  51:24.52315,  52:-0.84190,  53:23.34536,  54:24.23503,  55: 0.58932,  56:24.36180,
                 57:23.59992,  58:23.12413,  59:-24.15103,  60: 0.38972,  61:23.59670,  62:24.64734,  63: 0.31245,  64:-0.50152,
                 65:-1.17689,  66:-0.36525,  67: 0.18135,  68: 0.30217,  69:23.12373,  70:23.29304,  71:-0.72676,  72:23.28406,
                 73:24.38724,  74:24.31387,  75:-24.64012,  76: 0.56273,  77:23.80837,  78:23.97753,  79:-24.54630,  80:-24.59214
   104 |      |   1: 0.68561,   2: 0.11918,   3:-0.43001,   4: 0.50906,   5:-0.39158,   6:-0.66636,   7: 0.21793,   8:16.46045,
                  9:-0.38282,  10: 0.33377,  11: 0.91240,  12: 0.57879,  13: 0.08530,  14:-0.02612,  15: 1.43663,  16:20.34552,
                 17: 1.18629,  18: 1.21877,  19:-0.81201,  20:-2.90878,  21:-0.45996,  22:-0.03702,  23: 0.31560,  24:-0.27976,
                 25: 0.15836,  26: 1.48587,  27: 1.01505,  28:-0.04142,  29: 3.02690,  30: 3.01000,  31:-0.53169,  32: 5.83705,
                 33: 0.00004,  34: 0.99236,  35: 0.90641,  36:-11.02351,  37: 0.83871,  38: 0.25837,  39:-0.15317,  40:-16.64659,
                 41:-0.20862,  42: 0.10827,  43:-0.14216,  44:-0.88540,  45:-0.24995,  46: 0.34731,  47: 0.73374,  48:12.26381,
                 49: 0.43053,  50:-0.23249,  51: 0.02507,  52: 3.00756,  53: 0.91724,  54: 0.83690,  55: 0.80419,  56:-5.34292,
                 57:-0.50557,  58:-0.12221,  59: 0.68856,  60:-0.42660,  61:-0.38924,  62:-0.09233,  63:-2.02480,  64: 9.35095,
                 65: 1.19262,  66:-0.21790,  67:-0.05948,  68:36.77366,  69:-0.36151,  70: 0.00141,  71: 1.13108,  72:-0.53554,
                 73: 0.37322,  74: 0.42794,  75:-0.15577,  76:-0.61240,  77: 0.40090,  78: 0.32267,  79:-0.20488,  80: 0.30310
   105 |      |   1:-0.44903,   2: 0.75937,   3: 0.10052,   4: 0.28322,   5: 0.81557,   6: 0.06593,   7:-0.21405,   8:-19.36014,
                  9:-0.41916,  10:-0.55053,  11: 0.96862,  12:-0.23010,  13:-0.24608,  14: 0.14164,  15: 2.29516,  16:-5.80514,
                 17:-1.00173,  18: 0.36071,  19:-0.90961,  20:-0.00927,  21:-0.44706,  22: 0.39307,  23:-0.99066,  24: 1.88893,
                 25:-1.10367,  26:-0.03706,  27: 2.20451,  28: 1.29124,  29:-0.20447,  30:-0.32089,  31: 1.29300,  32: 0.18389,
                 33:-1.26098,  34: 0.62211,  35:-1.52668,  36:-1.44346,  37: 0.93245,  38: 0.70091,  39:-0.99423,  40: 1.88291,
                 41:-0.06349,  42:-0.46986,  43: 8.10130,  44:-0.09387,  45:-0.27964,  46:-0.56706,  47:-16.84815,  48:-4.45810,
                 49:-0.99766,  50:-0.85426,  51: 1.24119,  52: 1.54870,  53:-0.80702,  54:-0.59558,  55: 8.13913,  56:22.44344,
                 57:-0.17727,  58:-0.19720,  59: 1.12370,  60: 1.63336,  61: 0.16754,  62: 0.55391,  63: 6.78803,  64:-5.73421,
                 65:-0.00213,  66:-0.33207,  67: 0.17270,  68: 1.34937,  69: 1.03660,  70:-0.75127,  71: 5.26364,  72:-2.60646,
                 73: 0.41919,  74: 0.11317,  75:-4.29689,  76: 0.02621,  77: 0.89924,  78: 0.37201,  79: 0.48279,  80:-149.78299
   106 |      |   1:19.72854,   2:19.85597,   3:19.75741,   4:-0.16927,   5:20.90271,   6:20.42142,   7:20.79221,   8:-20.52584,
                  9:20.40469,  10:20.72680,  11:19.49627,  12:-0.02994,  13:20.46673,  14:19.81570,  15:19.28603,  16:20.32944,
                 17:20.35964,  18:19.91403,  19:-19.46116,  20:-19.99835,  21:20.47731,  22:19.47309,  23:-19.07858,  24:19.53179,
                 25:19.82710,  26:20.28684,  27:19.77522,  28:19.78088,  29:20.95093,  30:20.01839,  31:19.50528,  32:-20.99633,
                 33:20.13230,  34:19.90315,  35:-20.47882,  36:20.60093,  37:20.53916,  38:19.18860,  39:-19.73904,  40:20.19729,
                 41:19.41150,  42:19.45218,  43:19.81536,  44: 0.75643,  45:20.94680,  46:19.07965,  47:19.75162,  48:-20.26528,
                 49:20.80417,  50:19.50313,  51:19.97413,  52:20.39642,  53:19.49652,  54:19.24792,  55:20.38251,  56:20.05779,
                 57:19.94561,  58:20.22523,  59:-19.80511,  60:20.48347,  61:20.43287,  62:19.17838,  63:19.06111,  64:-19.69432,
                 65:20.60195,  66:20.73447,  67:20.43368,  68:-20.84901,  69:20.29060,  70:20.46549,  71:-20.50241,  72:-20.79236,
                 73:20.24038,  74:19.90046,  75:20.65605,  76: 0.91231,  77:19.32248,  78:19.07377,  79:-19.02941,  80:-20.96709
   107 |      |   1:23.27155,   2:23.83106,   3:23.98486,   4:-0.41092,   5:23.21493,   6:23.12189,   7:23.54428,   8:-0.11582,
                  9:24.10972,  10:23.06593,  11:24.81033,  12: 0.85786,  13:23.05403,  14:24.84114,  15:23.81205,  16:23.26655,
                 17:24.92612,  18:23.62433,  19:-24.68461,  20:-24.01856,  21:23.20156,  22:24.11522,  23:-23.69650,  24:-23.63123,
                 25:24.73701,  26:24.59501,  27: 0.37062,  28:-0.27531,  29:23.11986,  30:24.20950,  31:24.42898,  32:-23.32449,
                 33:23.47400,  34:24.63713,  35: 0.66464,  36:-23.07187,  37:23.13108,  38:24.67679,  39:-23.66025,  40:23.93404,
                 41:23.62579,  42:24.56745,  43:-0.50335,  44:-0.77086,  45:23.70054,  46:24.49714,  47:24.87132,  48: 0.24594,
                 49:24.89899,  50:23.20954,  51:23.84673,  52: 0.31616,  53:23.72308,  54:23.77556,  55:-1.00187,  56:23.57913,
                 57:23.90264,  58:23.33856,  59:-23.73569,  60:24.93976,  61:23.10183,  62:23.30678,  63:23.27685,  64:-0.99788,
                 65:23.22716,  66:23.36561,  67:-0.37538,  68: 0.25286,  69:23.61761,  70:23.59529,  71: 0.80319,  72:24.10642,
                 73:24.84049,  74:23.65358,  75:-24.31836,  76: 0.81636,  77:23.98347,  78:24.63591,  79:-24.66556,  80:-23.65086
   108 |      |   1:-0.31129,   2: 0.15456,   3: 0.39664,   4: 0.10342,   5: 0.56057,   6:-0.10266,   7:-1.38717,   8: 7.61548,
                  9:-1.09716,  10: 0.18787,  11:-0.19221,  12:-0.45491,  13: 0.32368,  14: 0.29994,  15: 0.28282,  16:12.27441,
                 17:-0.70670,  18: 0.27032,  19: 1.32765,  20:-0.06487,  21: 0.20424,  22:-1.34403,  23: 0.36304,  24: 2.00237,
                 25: 1.32909,  26: 1.09362,  27: 0.77832,  28:-1.38718,  29:-0.23900,  30:-1.25602,  31: 0.99528,  32:-5.99604,
                 33:-0.62404,  34: 0.13454,  35: 0.00781,  36:35.58725,  37:-0.76960,  38: 0.14537,  39: 0.10995,  40: 0.37933,
                 41:-1.26260,  42: 0.45866,  43: 0.87833,  44: 0.60692,  45:-1.14488,  46:-1.37236,  47:-1.17301,  48:10.61643,
                 49:-1.22152,  50: 0.54239,  51:-0.19944,  52: 0.61742,  53: 0.18671,  54:-0.70098,  55: 1.09322,  56:-126.24677,
                 57: 0.24512,  58:-0.38841,  59:-0.42464,  60:-17.12105,  61:-0.36634,  62: 0.32587,  63:-5.26674,  64: 1.90873,
                 65: 0.03009,  66: 1.05469,  67: 1.05186,  68:19.02505,  69:-2.05696,  70:-0.26960,  71: 0.11810,  72:-4.53318,
                 73:-0.66544,  74:-0.48022,  75:-0.40877,  76: 0.97795,  77: 0.09757,  78:-1.25404,  79: 1.07760,  80:-24.45155
   109 |      |   1: 0.99766,   2:-0.91092,   3:-0.23744,   4:-0.69959,   5:-0.29253,   6: 0.33600,   7: 0.37784,   8:-18.73491,
                  9:-0.87511,  10: 0.13444,  11: 0.51835,  12:-0.04267,  13:-0.41856,  14: 0.61100,  15: 2.68604,  16:-1.86606,
                 17:-0.70300,  18: 0.23373,  19:-1.21669,  20:-2.78265,  21: 0.82096,  22: 0.28320,  23:-0.84008,  24: 6.30017,
                 25:-0.48583,  26:-1.04043,  27: 0.33845,  28: 0.57854,  29: 0.04897,  30: 0.56687,  31:-0.88076,  32: 0.64919,
                 33:-0.80941,  34:-0.52397,  35: 7.56398,  36:-4.95921,  37:-0.93812,  38: 0.32126,  39: 0.85707,  40:-0.70873,
                 41:-0.50513,  42: 0.60013,  43: 0.77800,  44: 0.88096,  45: 0.10722,  46: 0.21093,  47:-0.19288,  48:-4.99278,
                 49:-0.47651,  50: 0.91358,  51:-1.65756,  52:-0.78636,  53:-0.45381,  54:-0.23454,  55:-0.14842,  56: 0.25638,
                 57: 0.79850,  58:-0.99013,  59: 1.36062,  60:-2.02664,  61: 0.27205,  62:-0.43688,  63: 0.48243,  64: 1.68998,
                 65: 0.80748,  66: 0.27973,  67: 0.99005,  68:-2.00253,  69:-0.93153,  70: 0.46491,  71: 0.53134,  72: 9.32812,
                 73:-0.29473,  74:-1.11852,  75:-0.71538,  76: 0.42233,  77:-1.04955,  78:-0.16436,  79: 1.04922,  80:-12.22723
   110 |      |   1:-0.92736,   2:-0.86097,   3:-0.59018,   4: 0.50212,   5: 0.85366,   6:-0.58183,   7:-0.65869,   8:-17.46904,
                  9:-1.02437,  10:-0.81246,  11: 0.40609,  12: 0.36580,  13: 0.66033,  14: 0.29153,  15:-0.80616,  16:-4.69443,
                 17: 0.89800,  18: 0.64906,  19: 0.60230,  20: 0.91860,  21:-0.87294,  22: 0.50487,  23:-0.43504,  24:-0.48831,
                 25:-1.15087,  26:-0.50216,  27:24.82494,  28: 7.61869,  29:-0.14813,  30: 0.25114,  31: 4.16897,  32:-12.73255,
                 33:-0.00139,  34: 0.29695,  35: 2.82031,  36:12.87567,  37:-0.43169,  38: 0.23756,  39:-1.14416,  40:-4.03574,
                 41:-0.65746,  42:-0.07268,  43:-5.82791,  44:-0.43136,  45:-0.73243,  46:-0.66591,  47:-0.06424,  48:-13.75227,
                 49: 0.78749,  50:-0.56767,  51: 0.51237,  52:-0.60192,  53:-0.59139,  54: 0.74832,  55: 0.26021,  56:-87.66878,
                 57:-0.64727,  58: 0.67152,  59: 8.33313,  60: 0.50394,  61:-0.38755,  62:-0.49911,  63: 1.01099,  64:-0.47817,
                 65:-0.55066,  66: 0.66117,  67:-1.22163,  68:-0.94206,  69: 0.13764,  70: 0.58798,  71: 3.13012,  72:-0.15485,
                 73:-0.63272,  74:-0.25824,  75:-12.96171,  76:-0.71613,  77:-0.71642,  78:-0.90293,  79: 0.37337,  80:-21.35118
   111 |      |  81:-0.75992,  82:-0.92061,  83: 0.27401,  84:-0.12965,  85: 0.56708,  86:-0.73076,  87: 0.40163,  88: 0.01348,
                 89:-0.61013,  90:-0.34245,  91:-0.22451,  92:-0.17621,  93: 0.38247,  94:-1.05922,  95:-0.40885,  96:-0.66532,
                 97: 3.79900,  98:-0.91693,  99: 0.02779, 100: 0.40807, 101:-0.46102, 102: 1.13605, 103: 1.38688, 104:-0.87543,
                105: 0.48626, 106:-0.10213, 107: 1.09181, 108:-0.49096, 109: 0.73179, 110: 1.14279
-------|------|----------------------------------------------------------------------------------------------------------------
