SNNS network definition file V1.4-3D
generated at Tue Feb 28 11:56:22 2006

network name : frequency_average_1-480_trained_20i_10h
source files :
no. of units : 91
no. of connections : 810
no. of unit types : 0
no. of site types : 0


learning function : Rprop
update function   : Topological_Order


unit default section :

act      | bias     | st | subnet | layer | act func     | out func
---------|----------|----|--------|-------|--------------|-------------
 0.00000 |  0.00000 | h  |      0 |     1 | Act_Logistic | Out_Identity 
---------|----------|----|--------|-------|--------------|-------------


unit definition section :

no. | typeName | unitName | act      | bias     | st | position | act func | out func | sites
----|----------|----------|----------|----------|----|----------|----------|----------|-------
  1 |          |          |  4.00000 | -0.51841 | i  |  2, 2,-5592 |||
  2 |          |          |  3.00000 |  0.63076 | i  |  3, 2,-5592 |||
  3 |          |          |  0.53000 | -0.67993 | i  |  4, 2,-5592 |||
  4 |          |          |  0.00000 | -0.02185 | i  |  5, 2,-5592 |||
  5 |          |          | 10.00000 | -0.19148 | i  |  2, 3,-5592 |||
  6 |          |          |  6.00000 | -0.22616 | i  |  3, 3,-5592 |||
  7 |          |          |  0.37000 | -0.33470 | i  |  4, 3,-5592 |||
  8 |          |          |  0.00000 | -0.03610 | i  |  5, 3,-5592 |||
  9 |          |          |  3.00000 |  0.42633 | i  |  2, 4,-5592 |||
 10 |          |          |  2.00000 |  0.32739 | i  |  3, 4,-5592 |||
 11 |          |          |  0.54000 |  0.74649 | i  |  4, 4,-5592 |||
 12 |          |          |  0.00000 |  0.78607 | i  |  5, 4,-5592 |||
 13 |          |          |  8.00000 | -0.82458 | i  |  2, 5,-5592 |||
 14 |          |          |  6.00000 |  0.18066 | i  |  3, 5,-5592 |||
 15 |          |          |  0.02000 |  0.64911 | i  |  4, 5,-5592 |||
 16 |          |          |  0.00000 | -0.32558 | i  |  5, 5,-5592 |||
 17 |          |          |  4.00000 | -0.30059 | i  |  2, 6,-5592 |||
 18 |          |          |  3.00000 | -0.35414 | i  |  3, 6,-5592 |||
 19 |          |          | -0.72000 | -0.36981 | i  |  4, 6,-5592 |||
 20 |          |          | -1.00000 |  0.45434 | i  |  5, 6,-5592 |||
 21 |          |          |  5.00000 | -0.23450 | i  |  2, 7,-5592 |||
 22 |          |          |  4.00000 |  0.95541 | i  |  3, 7,-5592 |||
 23 |          |          | -0.69000 |  0.72316 | i  |  4, 7,-5592 |||
 24 |          |          |  0.00000 |  0.87001 | i  |  5, 7,-5592 |||
 25 |          |          |  8.00000 | -0.17584 | i  |  2, 8,-5592 |||
 26 |          |          |  6.00000 |  0.49429 | i  |  3, 8,-5592 |||
 27 |          |          |  0.02000 |  0.18942 | i  |  4, 8,-5592 |||
 28 |          |          |  0.00000 |  0.26396 | i  |  5, 8,-5592 |||
 29 |          |          |  0.00000 |  0.30912 | i  |  2, 9,-5592 |||
 30 |          |          |  0.00000 | -0.96408 | i  |  3, 9,-5592 |||
 31 |          |          |  0.16000 |  0.95999 | i  |  4, 9,-5592 |||
 32 |          |          |  0.00000 |  0.89351 | i  |  5, 9,-5592 |||
 33 |          |          |  4.00000 | -0.42608 | i  |  2,10,-5592 |||
 34 |          |          |  3.00000 |  0.60392 | i  |  3,10,-5592 |||
 35 |          |          | -0.64000 |  0.69742 | i  |  4,10,-5592 |||
 36 |          |          |  0.00000 |  0.72662 | i  |  5,10,-5592 |||
 37 |          |          |  5.00000 | -0.37518 | i  |  2,11,-5592 |||
 38 |          |          |  5.00000 |  0.27518 | i  |  3,11,-5592 |||
 39 |          |          | -1.10000 |  0.83027 | i  |  4,11,-5592 |||
 40 |          |          |  1.00000 |  0.87889 | i  |  5,11,-5592 |||
 41 |          |          |  7.00000 |  0.26198 | i  |  2,12,-5592 |||
 42 |          |          |  5.00000 |  0.97202 | i  |  3,12,-5592 |||
 43 |          |          |  0.61000 |  0.29902 | i  |  4,12,-5592 |||
 44 |          |          |  0.00000 |  0.54998 | i  |  5,12,-5592 |||
 45 |          |          |  3.00000 | -0.20717 | i  |  2,13,-5592 |||
 46 |          |          |  2.00000 |  0.48416 | i  |  3,13,-5592 |||
 47 |          |          |  0.54000 | -0.42748 | i  |  4,13,-5592 |||
 48 |          |          |  0.00000 |  0.48624 | i  |  5,13,-5592 |||
 49 |          |          |  0.00000 | -0.86096 | i  |  2,14,-5592 |||
 50 |          |          |  0.00000 | -0.74806 | i  |  3,14,-5592 |||
 51 |          |          |  0.16000 | -0.63434 | i  |  4,14,-5592 |||
 52 |          |          |  0.00000 |  0.69472 | i  |  5,14,-5592 |||
 53 |          |          |  7.00000 | -0.47802 | i  |  2,15,-5592 |||
 54 |          |          |  5.00000 |  0.18954 | i  |  3,15,-5592 |||
 55 |          |          |  0.61000 | -0.63122 | i  |  4,15,-5592 |||
 56 |          |          |  0.00000 |  0.89358 | i  |  5,15,-5592 |||
 57 |          |          |  4.00000 | -0.32675 | i  |  2,16,-5592 |||
 58 |          |          |  3.00000 | -0.39419 | i  |  3,16,-5592 |||
 59 |          |          | -0.64000 | -0.00829 | i  |  4,16,-5592 |||
 60 |          |          |  0.00000 | -0.49855 | i  |  5,16,-5592 |||
 61 |          |          | 10.00000 | -0.03509 | i  |  2,17,-5592 |||
 62 |          |          |  6.00000 |  0.38660 | i  |  3,17,-5592 |||
 63 |          |          |  0.37000 |  0.77562 | i  |  4,17,-5592 |||
 64 |          |          |  0.00000 | -0.18838 | i  |  5,17,-5592 |||
 65 |          |          |  1.00000 |  0.36887 | i  |  2,18,-5592 |||
 66 |          |          |  1.00000 | -0.45078 | i  |  3,18,-5592 |||
 67 |          |          |  0.25000 | -0.27499 | i  |  4,18,-5592 |||
 68 |          |          |  0.00000 | -0.69912 | i  |  5,18,-5592 |||
 69 |          |          | 10.00000 | -0.28954 | i  |  2,19,-5592 |||
 70 |          |          |  6.00000 | -0.70021 | i  |  3,19,-5592 |||
 71 |          |          |  0.37000 | -0.30607 | i  |  4,19,-5592 |||
 72 |          |          |  0.00000 |  0.19168 | i  |  5,19,-5592 |||
 73 |          |          |  4.00000 |  0.34770 | i  |  2,20,-5592 |||
 74 |          |          |  3.00000 | -0.73186 | i  |  3,20,-5592 |||
 75 |          |          |  0.53000 |  0.30231 | i  |  4,20,-5592 |||
 76 |          |          |  0.00000 | -0.20614 | i  |  5,20,-5592 |||
 77 |          |          |  5.00000 | -0.15529 | i  |  2,21,-5592 |||
 78 |          |          |  4.00000 |  0.83375 | i  |  3,21,-5592 |||
 79 |          |          | -0.62000 | -0.81766 | i  |  4,21,-5592 |||
 80 |          |          | -1.00000 | -0.36098 | i  |  5,21,-5592 |||
 81 |          |          |  0.00000 | -0.80472 | h  |  8, 2,-5592 |||
 82 |          |          |  0.00062 | -0.27745 | h  |  8, 3,-5592 |||
 83 |          |          |  1.00000 |  0.87660 | h  |  8, 4,-5592 |||
 84 |          |          |  1.00000 | -0.54174 | h  |  8, 5,-5592 |||
 85 |          |          |  1.00000 | 19.28879 | h  |  8, 6,-5592 |||
 86 |          |          |  0.00096 | -0.76644 | h  |  8, 7,-5592 |||
 87 |          |          |  0.00000 | -0.42828 | h  |  8, 8,-5592 |||
 88 |          |          |  1.00000 | 20.94118 | h  |  8, 9,-5592 |||
 89 |          |          |  1.00000 | 20.65339 | h  |  8,10,-5592 |||
 90 |          |          |  1.00000 |  0.67645 | h  |  8,11,-5592 |||
 91 |          |          |  0.49542 |  0.89168 | o  | 11, 2,-5592 |||
----|----------|----------|----------|----------|----|----------|----------|----------|-------


connection definition section :

target | site | source:weight
-------|------|---------------------------------------------------------------------------------------------------------------------
    81 |      |  1: 0.79903,  2: 0.04724,  3: 0.82001,  4:-0.17844,  5: 0.02623,  6: 0.64972,  7: 0.34470,  8:-160.83783,  9:-0.86261,
                10:-0.51792, 11: 0.73067, 12: 0.42084, 13:-0.79223, 14:-0.79283, 15:-7.16024, 16:-3.38493, 17:-0.43970, 18:-0.54211,
                19:-0.86463, 20:-0.72784, 21:-0.48921, 22:-0.00108, 23:-0.46376, 24:-3.30470, 25: 0.40636, 26:-0.11742, 27:-1.35693,
                28:-4.42951, 29: 0.03237, 30: 0.34512, 31: 0.66430, 32: 0.35811, 33: 0.75577, 34:-0.60636, 35: 0.00970, 36:-1.92513,
                37: 0.06536, 38:-0.75866, 39:-0.93488, 40:-3.49829, 41:-0.63105, 42: 0.17602, 43:-0.91963, 44: 0.28577, 45:-0.32711,
                46: 0.47122, 47:-1.00121, 48:-3.61642, 49:-0.73197, 50: 0.03792, 51:-0.59779, 52: 0.86023, 53: 0.22440, 54: 0.03452,
                55:-0.49199, 56:-113.17139, 57: 0.71083, 58: 0.25544, 59:-0.88294, 60:-0.86152, 61: 0.71032, 62: 0.14081, 63:-0.50381,
                64: 0.11861, 65:-0.88995, 66: 0.66810, 67: 0.71345, 68: 5.59601, 69:-0.30690, 70: 0.66504, 71:-0.97193, 72: 1.30113,
                73:-0.89031, 74: 0.22373, 75: 3.02346, 76: 0.20655, 77:-0.96943, 78:-0.91208, 79: 0.73386, 80:16.51400
    82 |      |  1:-0.47153,  2:-0.49245,  3: 0.49716,  4: 0.71653,  5: 0.26618,  6: 0.59646,  7: 0.91559,  8:79.30542,  9:-0.32030,
                10: 0.79029, 11:-0.70156, 12:-0.25349, 13:-0.78178, 14:-0.79691, 15:-0.05231, 16: 4.47717, 17: 0.02250, 18:-0.75203,
                19: 1.34585, 20:-0.66717, 21:-0.55888, 22:-0.87688, 23: 0.27980, 24:-8.90122, 25:-0.23105, 26: 0.84461, 27:-1.01049,
                28: 4.79595, 29:-0.22903, 30: 0.02432, 31: 8.36244, 32:-5.09914, 33:-0.79552, 34: 0.85334, 35:-1.46567, 36:-157.50119,
                37: 0.77701, 38: 0.26721, 39:-2.34194, 40: 0.76896, 41: 0.37406, 42: 0.01921, 43:-9.01449, 44: 0.37187, 45:-0.38320,
                46:-0.07290, 47:19.00163, 48: 9.01497, 49: 0.74600, 50: 0.74360, 51:-0.29551, 52:-4.90321, 53: 0.45224, 54:-0.08016,
                55:-1.94207, 56:-16.38593, 57:-0.62320, 58: 0.21043, 59:-3.42689, 60: 0.43826, 61: 0.94986, 62:-0.68095, 63:-28.70493,
                64: 7.96035, 65: 0.34735, 66: 0.34219, 67: 9.38283, 68:-2.42445, 69: 0.01589, 70: 0.80534, 71:11.83639, 72:18.81167,
                73:-0.74129, 74:-0.72474, 75:-4.52245, 76: 0.97903, 77: 0.46724, 78:-0.98059, 79:-0.29362, 80:10.80452
    83 |      |  1:-0.31557,  2: 0.89211,  3: 0.74345,  4:-0.82687,  5: 0.02961,  6:-0.02848,  7: 0.90528,  8:-6.83154,  9: 0.75188,
                10:-0.53025, 11: 1.00031, 12: 0.21780, 13: 0.28605, 14:-0.18919, 15:-0.96177, 16:-5.85186, 17: 0.30134, 18: 0.40127,
                19:-1.97590, 20:-1.97471, 21:-0.50928, 22: 0.20536, 23: 0.90924, 24:-3.37375, 25: 0.12588, 26: 0.31270, 27:-0.15001,
                28: 0.12534, 29:-0.84980, 30:-0.49576, 31: 2.23022, 32:-1.96518, 33:-0.11427, 34:-0.25049, 35: 1.55930, 36:-23.64374,
                37: 0.21515, 38: 0.42937, 39:-0.39766, 40:12.23084, 41:-0.15620, 42: 0.90770, 43:-3.65717, 44: 0.34057, 45:-0.55383,
                46: 0.33226, 47:-1.40252, 48:-0.19479, 49:-0.81086, 50:-0.32284, 51:-1.65431, 52:-0.04687, 53: 0.99931, 54:-0.18139,
                55: 0.69183, 56:-3.88442, 57: 0.79856, 58: 0.12400, 59:-2.59459, 60:-2.34471, 61: 0.22911, 62: 0.43787, 63:-0.76227,
                64:21.48557, 65: 1.09944, 66:-0.50128, 67: 0.14787, 68:79.77790, 69: 0.26183, 70:-0.50421, 71: 0.20498, 72: 4.92380,
                73:-0.19503, 74:-0.79157, 75:-3.43069, 76:-0.82039, 77: 0.46217, 78: 0.47445, 79: 0.31592, 80:14.29006
    84 |      |  1: 0.02516,  2:-0.52010,  3: 0.46857,  4:-0.95573,  5: 0.94210,  6: 0.55073,  7:-0.66649,  8:-164.56204,  9:-0.71168,
                10: 0.91043, 11:-0.92864, 12:-0.62823, 13:-0.60372, 14:-0.92101, 15: 6.88474, 16:-4.03305, 17: 0.59621, 18: 0.42959,
                19: 0.16563, 20: 0.65242, 21: 0.68086, 22: 0.73920, 23:-0.11053, 24: 7.45614, 25: 1.11733, 26: 0.13941, 27: 1.81793,
                28:-0.34281, 29:-0.55718, 30: 0.36934, 31: 1.56611, 32:-1.55317, 33: 0.17903, 34:-0.45609, 35: 2.79028, 36: 1.03784,
                37: 0.40408, 38:-0.79946, 39:-2.59945, 40: 0.86854, 41: 0.11576, 42:-0.79982, 43: 0.44907, 44:-0.74093, 45:-0.24063,
                46: 0.11096, 47: 2.38041, 48:-19.66892, 49: 0.45221, 50: 0.64916, 51: 0.20855, 52:93.64471, 53:-0.58881, 54:-0.76507,
                55: 0.00138, 56:-12.98932, 57: 0.06232, 58:-0.80404, 59:-5.28963, 60:-0.80592, 61: 0.22945, 62: 0.64925, 63: 1.53819,
                64:-2.64055, 65: 0.14080, 66: 0.49298, 67:-0.36891, 68:-5.86878, 69:-0.36463, 70: 0.79252, 71: 2.27613, 72:-4.00181,
                73: 0.45593, 74: 0.29321, 75:-1.16008, 76:-0.03748, 77:-0.27557, 78: 0.83899, 79:-0.93106, 80:-23.67805
    85 |      |  1:20.97114,  2:20.83133,  3:19.23243,  4:-0.66426,  5:20.62220,  6:20.75871,  7:19.44475,  8: 0.35191,  9:19.79091,
                10:20.50798, 11:20.06500, 12:-0.75202, 13:19.80970, 14:20.66866, 15:19.16672, 16: 0.08326, 17:19.93772, 18:20.60385,
                19:-19.33829, 20:-20.85984, 21:19.81889, 22:19.37201, 23:-19.24604, 24:19.48348, 25:20.29297, 26:19.03278, 27:-20.63193,
                28:19.17369, 29:20.38729, 30:20.92192, 31:20.49784, 32:-0.82878, 33:19.98975, 34:19.27072, 35:-20.61345, 36: 0.29613,
                37:20.22099, 38:20.71001, 39:-20.71146, 40:-20.31466, 41:19.18051, 42:19.88446, 43:20.23602, 44:-0.60493, 45:19.05180,
                46:20.59982, 47:20.68429, 48:-0.89393, 49:19.74703, 50:20.96724, 51:19.53431, 52:-0.62792, 53:20.80453, 54:20.07385,
                55:19.20815, 56:19.16753, 57:19.29157, 58:20.31740, 59:-20.97767, 60:-19.60189, 61:20.39948, 62:20.06155, 63:-19.12370,
                64:19.88400, 65:19.35542, 66:20.40523, 67:-19.47266, 68:19.55519, 69:20.54203, 70:20.16804, 71:20.70883, 72:19.24898,
                73:20.35588, 74:20.56944, 75:-19.22010, 76:-0.29999, 77:19.61400, 78:20.26377, 79:-20.83992, 80: 0.79107
    86 |      |  1:-0.41095,  2: 0.77344,  3: 0.72154,  4:-0.51640,  5:-0.05774,  6:-0.85122,  7:-0.29871,  8:-162.10493,  9: 0.60553,
                10: 0.50450, 11:-0.75468, 12: 0.68864, 13:-0.96733, 14: 0.48647, 15:13.19739, 16: 9.06379, 17: 0.56556, 18: 0.68832,
                19: 1.83547, 20:-0.09843, 21: 0.36567, 22: 0.23159, 23: 0.57510, 24:-1.96338, 25: 0.02731, 26:-0.38564, 27: 2.80115,
                28:-1.19923, 29: 0.59942, 30: 0.00768, 31: 4.85895, 32: 0.42857, 33:-0.73783, 34: 0.21117, 35: 0.90710, 36: 0.09582,
                37: 0.55589, 38:-0.78458, 39:-0.49508, 40: 1.56794, 41:-0.38890, 42:-0.79914, 43:-0.30471, 44: 0.91658, 45:-0.90193,
                46: 0.05820, 47: 1.05130, 48:-2.97766, 49: 0.72517, 50: 0.94457, 51:-1.20026, 52: 1.57426, 53: 0.86745, 54:-0.73873,
                55:-0.49163, 56:-25.64224, 57: 0.65572, 58:-0.88396, 59: 0.22306, 60: 0.31257, 61:-0.75889, 62:-0.50590, 63: 0.91178,
                64:-2.95002, 65: 0.64405, 66: 0.04049, 67: 3.32095, 68:-12.46078, 69: 0.68416, 70:-0.79603, 71: 3.67584, 72: 6.54918,
                73: 0.60783, 74: 0.75407, 75:-0.75315, 76: 0.27548, 77:-0.84785, 78:-0.01573, 79:-0.30427, 80:-10.72520
    87 |      |  1: 0.74557,  2: 0.54625,  3: 0.24444,  4:-0.92635,  5:-0.82040,  6:-0.72194,  7:-0.51733,  8:-161.72835,  9: 0.09068,
                10: 0.24973, 11: 0.70416, 12:-0.51408, 13: 0.69179, 14: 0.87356, 15:-1.99205, 16:-3.94224, 17:-0.42546, 18:-0.17461,
                19:-0.43191, 20:-0.63935, 21:-0.41854, 22:-0.64533, 23: 0.22624, 24:-0.49273, 25: 0.14445, 26: 0.54686, 27: 1.21271,
                28: 6.45469, 29: 1.11964, 30: 0.63581, 31:-2.59755, 32: 0.35650, 33:-0.93218, 34:-0.47296, 35:-1.70984, 36:-0.49672,
                37:-0.56101, 38:-0.51177, 39: 1.41211, 40: 0.33855, 41:-0.33196, 42: 0.36687, 43:16.32498, 44: 0.17777, 45: 0.26377,
                46: 0.82358, 47: 0.00226, 48:-3.96322, 49: 0.52183, 50: 0.34444, 51: 1.97871, 52: 2.05466, 53:-0.19393, 54:-1.02252,
                55:10.79331, 56: 7.14265, 57:-0.73374, 58: 0.43942, 59:-0.30796, 60:-3.69798, 61:-0.62029, 62: 0.42566, 63: 0.40557,
                64: 1.98008, 65:-0.55307, 66: 0.17137, 67:-1.87833, 68:-11.98690, 69: 0.43812, 70:-0.47917, 71: 5.70965, 72: 1.36169,
                73: 0.15680, 74:-0.86451, 75:-6.82157, 76: 0.65828, 77: 0.20189, 78:-0.96568, 79: 0.29887, 80: 8.54717
    88 |      |  1:20.67101,  2:20.16946,  3:20.92915,  4:-0.96855,  5:20.47200,  6:19.64115,  7:19.18873,  8:20.58027,  9:20.07386,
                10:19.00642, 11:20.14244, 12: 0.94873, 13:20.36043, 14:20.10139, 15:19.59350, 16:20.98556, 17:20.42931, 18:19.01919,
                19:-19.83926, 20:-20.29677, 21:19.98788, 22:20.12267, 23:-20.68450, 24:20.61688, 25:19.65681, 26:19.77208, 27:-20.47200,
                28:20.49156, 29:19.90139, 30:20.78151, 31:19.08242, 32:19.82453, 33:20.29019, 34:20.83007, 35:-20.12284, 36:-19.46520,
                37:19.29740, 38:20.41508, 39:-20.34378, 40:19.13732, 41:20.92528, 42:20.08060, 43:20.23460, 44: 0.20207, 45:20.62595,
                46:20.94493, 47:20.34456, 48:19.66980, 49:20.04151, 50:19.55998, 51:19.54303, 52:20.11266, 53:20.24373, 54:20.15980,
                55:19.32888, 56:20.25840, 57:19.82197, 58:19.90757, 59:-20.78543, 60:20.97466, 61:19.31368, 62:20.06367, 63:-20.68824,
                64:20.84061, 65:19.16497, 66:20.52162, 67:-20.79673, 68:20.79001, 69:20.31133, 70:19.06562, 71:19.00677, 72:19.93309,
                73:19.33616, 74:19.37995, 75:20.95190, 76: 0.36705, 77:19.34746, 78:19.39507, 79:-20.79648, 80:-20.15604
    89 |      |  1:20.31417,  2:20.62033,  3:20.82928,  4:-0.94609,  5:20.67102,  6:19.53724,  7:20.47115,  8: 0.22736,  9:20.29027,
                10:20.24334, 11:19.99486, 12:-0.99611, 13:20.03652, 14:20.67553, 15:19.19313, 16:19.09985, 17:20.94935, 18:20.89294,
                19:-19.87548, 20:-19.44981, 21:20.68925, 22:20.40729, 23:-19.54973, 24:20.12642, 25:19.30113, 26:20.53598, 27:19.59561,
                28:-19.43545, 29:19.99662, 30:19.07705, 31:-19.85613, 32:19.64473, 33:20.03874, 34:20.08047, 35:-20.44143, 36:19.84822,
                37:19.67873, 38:19.95485, 39:-19.05257, 40:-19.65019, 41:20.45729, 42:20.09399, 43:-20.43247, 44: 0.95868, 45:19.77507,
                46:19.46564, 47:19.02827, 48:19.86628, 49:20.40976, 50:19.85571, 51:19.54946, 52:20.85932, 53:19.28045, 54:20.72384,
                55:20.52010, 56:19.26322, 57:20.12230, 58:19.76839, 59:-20.71264, 60:-19.85141, 61:19.44340, 62:19.52724, 63:19.36578,
                64:20.20103, 65:20.01743, 66:19.70985, 67:-19.15921, 68:20.66254, 69:20.76501, 70:20.86162, 71:-19.13301, 72:-19.46992,
                73:20.95713, 74:19.64317, 75:-19.98790, 76: 0.96846, 77:19.71868, 78:20.05055, 79:-20.56887, 80:19.97969
    90 |      |  1: 0.89050,  2: 0.24842,  3: 0.83804,  4: 0.13115,  5: 0.11470,  6: 0.75556,  7: 0.11642,  8:66.02848,  9:-0.51187,
                10: 0.82603, 11:-0.21537, 12:-0.97744, 13: 0.27240, 14: 0.62750, 15:-1.05548, 16: 6.41907, 17: 0.65079, 18: 0.47254,
                19:-1.25450, 20:-1.27514, 21:-0.62338, 22: 0.20131, 23:-1.01493, 24: 6.48771, 25: 1.80338, 26: 1.78272, 27:-2.24894,
                28:-13.10508, 29: 1.46500, 30: 2.06671, 31:-0.64580, 32: 2.16009, 33: 0.19651, 34:-0.22869, 35:-2.06731, 36:24.30816,
                37:-0.45205, 38:-0.31046, 39:-1.25841, 40:-3.01785, 41:-0.58965, 42: 0.89854, 43:-2.03754, 44: 0.61350, 45:-0.70529,
                46:-0.08227, 47:-0.62617, 48: 1.66550, 49:-0.17288, 50: 0.37805, 51: 1.57521, 52:-0.18919, 53:-0.53313, 54:-0.76537,
                55: 0.06036, 56:-24.39087, 57: 0.12014, 58:-0.45355, 59:-0.41082, 60: 8.01520, 61:-0.29545, 62: 0.30660, 63: 0.80860,
                64:-5.98616, 65: 0.82846, 66:-0.81407, 67:-3.85403, 68:-14.83427, 69:-0.39826, 70: 0.98106, 71:-0.02065, 72:27.25904,
                73:-0.52240, 74: 0.62953, 75:-0.16368, 76:-0.75846, 77: 1.15109, 78: 0.62984, 79: 0.20732, 80:12.46669
    91 |      | 81: 2.31486, 82:-0.38794, 83: 0.68068, 84: 0.50022, 85:-0.60671, 86: 1.04650, 87: 0.48288, 88:-0.12925, 89:-0.47792,
                90:-0.87979
-------|------|---------------------------------------------------------------------------------------------------------------------
