SNNS network definition file V1.4-3D
generated at Mon Feb 27 11:20:03 2006

network name : frequency_average_trained_20i_20h
source files :
no. of units : 101
no. of connections : 1620
no. of unit types : 0
no. of site types : 0


learning function : Rprop
update function   : Topological_Order


unit default section :

act      | bias     | st | subnet | layer | act func     | out func
---------|----------|----|--------|-------|--------------|-------------
 0.00000 |  0.00000 | h  |      0 |     1 | Act_Logistic | Out_Identity 
---------|----------|----|--------|-------|--------------|-------------


unit definition section :

no. | typeName | unitName | act      | bias     | st | position | act func | out func | sites
----|----------|----------|----------|----------|----|----------|----------|----------|-------
  1 |          |          |  4.00000 |  0.42323 | i  |  2, 2,-5592 |||
  2 |          |          |  3.00000 | -0.10089 | i  |  3, 2,-5592 |||
  3 |          |          |  0.53000 | -0.44937 | i  |  4, 2,-5592 |||
  4 |          |          |  0.00000 |  0.26478 | i  |  5, 2,-5592 |||
  5 |          |          | 10.00000 | -0.70300 | i  |  2, 3,-5592 |||
  6 |          |          |  6.00000 | -0.48678 | i  |  3, 3,-5592 |||
  7 |          |          |  0.37000 | -0.38807 | i  |  4, 3,-5592 |||
  8 |          |          |  0.00000 | -0.67172 | i  |  5, 3,-5592 |||
  9 |          |          |  3.00000 | -0.22224 | i  |  2, 4,-5592 |||
 10 |          |          |  2.00000 | -0.23545 | i  |  3, 4,-5592 |||
 11 |          |          |  0.54000 | -0.34781 | i  |  4, 4,-5592 |||
 12 |          |          |  0.00000 | -0.46114 | i  |  5, 4,-5592 |||
 13 |          |          |  8.00000 | -0.15465 | i  |  2, 5,-5592 |||
 14 |          |          |  6.00000 |  0.89684 | i  |  3, 5,-5592 |||
 15 |          |          |  0.02000 |  0.76311 | i  |  4, 5,-5592 |||
 16 |          |          |  0.00000 | -0.75344 | i  |  5, 5,-5592 |||
 17 |          |          |  4.00000 | -0.69958 | i  |  2, 6,-5592 |||
 18 |          |          |  3.00000 | -0.14506 | i  |  3, 6,-5592 |||
 19 |          |          | -0.72000 |  0.47105 | i  |  4, 6,-5592 |||
 20 |          |          | -1.00000 |  0.91422 | i  |  5, 6,-5592 |||
 21 |          |          |  5.00000 |  0.55127 | i  |  2, 7,-5592 |||
 22 |          |          |  4.00000 |  0.84758 | i  |  3, 7,-5592 |||
 23 |          |          | -0.69000 |  0.21190 | i  |  4, 7,-5592 |||
 24 |          |          |  0.00000 |  0.06985 | i  |  5, 7,-5592 |||
 25 |          |          |  0.00000 | -0.33534 | i  |  2, 8,-5592 |||
 26 |          |          |  0.00000 | -0.19056 | i  |  3, 8,-5592 |||
 27 |          |          |  0.16000 |  0.93601 | i  |  4, 8,-5592 |||
 28 |          |          |  0.00000 | -0.91372 | i  |  5, 8,-5592 |||
 29 |          |          |  7.00000 | -0.53723 | i  |  2, 9,-5592 |||
 30 |          |          |  6.00000 |  0.88382 | i  |  3, 9,-5592 |||
 31 |          |          | -1.80000 | -0.78334 | i  |  4, 9,-5592 |||
 32 |          |          |  1.00000 |  0.38572 | i  |  5, 9,-5592 |||
 33 |          |          |  2.00000 |  0.46017 | i  |  2,10,-5592 |||
 34 |          |          |  2.00000 | -0.32502 | i  |  3,10,-5592 |||
 35 |          |          | -0.26000 | -0.47323 | i  |  4,10,-5592 |||
 36 |          |          |  0.00000 | -0.05864 | i  |  5,10,-5592 |||
 37 |          |          |  8.00000 | -0.80913 | i  |  2,11,-5592 |||
 38 |          |          |  6.00000 | -0.63979 | i  |  3,11,-5592 |||
 39 |          |          |  0.02000 |  0.75074 | i  |  4,11,-5592 |||
 40 |          |          |  0.00000 |  0.35175 | i  |  5,11,-5592 |||
 41 |          |          |  3.00000 | -0.70523 | i  |  2,12,-5592 |||
 42 |          |          |  4.00000 | -0.49203 | i  |  3,12,-5592 |||
 43 |          |          | -0.07000 |  0.93904 | i  |  4,12,-5592 |||
 44 |          |          |  0.00000 |  0.92251 | i  |  5,12,-5592 |||
 45 |          |          |  8.00000 |  0.52679 | i  |  2,13,-5592 |||
 46 |          |          |  6.00000 | -0.96054 | i  |  3,13,-5592 |||
 47 |          |          |  0.02000 | -0.43640 | i  |  4,13,-5592 |||
 48 |          |          |  0.00000 |  0.19340 | i  |  5,13,-5592 |||
 49 |          |          |  4.00000 | -0.37314 | i  |  2,14,-5592 |||
 50 |          |          |  3.00000 |  0.83535 | i  |  3,14,-5592 |||
 51 |          |          |  0.53000 | -0.29195 | i  |  4,14,-5592 |||
 52 |          |          |  0.00000 |  0.25865 | i  |  5,14,-5592 |||
 53 |          |          |  8.00000 |  0.34457 | i  |  2,15,-5592 |||
 54 |          |          |  6.00000 | -0.61501 | i  |  3,15,-5592 |||
 55 |          |          |  0.02000 |  0.68640 | i  |  4,15,-5592 |||
 56 |          |          |  0.00000 | -0.42601 | i  |  5,15,-5592 |||
 57 |          |          |  5.00000 | -0.45896 | i  |  2,16,-5592 |||
 58 |          |          |  4.00000 |  0.17791 | i  |  3,16,-5592 |||
 59 |          |          | -0.62000 | -0.66917 | i  |  4,16,-5592 |||
 60 |          |          | -1.00000 |  0.22247 | i  |  5,16,-5592 |||
 61 |          |          | 10.00000 | -0.51892 | i  |  2,17,-5592 |||
 62 |          |          |  6.00000 | -0.45805 | i  |  3,17,-5592 |||
 63 |          |          |  0.37000 | -0.23069 | i  |  4,17,-5592 |||
 64 |          |          |  0.00000 | -0.20980 | i  |  5,17,-5592 |||
 65 |          |          |  7.00000 | -0.43970 | i  |  2,18,-5592 |||
 66 |          |          |  5.00000 |  0.85263 | i  |  3,18,-5592 |||
 67 |          |          |  0.61000 | -0.08246 | i  |  4,18,-5592 |||
 68 |          |          |  0.00000 |  0.01817 | i  |  5,18,-5592 |||
 69 |          |          |  0.00000 |  0.76010 | i  |  2,19,-5592 |||
 70 |          |          |  0.00000 |  0.70694 | i  |  3,19,-5592 |||
 71 |          |          |  0.16000 | -0.52891 | i  |  4,19,-5592 |||
 72 |          |          |  0.00000 |  0.65115 | i  |  5,19,-5592 |||
 73 |          |          |  2.00000 |  0.15662 | i  |  2,20,-5592 |||
 74 |          |          |  2.00000 |  0.22198 | i  |  3,20,-5592 |||
 75 |          |          | -0.26000 |  0.08021 | i  |  4,20,-5592 |||
 76 |          |          |  0.00000 |  0.77300 | i  |  5,20,-5592 |||
 77 |          |          |  5.00000 | -0.51066 | i  |  2,21,-5592 |||
 78 |          |          |  4.00000 | -0.74360 | i  |  3,21,-5592 |||
 79 |          |          | -0.69000 |  0.14355 | i  |  4,21,-5592 |||
 80 |          |          |  0.00000 | -0.75945 | i  |  5,21,-5592 |||
 81 |          |          |  1.00000 | 40.87776 | h  |  8, 2,-5592 |||
 82 |          |          |  0.00000 |  0.38831 | h  |  8, 3,-5592 |||
 83 |          |          |  1.00000 | -0.28147 | h  |  8, 4,-5592 |||
 84 |          |          |  1.00000 | 39.63068 | h  |  8, 5,-5592 |||
 85 |          |          |  0.59951 | -0.19924 | h  |  8, 6,-5592 |||
 86 |          |          |  0.00000 | -0.79797 | h  |  8, 7,-5592 |||
 87 |          |          |  0.00000 | -0.30941 | h  |  8, 8,-5592 |||
 88 |          |          |  1.00000 | 39.41992 | h  |  8, 9,-5592 |||
 89 |          |          |  0.00000 |  0.88094 | h  |  8,10,-5592 |||
 90 |          |          |  1.00000 | 40.37859 | h  |  8,11,-5592 |||
 91 |          |          |  1.00000 | -0.29960 | h  |  8,12,-5592 |||
 92 |          |          |  0.00000 | -1.67974 | h  |  8,13,-5592 |||
 93 |          |          |  1.00000 |  0.30449 | h  |  8,14,-5592 |||
 94 |          |          |  1.00000 | 39.37389 | h  |  8,15,-5592 |||
 95 |          |          |  0.00000 |  0.85757 | h  |  8,16,-5592 |||
 96 |          |          |  0.00000 |  0.07715 | h  |  8,17,-5592 |||
 97 |          |          |  1.00000 | -0.76077 | h  |  8,18,-5592 |||
 98 |          |          |  0.00143 | -0.90164 | h  |  8,19,-5592 |||
 99 |          |          |  1.00000 | -0.88091 | h  |  8,20,-5592 |||
100 |          |          |  0.99998 | -0.77010 | h  |  8,21,-5592 |||
101 |          |          |  0.55241 |  0.41379 | o  | 11, 2,-5592 |||
----|----------|----------|----------|----------|----|----------|----------|----------|-------


connection definition section :

target | site | source:weight
-------|------|----------------------------------------------------------------------------------------------------------------
    81 |      |   1:39.44679,   2:39.63223,   3:40.41736,   4: 0.60882,   5:40.61123,   6:40.26219,   7:40.54096,   8:-39.04953,
                  9:39.62507,  10:40.72439,  11:39.98561,  12: 0.20599,  13:40.35954,  14:40.45044,  15:40.11548,  16:39.85458,
                 17:39.96422,  18:40.28504,  19:-40.94318,  20:-39.66223,  21:39.64364,  22:40.53049,  23:-39.30204,  24:39.67295,
                 25:40.33284,  26:40.05684,  27:-39.32392,  28:39.01232,  29:40.23434,  30:39.80250,  31:-40.36725,  32:39.04040,
                 33:40.17942,  34:40.14076,  35:-40.84304,  36:-40.21990,  37:39.07583,  38:40.71552,  39:-39.36580,  40:39.19500,
                 41:40.38000,  42:39.75883,  43:39.66790,  44:-0.32185,  45:40.37807,  46:39.23859,  47:39.30645,  48:40.02525,
                 49:40.09091,  50:40.93819,  51:40.43446,  52:40.23407,  53:39.56587,  54:39.57478,  55:39.26265,  56:40.07103,
                 57:39.13391,  58:40.99634,  59:-39.23069,  60:-40.08818,  61:39.56435,  62:40.38237,  63:40.53083,  64:39.19279,
                 65:39.82969,  66:40.07304,  67:-39.05363,  68:39.72211,  69:40.00764,  70:40.37652,  71:-39.79361,  72:40.06694,
                 73:40.52180,  74:40.50687,  75:-40.81387,  76: 0.75697,  77:40.00240,  78:39.08104,  79:-40.96548,  80:-39.20397
    82 |      |   1:-0.32861,   2: 0.79359,   3:-0.78079,   4:-0.93946,   5:-0.34714,   6: 0.82313,   7:-0.18872,   8: 1.95446,
                  9: 0.28880,  10: 0.00370,  11: 0.38783,  12: 0.73546,  13: 0.51389,  14:-0.27835,  15:-3.51072,  16: 1.44887,
                 17: 0.87395,  18:-0.53676,  19:-0.78600,  20:-1.20628,  21:-0.72861,  22:-0.27381,  23: 0.59299,  24: 5.33641,
                 25:-0.11814,  26: 0.29239,  27:-0.71817,  28: 2.31298,  29:-40.44551,  30:-41.20978,  31: 1.58474,  32:82.19991,
                 33: 0.71589,  34:-0.06693,  35:-0.02085,  36:-0.49140,  37:-0.62576,  38: 0.39819,  39: 7.70113,  40:-3.33803,
                 41:-0.40621,  42:-0.40649,  43:-9.09128,  44:-0.06761,  45: 0.11103,  46:-0.63964,  47: 2.67491,  48: 3.72402,
                 49:-0.07058,  50: 1.05457,  51:-0.44381,  52:-0.75434,  53:-0.73380,  54:-0.01393,  55:-2.39217,  56:-0.40128,
                 57:-0.78201,  58: 0.35024,  59:-0.75173,  60:-4.98237,  61:-0.32682,  62:-0.54843,  63: 0.75490,  64: 3.98990,
                 65:-0.00944,  66: 0.41456,  67: 5.08259,  68:-137.79982,  69: 0.73005,  70:-0.14773,  71:-2.00449,  72:-0.70960,
                 73: 1.04050,  74:-0.15635,  75:-0.25746,  76:-0.36234,  77:-0.48449,  78:-0.85360,  79:-0.35548,  80:11.75633
    83 |      |   1:-0.69884,   2:-0.93559,   3: 0.77760,   4:-0.49235,   5:-0.57842,   6:-0.23438,   7:-0.52286,   8:-1.24035,
                  9:-0.59228,  10: 0.81330,  11: 0.57407,  12:-0.75598,  13:-0.68810,  14: 0.02182,  15: 2.81493,  16:-18.12515,
                 17: 0.12618,  18:-0.16325,  19:-0.32813,  20: 0.00742,  21: 0.40581,  22: 0.09334,  23:-0.47209,  24: 4.57914,
                 25: 0.12429,  26:-0.05551,  27: 1.45385,  28: 0.16195,  29: 0.58375,  30: 0.84672,  31: 0.57866,  32: 0.68520,
                 33: 0.60748,  34:-0.46994,  35: 0.41037,  36:-0.61381,  37:-0.11268,  38:-0.39643,  39:-0.45461,  40:-7.71272,
                 41:-0.79649,  42:-0.32712,  43:-5.85514,  44:-0.70155,  45: 0.44531,  46:-0.26992,  47: 0.19653,  48:-6.22140,
                 49: 1.22617,  50: 1.71620,  51: 1.15553,  52: 2.71600,  53: 0.93924,  54:-0.05225,  55: 0.91285,  56:-3.54168,
                 57:-0.56173,  58:-0.46118,  59:-0.41016,  60:-6.90192,  61: 0.72913,  62:-0.83115,  63:-7.44120,  64:-4.09002,
                 65:-0.33327,  66: 0.26699,  67:-8.08266,  68: 6.79072,  69:-0.56492,  70:-0.28976,  71:12.33982,  72:-1.85659,
                 73: 0.69621,  74: 0.68826,  75:-4.92289,  76:-0.22339,  77: 0.27198,  78: 0.80778,  79: 0.90179,  80: 0.31482
    84 |      |   1:39.17822,   2:39.13169,   3:39.71529,   4:-0.11421,   5:39.97789,   6:40.59406,   7:39.70155,   8:-39.72091,
                  9:39.69048,  10:39.28327,  11:40.95499,  12: 0.39223,  13:39.48232,  14:40.29066,  15:39.28591,  16:40.13478,
                 17:40.65344,  18:39.84771,  19:-40.41304,  20:-39.20499,  21:39.04477,  22:40.06245,  23:-40.66625,  24:40.92408,
                 25:39.27961,  26:39.02737,  27:-40.34666,  28:39.82851,  29:39.82132,  30:40.89112,  31:-39.40660,  32:39.51594,
                 33:39.38096,  34:40.47346,  35:-40.91209,  36:-40.78780,  37:40.04073,  38:40.25002,  39:-40.50487,  40:40.21119,
                 41:39.98613,  42:40.95768,  43:40.73732,  44: 0.38209,  45:39.46557,  46:40.81420,  47:39.11938,  48:40.74129,
                 49:40.62143,  50:39.26230,  51:40.30916,  52:40.08405,  53:40.35460,  54:40.31632,  55:40.01309,  56:39.81279,
                 57:40.18199,  58:40.80315,  59:-39.75347,  60:40.21111,  61:40.00420,  62:40.06195,  63:39.24743,  64:39.97057,
                 65:40.29434,  66:40.73246,  67:-39.14329,  68:40.66069,  69:40.01503,  70:40.06900,  71:-39.71909,  72:-40.07440,
                 73:39.73323,  74:40.43872,  75:-40.45402,  76: 0.83393,  77:40.18607,  78:40.18488,  79:-39.43599,  80:-40.69541
    85 |      |   1: 0.46247,   2:-0.28159,   3:-0.32613,   4: 0.38118,   5: 0.91731,   6: 0.39324,   7: 0.01899,   8:97.88184,
                  9: 0.92509,  10: 0.80626,  11:-0.11454,  12:-0.15491,  13: 0.51871,  14:-0.94429,  15: 3.44167,  16: 8.66385,
                 17: 0.55138,  18: 0.09548,  19:-0.79124,  20: 0.09633,  21: 0.70752,  22: 0.00753,  23: 0.47724,  24: 5.98127,
                 25: 0.69115,  26: 0.32478,  27:-3.74490,  28: 8.94503,  29:-0.73547,  30: 0.32792,  31: 0.29471,  32:-1.50333,
                 33:-0.93085,  34:-0.22772,  35: 0.18704,  36:-11.81817,  37:-0.33190,  38:-0.82536,  39:-4.42884,  40: 0.08632,
                 41: 0.62938,  42:-0.52723,  43: 4.09076,  44: 0.97982,  45: 0.40253,  46: 0.92503,  47: 4.02347,  48: 3.30479,
                 49: 0.78619,  50:-0.91492,  51:-0.55116,  52:-1.21880,  53:-0.23702,  54: 0.16813,  55:12.89365,  56:-22.69641,
                 57: 0.93962,  58: 0.30756,  59: 0.29131,  60: 2.55180,  61:-0.94755,  62:-0.29751,  63: 1.85393,  64:-3.31934,
                 65:-0.32783,  66:-0.89507,  67: 0.80293,  68: 0.97307,  69:-0.65843,  70: 0.82187,  71: 0.38224,  72:-12.98275,
                 73:-0.78818,  74: 0.01844,  75: 1.37813,  76: 0.14878,  77:-0.19627,  78: 0.75711,  79:-0.91807,  80:-7.79140
    86 |      |   1:-0.45053,   2: 0.32559,   3: 0.27934,   4:-0.13407,   5: 0.15835,   6: 0.99446,   7:-0.74990,   8:-1.18149,
                  9: 0.67303,  10:-0.76911,  11: 0.89426,  12: 0.10922,  13:-0.00410,  14:-0.94815,  15: 0.84014,  16:-17.65085,
                 17:-0.00680,  18: 0.25449,  19:-0.12253,  20:-0.23986,  21:-0.25718,  22: 0.77980,  23:-0.62233,  24: 2.65997,
                 25: 0.45024,  26:-0.78009,  27:12.53866,  28:-10.69538,  29: 0.17592,  30: 0.58712,  31:-2.61386,  32:-7.20239,
                 33: 0.01854,  34: 0.13722,  35: 0.43667,  36: 5.30302,  37:-1.80682,  38:-1.36275,  39:-0.16514,  40: 8.86319,
                 41: 0.33222,  42:-0.20317,  43:-1.93285,  44:-0.06239,  45: 0.15927,  46:-0.21162,  47:-0.14439,  48:-6.52949,
                 49: 0.15173,  50:-0.91170,  51: 0.23888,  52: 1.17080,  53:-0.19622,  54: 0.60473,  55: 1.08463,  56: 0.31929,
                 57: 0.82995,  58:-0.66515,  59: 0.29695,  60: 0.13010,  61:-0.60567,  62: 0.06795,  63: 2.22703,  64:-1.31817,
                 65:-0.82985,  66: 0.61763,  67:-1.43975,  68: 1.51901,  69:-0.45703,  70: 0.37427,  71:-0.30066,  72:-15.87335,
                 73:-0.11071,  74:-0.00575,  75: 0.73559,  76: 0.17461,  77:-0.73881,  78:-0.68709,  79:-0.41882,  80: 4.19547
    87 |      |   1:-0.63332,   2:-0.91188,   3: 0.72644,   4:-0.84983,   5: 0.62216,   6:-0.80254,   7:-0.29780,   8:-1.10991,
                  9: 0.64949,  10:-0.47786,  11:-0.42240,  12: 0.73495,  13:-0.54004,  14:-0.07791,  15: 5.96163,  16: 0.79881,
                 17: 0.88390,  18: 0.60683,  19: 3.74237,  20: 0.85653,  21: 0.61024,  22: 0.81681,  23: 0.40943,  24:-0.07199,
                 25: 0.82141,  26:-0.72788,  27: 5.59557,  28: 5.00673,  29:-2.00758,  30:-1.83551,  31: 1.58033,  32:-28.74125,
                 33:-0.60861,  34:-0.93181,  35:-0.15642,  36:-10.49517,  37: 1.04191,  38: 0.98515,  39: 1.85111,  40:-0.42947,
                 41:-0.35729,  42:-0.26097,  43: 1.41970,  44: 0.72144,  45:-0.58116,  46:-0.08147,  47:-0.71445,  48:-3.59145,
                 49:-0.92977,  50:-0.35305,  51: 0.68832,  52:12.00978,  53:-0.62477,  54:-0.59582,  55: 0.76380,  56:12.58131,
                 57: 0.26098,  58: 0.75541,  59:-1.47493,  60: 1.04245,  61:-0.54424,  62: 0.09196,  63: 3.63014,  64:-6.91216,
                 65:-0.07468,  66:-0.62655,  67: 5.65821,  68:-8.02462,  69:-0.15455,  70: 0.68271,  71: 4.96586,  72:-22.83736,
                 73: 0.48017,  74:-0.24533,  75: 3.03779,  76: 0.14505,  77:-0.21832,  78:-0.20959,  79: 0.78776,  80:-1.38185
    88 |      |   1:39.79993,   2:39.45036,   3:39.66700,   4:-0.94226,   5:39.46700,   6:40.41391,   7:40.25127,   8:-39.18930,
                  9:40.21033,  10:40.36397,  11:40.86087,  12: 0.60743,  13:39.06733,  14:40.37062,  15:-39.42316,  16:40.73386,
                 17:40.04002,  18:40.65314,  19:-40.51319,  20:-40.54768,  21:40.65022,  22:40.83069,  23:-39.07027,  24:39.80676,
                 25:40.65261,  26:40.14118,  27:39.32170,  28:39.13532,  29:40.76643,  30:40.16668,  31:40.58337,  32:40.48769,
                 33:40.63214,  34:40.83989,  35:-39.49272,  36:-40.26090,  37:39.95949,  38:39.26564,  39:-39.04228,  40:40.84468,
                 41:39.00954,  42:39.81104,  43:40.21933,  44:-0.59780,  45:40.74929,  46:39.35642,  47:40.05599,  48: 0.05972,
                 49:39.92350,  50:40.13221,  51:39.90782,  52:39.76926,  53:40.19367,  54:40.48944,  55:39.29056,  56:40.46486,
                 57:40.77784,  58:40.77730,  59:-39.13387,  60:39.32677,  61:40.66352,  62:39.46254,  63:39.14556,  64:39.81045,
                 65:39.52596,  66:40.17357,  67:39.55061,  68:40.43845,  69:39.62878,  70:39.65709,  71:39.13074,  72:39.81161,
                 73:40.96896,  74:39.08538,  75:39.94286,  76: 0.20912,  77:40.10271,  78:40.85516,  79:-40.29993,  80:-39.20726
    89 |      |   1: 0.28461,   2: 0.28719,   3: 0.03845,   4:-0.07164,   5: 0.63825,   6:-0.81434,   7:-0.56951,   8: 1.88009,
                  9:-0.65032,  10:-0.10772,  11: 0.02249,  12: 0.31682,  13: 0.56232,  14:-0.50962,  15:-5.27887,  16: 1.17386,
                 17: 0.27138,  18:-0.27344,  19:-3.49629,  20:-0.01462,  21:-0.61469,  22:-0.27431,  23:-0.90273,  24:-11.63479,
                 25: 0.86723,  26:-0.13939,  27: 7.62425,  28:20.58053,  29:-0.53882,  30: 0.46990,  31: 3.70916,  32:-4.52216,
                 33:-0.59819,  34: 0.44334,  35:-1.73712,  36:-3.07817,  37:-0.15426,  38:-0.89175,  39: 1.58333,  40: 3.34556,
                 41: 0.98517,  42: 0.83625,  43: 2.35092,  44: 0.19560,  45: 0.73165,  46:-0.33331,  47: 7.76959,  48: 3.93302,
                 49:-0.07446,  50:-0.56427,  51: 0.41645,  52:-0.73311,  53:-0.04719,  54: 0.45735,  55:-1.33064,  56: 0.39031,
                 57:-0.72417,  58: 0.28517,  59: 0.28901,  60:-1.78464,  61:-0.97512,  62: 0.63559,  63: 0.21784,  64:-0.53978,
                 65:-0.15454,  66:-0.64038,  67: 1.20458,  68:-8.22960,  69: 0.28812,  70:-0.75679,  71:21.63061,  72:-1.47610,
                 73:-0.43996,  74: 0.00467,  75: 4.24379,  76:-0.78723,  77:-0.42227,  78:-0.28341,  79: 0.00207,  80:-2.09197
    90 |      |   1:39.42224,   2:40.81897,   3:40.84848,   4:-0.42578,   5:40.09053,   6:39.58980,   7:40.37417,   8:-0.84308,
                  9:40.58242,  10:39.28395,  11:39.13031,  12: 0.70477,  13:39.66431,  14:39.14028,  15:39.52885,  16:-0.81430,
                 17:39.88976,  18:40.04475,  19:-39.03012,  20:-39.05979,  21:40.89487,  22:40.13603,  23:-39.55119,  24:39.90792,
                 25:39.56307,  26:40.01054,  27:39.12446,  28:-39.83610,  29:39.38081,  30:40.08327,  31:-39.33131,  32:40.38190,
                 33:40.64756,  34:40.06785,  35:-40.34510,  36:40.06798,  37:39.52763,  38:40.02673,  39:39.20264,  40:40.74477,
                 41:40.60193,  42:39.81972,  43:-39.05325,  44: 0.76384,  45:40.30454,  46:40.32692,  47:39.55891,  48:-0.53819,
                 49:40.96520,  50:39.78706,  51:40.56524,  52:39.95961,  53:40.01902,  54:40.69261,  55:39.22588,  56:40.32227,
                 57:40.03166,  58:39.60281,  59:-40.54804,  60:39.01730,  61:40.60366,  62:40.13079,  63:39.00057,  64:39.83960,
                 65:40.89104,  66:39.35266,  67:-40.12209,  68:40.63226,  69:40.68077,  70:39.56862,  71:-40.46004,  72:39.35770,
                 73:40.80542,  74:40.27667,  75:-39.83739,  76:-0.77452,  77:40.62992,  78:40.43097,  79:-40.79291,  80:-39.26475
    91 |      |   1: 0.54669,   2:-0.53071,   3:-0.55627,   4: 0.02922,   5: 0.42654,   6: 0.66567,   7: 0.00165,   8: 0.86229,
                  9:-0.22238,  10:-0.04225,  11: 0.38963,  12: 0.17641,  13:-0.81814,  14:-0.27002,  15: 2.99632,  16: 0.52154,
                 17: 0.15094,  18:-0.90680,  19: 1.19379,  20: 1.39752,  21:-0.74319,  22: 0.78767,  23: 0.92941,  24: 0.14344,
                 25:-0.02711,  26: 0.94760,  27: 1.71333,  28:-3.70190,  29: 0.42884,  30: 1.14730,  31:-10.60402,  32:-0.45807,
                 33:-0.61517,  34: 0.57931,  35:-0.35592,  36:-2.88284,  37:-0.34337,  38:-0.61157,  39: 0.40292,  40:-1.17923,
                 41:-0.58301,  42:-0.52804,  43:-17.22823,  44:-0.81809,  45: 0.71120,  46: 0.81386,  47:-9.81108,  48: 1.07090,
                 49:-0.00629,  50: 0.34144,  51:-1.50658,  52:-0.06797,  53:-0.81404,  54: 0.18894,  55:-4.54724,  56:-0.44570,
                 57:-0.35364,  58:-0.61654,  59: 0.49444,  60: 2.57226,  61:-0.62236,  62:-0.21788,  63: 0.62185,  64: 2.54955,
                 65: 0.91402,  66: 0.52937,  67: 0.22673,  68:12.17826,  69:-0.73108,  70: 0.58406,  71: 3.48714,  72:-1.09435,
                 73: 1.11293,  74: 0.70198,  75: 4.50447,  76: 0.47884,  77:-0.31750,  78: 0.64081,  79:-0.82441,  80:12.89501
    92 |      |   1:-1.13809,   2:-0.21924,   3:-0.46048,   4: 0.44005,   5:-0.16485,   6:-1.44530,   7:-0.74309,   8:-1.14616,
                  9:-1.67335,  10:-1.64766,  11:-1.43705,  12: 0.57710,  13:-0.80206,  14:-0.22887,  15:-1.80496,  16:10.96800,
                 17:-0.12293,  18:-0.85794,  19: 0.34053,  20:-1.62906,  21:-0.61960,  22:-0.10811,  23: 1.23677,  24:90.93806,
                 25: 0.73249,  26: 0.89209,  27:-5.31176,  28:-29.12380,  29:-1.63490,  30:-1.43366,  31:-0.86952,  32:27.50159,
                 33:-1.30766,  34: 0.33434,  35:-1.54296,  36:-94.61745,  37: 0.12229,  38:-1.48938,  39: 0.61251,  40:-6.70563,
                 41:-0.78737,  42:-0.98134,  43: 0.15298,  44: 0.25610,  45:-0.31540,  46:-0.50723,  47: 2.40098,  48: 8.20151,
                 49: 0.01357,  50:-1.89560,  51:-0.37611,  52:-138.12863,  53: 0.01994,  54:-1.48460,  55:-3.19323,  56:-47.35558,
                 57:-0.58251,  58:-1.31222,  59: 1.47540,  60:-50.57634,  61:-0.14091,  62:-1.68682,  63:-20.78102,  64:13.59900,
                 65:-0.39448,  66:-1.07995,  67:-0.18037,  68: 5.63141,  69:-0.87838,  70:-1.29642,  71:-28.80570,  72:-93.11133,
                 73:-0.03029,  74:-0.88245,  75: 1.46439,  76: 0.59724,  77:-0.25692,  78:-1.67357,  79: 1.46980,  80:14.94457
    93 |      |   1: 0.34826,   2:-0.63477,   3: 0.33066,   4: 0.94242,   5: 0.94116,   6: 0.37179,   7: 0.43073,   8: 0.13726,
                  9:-0.44723,  10:-0.89894,  11:-0.60768,  12:-0.43859,  13: 0.75251,  14:-0.75932,  15:-0.18852,  16:-0.35269,
                 17: 0.75424,  18:-0.02784,  19: 0.00532,  20:-0.35186,  21: 0.43122,  22:-0.79489,  23: 0.17339,  24: 0.16298,
                 25:-0.78087,  26: 0.22092,  27:-0.48084,  28:-0.33556,  29: 0.66743,  30:-0.43412,  31:-0.33869,  32: 0.10075,
                 33:-0.12716,  34:-0.29200,  35: 0.06201,  36:-0.38040,  37:-0.78249,  38:-0.03098,  39: 0.93331,  40:-0.14663,
                 41: 0.97186,  42: 0.89840,  43: 0.55630,  44: 0.08177,  45: 0.85815,  46:-0.25360,  47: 0.53479,  48:-0.38816,
                 49: 0.77686,  50: 0.54075,  51: 0.04695,  52: 0.64125,  53:-0.03879,  54: 0.84049,  55: 0.46578,  56:-0.95038,
                 57: 0.95408,  58: 0.24120,  59: 0.07151,  60: 0.43687,  61:-0.67799,  62: 0.68953,  63:-0.77602,  64:-0.66541,
                 65: 0.97746,  66: 0.52973,  67: 0.01763,  68:-0.01274,  69: 0.63753,  70: 0.68936,  71:-0.20817,  72:-0.84101,
                 73: 0.28641,  74: 0.60071,  75:-0.93183,  76: 0.88728,  77: 0.73207,  78:-0.72377,  79: 0.65884,  80:-0.61065
    94 |      |   1:40.68107,   2:39.42569,   3:39.93577,   4:-0.73335,   5:40.28982,   6:39.03101,   7:39.53858,   8:-40.66359,
                  9:39.93792,  10:40.03704,  11:40.95357,  12: 0.24463,  13:39.07822,  14:40.87675,  15:39.54851,  16:39.71543,
                 17:39.98565,  18:40.00714,  19:-39.06670,  20:-40.86050,  21:40.79845,  22:40.39587,  23:-39.65242,  24:40.68456,
                 25:40.38353,  26:40.29267,  27:-40.77122,  28:-40.07729,  29:39.54076,  30:39.86843,  31:-39.69135,  32:39.81889,
                 33:40.03941,  34:39.11071,  35:-40.75251,  36:-40.34383,  37:39.27351,  38:39.65380,  39:-39.91886,  40:39.77719,
                 41:39.14212,  42:40.77539,  43:39.55694,  44: 0.64333,  45:40.15592,  46:39.35616,  47:39.31250,  48:39.28222,
                 49:40.14258,  50:39.39251,  51:39.44021,  52:39.39300,  53:40.50721,  54:40.85951,  55:39.49310,  56:39.76221,
                 57:39.38701,  58:39.99683,  59:-39.23875,  60:39.85407,  61:39.64805,  62:40.05740,  63:39.57664,  64:39.93773,
                 65:39.27774,  66:40.30784,  67:-40.49975,  68:39.51629,  69:39.94565,  70:40.66390,  71:-40.87840,  72:40.49565,
                 73:40.29556,  74:40.30999,  75:-39.48433,  76:-0.95151,  77:39.69625,  78:40.48975,  79:-40.50740,  80:-39.21371
    95 |      |   1: 0.31623,   2:-0.04078,   3:-0.85162,   4:-0.03055,   5:-0.00339,   6:-0.87778,   7:-0.79417,   8: 2.46886,
                  9:-0.80309,  10:-0.53034,  11: 0.32228,  12: 0.21650,  13: 0.86280,  14: 0.04837,  15: 1.47267,  16: 0.04654,
                 17: 0.32010,  18:-0.09012,  19: 1.15633,  20:-0.68698,  21: 0.46939,  22:-0.34352,  23:-0.13026,  24:18.13990,
                 25:-0.26069,  26: 1.15074,  27: 0.70768,  28:-4.43200,  29:-0.90865,  30: 0.21267,  31: 9.59694,  32:-0.10661,
                 33:-0.03909,  34:-0.00083,  35: 1.06392,  36:-1.47174,  37: 0.21005,  38:-0.54008,  39:-0.60156,  40: 0.02858,
                 41:-0.34371,  42: 0.29479,  43:-2.52212,  44:-0.17671,  45:-0.13806,  46:-0.67973,  47:-0.63445,  48: 4.07776,
                 49: 0.89976,  50: 0.72398,  51:-4.41505,  52: 0.78946,  53:-0.50837,  54:-0.14761,  55:-1.38220,  56:-12.18268,
                 57:-0.73673,  58: 0.17365,  59: 4.06741,  60: 0.32555,  61:-0.53691,  62:-0.92628,  63:-4.89924,  64: 8.51342,
                 65: 0.82783,  66: 0.75007,  67:-0.04321,  68: 2.97089,  69: 0.11242,  70:-0.89874,  71:-3.62106,  72:-4.16713,
                 73:-0.63882,  74: 0.16383,  75: 2.75188,  76: 0.78833,  77: 0.28307,  78: 0.98838,  79:-0.98081,  80: 3.41409
    96 |      |   1: 0.58478,   2:-0.20090,   3:-0.58625,   4:-0.59375,   5: 0.58585,   6:-0.31374,   7:-0.28885,   8:-1.55645,
                  9:-0.80846,  10:-0.16450,  11: 0.89541,  12:-0.23163,  13:-0.16788,  14:-0.66835,  15:-9.95048,  16:-3.63952,
                 17:-0.12398,  18: 0.21416,  19:-0.05091,  20: 0.26810,  21: 0.13321,  22:-0.77765,  23:-0.10722,  24:39.60113,
                 25:-5.74086,  26:-3.22767,  27: 1.45746,  28:12.86805,  29: 0.19248,  30: 1.07212,  31: 1.49935,  32: 2.64034,
                 33:-0.37498,  34: 0.41873,  35:-1.24925,  36:26.71632,  37:-0.75381,  38:-0.46391,  39: 1.19452,  40: 2.11083,
                 41:-0.00626,  42: 0.75193,  43:-0.94302,  44: 0.23022,  45: 0.00687,  46:-0.00552,  47: 0.80856,  48:-4.27069,
                 49:-0.88709,  50:-0.36398,  51:-0.54867,  52:-1.37475,  53:-0.63107,  54:-0.73051,  55: 0.42717,  56:-190.57333,
                 57: 0.54105,  58:-1.01859,  59: 0.78361,  60:-10.33343,  61:-0.02359,  62: 0.72296,  63: 0.48360,  64:20.67639,
                 65:-0.83073,  66:-0.29875,  67: 0.72319,  68:45.28682,  69: 0.17162,  70: 0.29986,  71:-0.37013,  72:31.00318,
                 73: 0.33670,  74: 0.91369,  75: 1.72276,  76:-0.89280,  77:-0.14816,  78:-0.91287,  79:-0.20212,  80:-1.26141
    97 |      |   1: 0.60007,   2:-0.25732,   3: 0.02857,   4:-0.75543,   5: 0.82846,   6:-0.22599,   7:-0.32625,   8: 3.66756,
                  9: 0.77291,  10: 0.10718,  11: 0.56140,  12: 0.63083,  13: 0.71233,  14:-0.33558,  15:-0.91265,  16:34.60273,
                 17:-0.81210,  18:-0.81551,  19:-0.13955,  20:-0.41920,  21:-0.21387,  22: 0.68033,  23: 0.72728,  24: 7.57301,
                 25:-0.61691,  26:-0.17606,  27: 0.20912,  28:-2.28419,  29: 0.19222,  30:-0.03322,  31:-0.10293,  32: 0.64274,
                 33: 0.81823,  34: 1.07988,  35:-0.16238,  36:-5.40592,  37: 0.38966,  38:-0.68528,  39:-0.26375,  40:-2.89362,
                 41: 0.94191,  42:-0.14146,  43:-0.39100,  44: 0.54663,  45:-0.13366,  46: 0.29484,  47:-0.53126,  48:-7.61354,
                 49:-0.41180,  50:-0.51027,  51:10.72576,  52: 0.87734,  53: 0.29561,  54: 0.28132,  55: 0.16163,  56:-7.78212,
                 57: 0.20598,  58: 0.32662,  59: 0.14019,  60:-3.27451,  61:-0.05579,  62:-0.54109,  63: 1.96618,  64: 1.18838,
                 65:-0.31792,  66: 0.39882,  67: 0.46102,  68: 0.05913,  69: 0.81032,  70: 0.73289,  71:-0.22038,  72:-24.29500,
                 73: 0.12535,  74: 0.62143,  75:-0.09099,  76:-0.92197,  77:-0.11806,  78:-0.20780,  79: 0.24474,  80:-3.28699
    98 |      |   1:-0.14170,   2:-0.65677,   3: 0.88368,   4:-0.51026,   5:-0.52092,   6:-0.99235,   7: 0.04295,   8:-1.11255,
                  9: 0.34080,  10:-0.36469,  11:-0.80564,  12:-0.12762,  13: 0.41561,  14:-0.70312,  15: 5.47434,  16:-9.03652,
                 17:-0.33342,  18:-0.93450,  19:-0.52768,  20:-0.23450,  21: 0.40991,  22: 0.75024,  23: 0.71659,  24: 1.24334,
                 25: 0.50626,  26: 0.97844,  27: 0.48870,  28: 0.10011,  29: 0.26626,  30: 0.14578,  31: 0.95778,  32: 1.18415,
                 33:-0.23474,  34:-0.09366,  35: 1.59056,  36:-20.29745,  37: 0.47850,  38: 0.68280,  39:-1.48345,  40:-5.17726,
                 41:-0.23367,  42:-0.19854,  43:-1.09088,  44: 0.82350,  45:-0.90663,  46:-0.84310,  47:-4.35371,  48:-2.74793,
                 49: 0.09947,  50: 0.89957,  51:-1.39729,  52:-81.83916,  53: 0.18827,  54:-0.58044,  55: 0.71591,  56:-0.32854,
                 57:-0.74668,  58:-0.59558,  59:-0.87954,  60:-15.86455,  61: 0.73198,  62:-0.98369,  63:-0.75476,  64:-258.23242,
                 65:-0.37552,  66: 0.77158,  67: 1.64810,  68:-86.84409,  69:-163.70137,  70:-264.98752,  71: 0.37770,  72: 2.78294,
                 73: 0.60999,  74:-0.36478,  75: 0.46768,  76:-0.64527,  77: 0.30285,  78:-0.89167,  79: 0.37408,  80:24.57302
    99 |      |   1:-0.32605,   2: 0.11012,   3:-0.71370,   4: 0.23172,   5: 0.37734,   6:-0.11455,   7: 0.41374,   8: 2.01863,
                  9:-0.17346,  10: 1.00118,  11: 0.02425,  12: 0.10310,  13: 0.07954,  14: 0.46555,  15: 3.63998,  16:-0.33835,
                 17:-0.22582,  18:-0.02408,  19: 0.59690,  20: 0.08613,  21: 0.45727,  22: 0.99489,  23:-0.19190,  24:-0.82564,
                 25: 0.17106,  26:-0.77475,  27:-0.09255,  28:-1.31701,  29: 0.79596,  30: 0.41128,  31:-2.90048,  32:-16.82929,
                 33:-0.39618,  34: 0.02802,  35:-0.94165,  36: 2.88546,  37: 0.33773,  38: 0.40945,  39: 1.89171,  40:-0.36011,
                 41:-0.53184,  42: 0.79773,  43: 1.33854,  44:-0.85144,  45:-0.16194,  46:-0.72653,  47:-0.02576,  48:-4.86216,
                 49:-0.15356,  50: 0.31156,  51: 2.01499,  52:-0.13424,  53:-0.34188,  54:-0.24116,  55:-1.79818,  56: 0.23612,
                 57: 0.75505,  58:-0.84146,  59: 0.10841,  60:-0.36245,  61: 0.55052,  62: 0.62426,  63: 0.17931,  64: 1.10699,
                 65:-0.74128,  66:-0.13165,  67:-0.36006,  68: 6.05004,  69:-0.80366,  70:-0.32456,  71:-3.27541,  72:-1.30904,
                 73: 0.99894,  74: 0.64359,  75:-1.06840,  76: 0.53051,  77: 0.28821,  78: 0.91391,  79:-0.89570,  80:-7.01696
   100 |      |   1:-0.86690,   2: 0.71473,   3:-0.08942,   4:-0.62525,   5:-0.88142,   6: 0.39341,   7:-0.66159,   8:97.57311,
                  9: 0.59571,  10: 0.26272,  11:-0.18764,  12: 0.35877,  13:-0.36181,  14: 0.81506,  15: 6.62121,  16: 5.57775,
                 17:-0.73365,  18:-0.53805,  19: 0.71937,  20: 0.50925,  21:-0.43707,  22:-0.38929,  23:-0.07421,  24:-5.64044,
                 25:-0.66233,  26:-0.58227,  27: 1.54070,  28:-2.84549,  29: 0.11241,  30:-0.96404,  31: 2.34032,  32:-0.16844,
                 33: 0.15008,  34:-0.54957,  35:-5.96577,  36:-0.43550,  37: 0.70830,  38: 0.53636,  39: 2.74173,  40: 0.74830,
                 41: 0.46183,  42: 0.63276,  43: 2.06291,  44:-0.59024,  45:-0.35420,  46:-0.36772,  47:-4.49375,  48:12.17282,
                 49:-0.25031,  50: 0.71128,  51:-0.13892,  52:305.95483,  53: 0.33664,  54:-0.07292,  55:-5.49693,  56:-2.82872,
                 57: 0.76584,  58:-0.15116,  59: 0.26222,  60: 2.06721,  61: 0.80976,  62: 0.65947,  63:-9.15372,  64: 3.00218,
                 65: 0.78153,  66:-0.04701,  67: 0.57723,  68: 3.71205,  69:-0.03076,  70:-0.00079,  71: 0.78198,  72:-2.76779,
                 73: 0.30501,  74:-0.54473,  75:-4.13834,  76:-0.71901,  77: 0.88219,  78: 0.55352,  79: 0.79599,  80: 3.15963
   101 |      |  81: 0.52247,  82:-1.03409,  83: 0.55119,  84: 0.62268,  85:-0.64189,  86: 0.70172,  87: 0.59866,  88: 0.77437,
                 89:-0.53651,  90: 0.19379,  91:-0.56615,  92:-0.98834,  93:-0.21753,  94: 0.35929,  95:-0.48017,  96: 0.50146,
                 97:-0.69097,  98: 0.92935,  99:-0.89516, 100:-0.47418
-------|------|----------------------------------------------------------------------------------------------------------------
