SNNS network definition file V1.4-3D
generated at Fri Feb 24 11:31:02 2006

network name : 20i_30h
source files :
no. of units : 111
no. of connections : 2430
no. of unit types : 0
no. of site types : 0


learning function : Std_Backpropagation
update function   : Topological_Order


unit default section :

act      | bias     | st | subnet | layer | act func     | out func
---------|----------|----|--------|-------|--------------|-------------
 0.00000 |  0.00000 | h  |      0 |     1 | Act_Logistic | Out_Identity 
---------|----------|----|--------|-------|--------------|-------------


unit definition section :

no. | typeName | unitName | act      | bias     | st | position | act func | out func | sites
----|----------|----------|----------|----------|----|----------|----------|----------|-------
  1 |          |          |  0.00000 |  0.00000 | i  |  2, 2,-5592 |||
  2 |          |          |  0.00000 |  0.00000 | i  |  3, 2,-5592 |||
  3 |          |          |  0.00000 |  0.00000 | i  |  4, 2,-5592 |||
  4 |          |          |  0.00000 |  0.00000 | i  |  5, 2,-5592 |||
  5 |          |          |  0.00000 |  0.00000 | i  |  2, 3,-5592 |||
  6 |          |          |  0.00000 |  0.00000 | i  |  3, 3,-5592 |||
  7 |          |          |  0.00000 |  0.00000 | i  |  4, 3,-5592 |||
  8 |          |          |  0.00000 |  0.00000 | i  |  5, 3,-5592 |||
  9 |          |          |  0.00000 |  0.00000 | i  |  2, 4,-5592 |||
 10 |          |          |  0.00000 |  0.00000 | i  |  3, 4,-5592 |||
 11 |          |          |  0.00000 |  0.00000 | i  |  4, 4,-5592 |||
 12 |          |          |  0.00000 |  0.00000 | i  |  5, 4,-5592 |||
 13 |          |          |  0.00000 |  0.00000 | i  |  2, 5,-5592 |||
 14 |          |          |  0.00000 |  0.00000 | i  |  3, 5,-5592 |||
 15 |          |          |  0.00000 |  0.00000 | i  |  4, 5,-5592 |||
 16 |          |          |  0.00000 |  0.00000 | i  |  5, 5,-5592 |||
 17 |          |          |  0.00000 |  0.00000 | i  |  2, 6,-5592 |||
 18 |          |          |  0.00000 |  0.00000 | i  |  3, 6,-5592 |||
 19 |          |          |  0.00000 |  0.00000 | i  |  4, 6,-5592 |||
 20 |          |          |  0.00000 |  0.00000 | i  |  5, 6,-5592 |||
 21 |          |          |  0.00000 |  0.00000 | i  |  2, 7,-5592 |||
 22 |          |          |  0.00000 |  0.00000 | i  |  3, 7,-5592 |||
 23 |          |          |  0.00000 |  0.00000 | i  |  4, 7,-5592 |||
 24 |          |          |  0.00000 |  0.00000 | i  |  5, 7,-5592 |||
 25 |          |          |  0.00000 |  0.00000 | i  |  2, 8,-5592 |||
 26 |          |          |  0.00000 |  0.00000 | i  |  3, 8,-5592 |||
 27 |          |          |  0.00000 |  0.00000 | i  |  4, 8,-5592 |||
 28 |          |          |  0.00000 |  0.00000 | i  |  5, 8,-5592 |||
 29 |          |          |  0.00000 |  0.00000 | i  |  2, 9,-5592 |||
 30 |          |          |  0.00000 |  0.00000 | i  |  3, 9,-5592 |||
 31 |          |          |  0.00000 |  0.00000 | i  |  4, 9,-5592 |||
 32 |          |          |  0.00000 |  0.00000 | i  |  5, 9,-5592 |||
 33 |          |          |  0.00000 |  0.00000 | i  |  2,10,-5592 |||
 34 |          |          |  0.00000 |  0.00000 | i  |  3,10,-5592 |||
 35 |          |          |  0.00000 |  0.00000 | i  |  4,10,-5592 |||
 36 |          |          |  0.00000 |  0.00000 | i  |  5,10,-5592 |||
 37 |          |          |  0.00000 |  0.00000 | i  |  2,11,-5592 |||
 38 |          |          |  0.00000 |  0.00000 | i  |  3,11,-5592 |||
 39 |          |          |  0.00000 |  0.00000 | i  |  4,11,-5592 |||
 40 |          |          |  0.00000 |  0.00000 | i  |  5,11,-5592 |||
 41 |          |          |  0.00000 |  0.00000 | i  |  2,12,-5592 |||
 42 |          |          |  0.00000 |  0.00000 | i  |  3,12,-5592 |||
 43 |          |          |  0.00000 |  0.00000 | i  |  4,12,-5592 |||
 44 |          |          |  0.00000 |  0.00000 | i  |  5,12,-5592 |||
 45 |          |          |  0.00000 |  0.00000 | i  |  2,13,-5592 |||
 46 |          |          |  0.00000 |  0.00000 | i  |  3,13,-5592 |||
 47 |          |          |  0.00000 |  0.00000 | i  |  4,13,-5592 |||
 48 |          |          |  0.00000 |  0.00000 | i  |  5,13,-5592 |||
 49 |          |          |  0.00000 |  0.00000 | i  |  2,14,-5592 |||
 50 |          |          |  0.00000 |  0.00000 | i  |  3,14,-5592 |||
 51 |          |          |  0.00000 |  0.00000 | i  |  4,14,-5592 |||
 52 |          |          |  0.00000 |  0.00000 | i  |  5,14,-5592 |||
 53 |          |          |  0.00000 |  0.00000 | i  |  2,15,-5592 |||
 54 |          |          |  0.00000 |  0.00000 | i  |  3,15,-5592 |||
 55 |          |          |  0.00000 |  0.00000 | i  |  4,15,-5592 |||
 56 |          |          |  0.00000 |  0.00000 | i  |  5,15,-5592 |||
 57 |          |          |  0.00000 |  0.00000 | i  |  2,16,-5592 |||
 58 |          |          |  0.00000 |  0.00000 | i  |  3,16,-5592 |||
 59 |          |          |  0.00000 |  0.00000 | i  |  4,16,-5592 |||
 60 |          |          |  0.00000 |  0.00000 | i  |  5,16,-5592 |||
 61 |          |          |  0.00000 |  0.00000 | i  |  2,17,-5592 |||
 62 |          |          |  0.00000 |  0.00000 | i  |  3,17,-5592 |||
 63 |          |          |  0.00000 |  0.00000 | i  |  4,17,-5592 |||
 64 |          |          |  0.00000 |  0.00000 | i  |  5,17,-5592 |||
 65 |          |          |  0.00000 |  0.00000 | i  |  2,18,-5592 |||
 66 |          |          |  0.00000 |  0.00000 | i  |  3,18,-5592 |||
 67 |          |          |  0.00000 |  0.00000 | i  |  4,18,-5592 |||
 68 |          |          |  0.00000 |  0.00000 | i  |  5,18,-5592 |||
 69 |          |          |  0.00000 |  0.00000 | i  |  2,19,-5592 |||
 70 |          |          |  0.00000 |  0.00000 | i  |  3,19,-5592 |||
 71 |          |          |  0.00000 |  0.00000 | i  |  4,19,-5592 |||
 72 |          |          |  0.00000 |  0.00000 | i  |  5,19,-5592 |||
 73 |          |          |  0.00000 |  0.00000 | i  |  2,20,-5592 |||
 74 |          |          |  0.00000 |  0.00000 | i  |  3,20,-5592 |||
 75 |          |          |  0.00000 |  0.00000 | i  |  4,20,-5592 |||
 76 |          |          |  0.00000 |  0.00000 | i  |  5,20,-5592 |||
 77 |          |          |  0.00000 |  0.00000 | i  |  2,21,-5592 |||
 78 |          |          |  0.00000 |  0.00000 | i  |  3,21,-5592 |||
 79 |          |          |  0.00000 |  0.00000 | i  |  4,21,-5592 |||
 80 |          |          |  0.00000 |  0.00000 | i  |  5,21,-5592 |||
 81 |          |          |  0.00000 |  0.00000 | h  |  8, 2,-5592 |||
 82 |          |          |  0.00000 |  0.00000 | h  |  8, 3,-5592 |||
 83 |          |          |  0.00000 |  0.00000 | h  |  8, 4,-5592 |||
 84 |          |          |  0.00000 |  0.00000 | h  |  8, 5,-5592 |||
 85 |          |          |  0.00000 |  0.00000 | h  |  8, 6,-5592 |||
 86 |          |          |  0.00000 |  0.00000 | h  |  8, 7,-5592 |||
 87 |          |          |  0.00000 |  0.00000 | h  |  8, 8,-5592 |||
 88 |          |          |  0.00000 |  0.00000 | h  |  8, 9,-5592 |||
 89 |          |          |  0.00000 |  0.00000 | h  |  8,10,-5592 |||
 90 |          |          |  0.00000 |  0.00000 | h  |  8,11,-5592 |||
 91 |          |          |  0.00000 |  0.00000 | h  |  8,12,-5592 |||
 92 |          |          |  0.00000 |  0.00000 | h  |  8,13,-5592 |||
 93 |          |          |  0.00000 |  0.00000 | h  |  8,14,-5592 |||
 94 |          |          |  0.00000 |  0.00000 | h  |  8,15,-5592 |||
 95 |          |          |  0.00000 |  0.00000 | h  |  8,16,-5592 |||
 96 |          |          |  0.00000 |  0.00000 | h  |  8,17,-5592 |||
 97 |          |          |  0.00000 |  0.00000 | h  |  8,18,-5592 |||
 98 |          |          |  0.00000 |  0.00000 | h  |  8,19,-5592 |||
 99 |          |          |  0.00000 |  0.00000 | h  |  8,20,-5592 |||
100 |          |          |  0.00000 |  0.00000 | h  |  8,21,-5592 |||
101 |          |          |  0.00000 |  0.00000 | h  |  8,22,-5592 |||
102 |          |          |  0.00000 |  0.00000 | h  |  8,23,-5592 |||
103 |          |          |  0.00000 |  0.00000 | h  |  8,24,-5592 |||
104 |          |          |  0.00000 |  0.00000 | h  |  8,25,-5592 |||
105 |          |          |  0.00000 |  0.00000 | h  |  8,26,-5592 |||
106 |          |          |  0.00000 |  0.00000 | h  |  8,27,-5592 |||
107 |          |          |  0.00000 |  0.00000 | h  |  8,28,-5592 |||
108 |          |          |  0.00000 |  0.00000 | h  |  8,29,-5592 |||
109 |          |          |  0.00000 |  0.00000 | h  |  8,30,-5592 |||
110 |          |          |  0.00000 |  0.00000 | h  |  8,31,-5592 |||
111 |          |          |  0.00000 |  0.00000 | o  | 11, 2,-5592 |||
----|----------|----------|----------|----------|----|----------|----------|----------|-------


connection definition section :

target | site | source:weight
-------|------|----------------------------------------------------------------------------------------------------------------
    81 |      |  80: 0.00000,  79: 0.00000,  78: 0.00000,  77: 0.00000,  76: 0.00000,  75: 0.00000,  74: 0.00000,  73: 0.00000,
                 72: 0.00000,  71: 0.00000,  70: 0.00000,  69: 0.00000,  68: 0.00000,  67: 0.00000,  66: 0.00000,  65: 0.00000,
                 64: 0.00000,  63: 0.00000,  62: 0.00000,  61: 0.00000,  60: 0.00000,  59: 0.00000,  58: 0.00000,  57: 0.00000,
                 56: 0.00000,  55: 0.00000,  54: 0.00000,  53: 0.00000,  52: 0.00000,  51: 0.00000,  50: 0.00000,  49: 0.00000,
                 48: 0.00000,  47: 0.00000,  46: 0.00000,  45: 0.00000,  44: 0.00000,  43: 0.00000,  42: 0.00000,  41: 0.00000,
                 40: 0.00000,  39: 0.00000,  38: 0.00000,  37: 0.00000,  36: 0.00000,  35: 0.00000,  34: 0.00000,  33: 0.00000,
                 32: 0.00000,  31: 0.00000,  30: 0.00000,  29: 0.00000,  28: 0.00000,  27: 0.00000,  26: 0.00000,  25: 0.00000,
                 24: 0.00000,  23: 0.00000,  22: 0.00000,  21: 0.00000,  20: 0.00000,  19: 0.00000,  18: 0.00000,  17: 0.00000,
                 16: 0.00000,  15: 0.00000,  14: 0.00000,  13: 0.00000,  12: 0.00000,  11: 0.00000,  10: 0.00000,   9: 0.00000,
                  8: 0.00000,   7: 0.00000,   6: 0.00000,   5: 0.00000,   4: 0.00000,   3: 0.00000,   2: 0.00000,   1: 0.00000
    82 |      |  80: 0.00000,  79: 0.00000,  78: 0.00000,  77: 0.00000,  76: 0.00000,  75: 0.00000,  74: 0.00000,  73: 0.00000,
                 72: 0.00000,  71: 0.00000,  70: 0.00000,  69: 0.00000,  68: 0.00000,  67: 0.00000,  66: 0.00000,  65: 0.00000,
                 64: 0.00000,  63: 0.00000,  62: 0.00000,  61: 0.00000,  60: 0.00000,  59: 0.00000,  58: 0.00000,  57: 0.00000,
                 56: 0.00000,  55: 0.00000,  54: 0.00000,  53: 0.00000,  52: 0.00000,  51: 0.00000,  50: 0.00000,  49: 0.00000,
                 48: 0.00000,  47: 0.00000,  46: 0.00000,  45: 0.00000,  44: 0.00000,  43: 0.00000,  42: 0.00000,  41: 0.00000,
                 40: 0.00000,  39: 0.00000,  38: 0.00000,  37: 0.00000,  36: 0.00000,  35: 0.00000,  34: 0.00000,  33: 0.00000,
                 32: 0.00000,  31: 0.00000,  30: 0.00000,  29: 0.00000,  28: 0.00000,  27: 0.00000,  26: 0.00000,  25: 0.00000,
                 24: 0.00000,  23: 0.00000,  22: 0.00000,  21: 0.00000,  20: 0.00000,  19: 0.00000,  18: 0.00000,  17: 0.00000,
                 16: 0.00000,  15: 0.00000,  14: 0.00000,  13: 0.00000,  12: 0.00000,  11: 0.00000,  10: 0.00000,   9: 0.00000,
                  8: 0.00000,   7: 0.00000,   6: 0.00000,   5: 0.00000,   4: 0.00000,   3: 0.00000,   2: 0.00000,   1: 0.00000
    83 |      |  80: 0.00000,  79: 0.00000,  78: 0.00000,  77: 0.00000,  76: 0.00000,  75: 0.00000,  74: 0.00000,  73: 0.00000,
                 72: 0.00000,  71: 0.00000,  70: 0.00000,  69: 0.00000,  68: 0.00000,  67: 0.00000,  66: 0.00000,  65: 0.00000,
                 64: 0.00000,  63: 0.00000,  62: 0.00000,  61: 0.00000,  60: 0.00000,  59: 0.00000,  58: 0.00000,  57: 0.00000,
                 56: 0.00000,  55: 0.00000,  54: 0.00000,  53: 0.00000,  52: 0.00000,  51: 0.00000,  50: 0.00000,  49: 0.00000,
                 48: 0.00000,  47: 0.00000,  46: 0.00000,  45: 0.00000,  44: 0.00000,  43: 0.00000,  42: 0.00000,  41: 0.00000,
                 40: 0.00000,  39: 0.00000,  38: 0.00000,  37: 0.00000,  36: 0.00000,  35: 0.00000,  34: 0.00000,  33: 0.00000,
                 32: 0.00000,  31: 0.00000,  30: 0.00000,  29: 0.00000,  28: 0.00000,  27: 0.00000,  26: 0.00000,  25: 0.00000,
                 24: 0.00000,  23: 0.00000,  22: 0.00000,  21: 0.00000,  20: 0.00000,  19: 0.00000,  18: 0.00000,  17: 0.00000,
                 16: 0.00000,  15: 0.00000,  14: 0.00000,  13: 0.00000,  12: 0.00000,  11: 0.00000,  10: 0.00000,   9: 0.00000,
                  8: 0.00000,   7: 0.00000,   6: 0.00000,   5: 0.00000,   4: 0.00000,   3: 0.00000,   2: 0.00000,   1: 0.00000
    84 |      |  80: 0.00000,  79: 0.00000,  78: 0.00000,  77: 0.00000,  76: 0.00000,  75: 0.00000,  74: 0.00000,  73: 0.00000,
                 72: 0.00000,  71: 0.00000,  70: 0.00000,  69: 0.00000,  68: 0.00000,  67: 0.00000,  66: 0.00000,  65: 0.00000,
                 64: 0.00000,  63: 0.00000,  62: 0.00000,  61: 0.00000,  60: 0.00000,  59: 0.00000,  58: 0.00000,  57: 0.00000,
                 56: 0.00000,  55: 0.00000,  54: 0.00000,  53: 0.00000,  52: 0.00000,  51: 0.00000,  50: 0.00000,  49: 0.00000,
                 48: 0.00000,  47: 0.00000,  46: 0.00000,  45: 0.00000,  44: 0.00000,  43: 0.00000,  42: 0.00000,  41: 0.00000,
                 40: 0.00000,  39: 0.00000,  38: 0.00000,  37: 0.00000,  36: 0.00000,  35: 0.00000,  34: 0.00000,  33: 0.00000,
                 32: 0.00000,  31: 0.00000,  30: 0.00000,  29: 0.00000,  28: 0.00000,  27: 0.00000,  26: 0.00000,  25: 0.00000,
                 24: 0.00000,  23: 0.00000,  22: 0.00000,  21: 0.00000,  20: 0.00000,  19: 0.00000,  18: 0.00000,  17: 0.00000,
                 16: 0.00000,  15: 0.00000,  14: 0.00000,  13: 0.00000,  12: 0.00000,  11: 0.00000,  10: 0.00000,   9: 0.00000,
                  8: 0.00000,   7: 0.00000,   6: 0.00000,   5: 0.00000,   4: 0.00000,   3: 0.00000,   2: 0.00000,   1: 0.00000
    85 |      |  80: 0.00000,  79: 0.00000,  78: 0.00000,  77: 0.00000,  76: 0.00000,  75: 0.00000,  74: 0.00000,  73: 0.00000,
                 72: 0.00000,  71: 0.00000,  70: 0.00000,  69: 0.00000,  68: 0.00000,  67: 0.00000,  66: 0.00000,  65: 0.00000,
                 64: 0.00000,  63: 0.00000,  62: 0.00000,  61: 0.00000,  60: 0.00000,  59: 0.00000,  58: 0.00000,  57: 0.00000,
                 56: 0.00000,  55: 0.00000,  54: 0.00000,  53: 0.00000,  52: 0.00000,  51: 0.00000,  50: 0.00000,  49: 0.00000,
                 48: 0.00000,  47: 0.00000,  46: 0.00000,  45: 0.00000,  44: 0.00000,  43: 0.00000,  42: 0.00000,  41: 0.00000,
                 40: 0.00000,  39: 0.00000,  38: 0.00000,  37: 0.00000,  36: 0.00000,  35: 0.00000,  34: 0.00000,  33: 0.00000,
                 32: 0.00000,  31: 0.00000,  30: 0.00000,  29: 0.00000,  28: 0.00000,  27: 0.00000,  26: 0.00000,  25: 0.00000,
                 24: 0.00000,  23: 0.00000,  22: 0.00000,  21: 0.00000,  20: 0.00000,  19: 0.00000,  18: 0.00000,  17: 0.00000,
                 16: 0.00000,  15: 0.00000,  14: 0.00000,  13: 0.00000,  12: 0.00000,  11: 0.00000,  10: 0.00000,   9: 0.00000,
                  8: 0.00000,   7: 0.00000,   6: 0.00000,   5: 0.00000,   4: 0.00000,   3: 0.00000,   2: 0.00000,   1: 0.00000
    86 |      |  80: 0.00000,  79: 0.00000,  78: 0.00000,  77: 0.00000,  76: 0.00000,  75: 0.00000,  74: 0.00000,  73: 0.00000,
                 72: 0.00000,  71: 0.00000,  70: 0.00000,  69: 0.00000,  68: 0.00000,  67: 0.00000,  66: 0.00000,  65: 0.00000,
                 64: 0.00000,  63: 0.00000,  62: 0.00000,  61: 0.00000,  60: 0.00000,  59: 0.00000,  58: 0.00000,  57: 0.00000,
                 56: 0.00000,  55: 0.00000,  54: 0.00000,  53: 0.00000,  52: 0.00000,  51: 0.00000,  50: 0.00000,  49: 0.00000,
                 48: 0.00000,  47: 0.00000,  46: 0.00000,  45: 0.00000,  44: 0.00000,  43: 0.00000,  42: 0.00000,  41: 0.00000,
                 40: 0.00000,  39: 0.00000,  38: 0.00000,  37: 0.00000,  36: 0.00000,  35: 0.00000,  34: 0.00000,  33: 0.00000,
                 32: 0.00000,  31: 0.00000,  30: 0.00000,  29: 0.00000,  28: 0.00000,  27: 0.00000,  26: 0.00000,  25: 0.00000,
                 24: 0.00000,  23: 0.00000,  22: 0.00000,  21: 0.00000,  20: 0.00000,  19: 0.00000,  18: 0.00000,  17: 0.00000,
                 16: 0.00000,  15: 0.00000,  14: 0.00000,  13: 0.00000,  12: 0.00000,  11: 0.00000,  10: 0.00000,   9: 0.00000,
                  8: 0.00000,   7: 0.00000,   6: 0.00000,   5: 0.00000,   4: 0.00000,   3: 0.00000,   2: 0.00000,   1: 0.00000
    87 |      |  80: 0.00000,  79: 0.00000,  78: 0.00000,  77: 0.00000,  76: 0.00000,  75: 0.00000,  74: 0.00000,  73: 0.00000,
                 72: 0.00000,  71: 0.00000,  70: 0.00000,  69: 0.00000,  68: 0.00000,  67: 0.00000,  66: 0.00000,  65: 0.00000,
                 64: 0.00000,  63: 0.00000,  62: 0.00000,  61: 0.00000,  60: 0.00000,  59: 0.00000,  58: 0.00000,  57: 0.00000,
                 56: 0.00000,  55: 0.00000,  54: 0.00000,  53: 0.00000,  52: 0.00000,  51: 0.00000,  50: 0.00000,  49: 0.00000,
                 48: 0.00000,  47: 0.00000,  46: 0.00000,  45: 0.00000,  44: 0.00000,  43: 0.00000,  42: 0.00000,  41: 0.00000,
                 40: 0.00000,  39: 0.00000,  38: 0.00000,  37: 0.00000,  36: 0.00000,  35: 0.00000,  34: 0.00000,  33: 0.00000,
                 32: 0.00000,  31: 0.00000,  30: 0.00000,  29: 0.00000,  28: 0.00000,  27: 0.00000,  26: 0.00000,  25: 0.00000,
                 24: 0.00000,  23: 0.00000,  22: 0.00000,  21: 0.00000,  20: 0.00000,  19: 0.00000,  18: 0.00000,  17: 0.00000,
                 16: 0.00000,  15: 0.00000,  14: 0.00000,  13: 0.00000,  12: 0.00000,  11: 0.00000,  10: 0.00000,   9: 0.00000,
                  8: 0.00000,   7: 0.00000,   6: 0.00000,   5: 0.00000,   4: 0.00000,   3: 0.00000,   2: 0.00000,   1: 0.00000
    88 |      |  80: 0.00000,  79: 0.00000,  78: 0.00000,  77: 0.00000,  76: 0.00000,  75: 0.00000,  74: 0.00000,  73: 0.00000,
                 72: 0.00000,  71: 0.00000,  70: 0.00000,  69: 0.00000,  68: 0.00000,  67: 0.00000,  66: 0.00000,  65: 0.00000,
                 64: 0.00000,  63: 0.00000,  62: 0.00000,  61: 0.00000,  60: 0.00000,  59: 0.00000,  58: 0.00000,  57: 0.00000,
                 56: 0.00000,  55: 0.00000,  54: 0.00000,  53: 0.00000,  52: 0.00000,  51: 0.00000,  50: 0.00000,  49: 0.00000,
                 48: 0.00000,  47: 0.00000,  46: 0.00000,  45: 0.00000,  44: 0.00000,  43: 0.00000,  42: 0.00000,  41: 0.00000,
                 40: 0.00000,  39: 0.00000,  38: 0.00000,  37: 0.00000,  36: 0.00000,  35: 0.00000,  34: 0.00000,  33: 0.00000,
                 32: 0.00000,  31: 0.00000,  30: 0.00000,  29: 0.00000,  28: 0.00000,  27: 0.00000,  26: 0.00000,  25: 0.00000,
                 24: 0.00000,  23: 0.00000,  22: 0.00000,  21: 0.00000,  20: 0.00000,  19: 0.00000,  18: 0.00000,  17: 0.00000,
                 16: 0.00000,  15: 0.00000,  14: 0.00000,  13: 0.00000,  12: 0.00000,  11: 0.00000,  10: 0.00000,   9: 0.00000,
                  8: 0.00000,   7: 0.00000,   6: 0.00000,   5: 0.00000,   4: 0.00000,   3: 0.00000,   2: 0.00000,   1: 0.00000
    89 |      |  80: 0.00000,  79: 0.00000,  78: 0.00000,  77: 0.00000,  76: 0.00000,  75: 0.00000,  74: 0.00000,  73: 0.00000,
                 72: 0.00000,  71: 0.00000,  70: 0.00000,  69: 0.00000,  68: 0.00000,  67: 0.00000,  66: 0.00000,  65: 0.00000,
                 64: 0.00000,  63: 0.00000,  62: 0.00000,  61: 0.00000,  60: 0.00000,  59: 0.00000,  58: 0.00000,  57: 0.00000,
                 56: 0.00000,  55: 0.00000,  54: 0.00000,  53: 0.00000,  52: 0.00000,  51: 0.00000,  50: 0.00000,  49: 0.00000,
                 48: 0.00000,  47: 0.00000,  46: 0.00000,  45: 0.00000,  44: 0.00000,  43: 0.00000,  42: 0.00000,  41: 0.00000,
                 40: 0.00000,  39: 0.00000,  38: 0.00000,  37: 0.00000,  36: 0.00000,  35: 0.00000,  34: 0.00000,  33: 0.00000,
                 32: 0.00000,  31: 0.00000,  30: 0.00000,  29: 0.00000,  28: 0.00000,  27: 0.00000,  26: 0.00000,  25: 0.00000,
                 24: 0.00000,  23: 0.00000,  22: 0.00000,  21: 0.00000,  20: 0.00000,  19: 0.00000,  18: 0.00000,  17: 0.00000,
                 16: 0.00000,  15: 0.00000,  14: 0.00000,  13: 0.00000,  12: 0.00000,  11: 0.00000,  10: 0.00000,   9: 0.00000,
                  8: 0.00000,   7: 0.00000,   6: 0.00000,   5: 0.00000,   4: 0.00000,   3: 0.00000,   2: 0.00000,   1: 0.00000
    90 |      |  80: 0.00000,  79: 0.00000,  78: 0.00000,  77: 0.00000,  76: 0.00000,  75: 0.00000,  74: 0.00000,  73: 0.00000,
                 72: 0.00000,  71: 0.00000,  70: 0.00000,  69: 0.00000,  68: 0.00000,  67: 0.00000,  66: 0.00000,  65: 0.00000,
                 64: 0.00000,  63: 0.00000,  62: 0.00000,  61: 0.00000,  60: 0.00000,  59: 0.00000,  58: 0.00000,  57: 0.00000,
                 56: 0.00000,  55: 0.00000,  54: 0.00000,  53: 0.00000,  52: 0.00000,  51: 0.00000,  50: 0.00000,  49: 0.00000,
                 48: 0.00000,  47: 0.00000,  46: 0.00000,  45: 0.00000,  44: 0.00000,  43: 0.00000,  42: 0.00000,  41: 0.00000,
                 40: 0.00000,  39: 0.00000,  38: 0.00000,  37: 0.00000,  36: 0.00000,  35: 0.00000,  34: 0.00000,  33: 0.00000,
                 32: 0.00000,  31: 0.00000,  30: 0.00000,  29: 0.00000,  28: 0.00000,  27: 0.00000,  26: 0.00000,  25: 0.00000,
                 24: 0.00000,  23: 0.00000,  22: 0.00000,  21: 0.00000,  20: 0.00000,  19: 0.00000,  18: 0.00000,  17: 0.00000,
                 16: 0.00000,  15: 0.00000,  14: 0.00000,  13: 0.00000,  12: 0.00000,  11: 0.00000,  10: 0.00000,   9: 0.00000,
                  8: 0.00000,   7: 0.00000,   6: 0.00000,   5: 0.00000,   4: 0.00000,   3: 0.00000,   2: 0.00000,   1: 0.00000
    91 |      |  80: 0.00000,  79: 0.00000,  78: 0.00000,  77: 0.00000,  76: 0.00000,  75: 0.00000,  74: 0.00000,  73: 0.00000,
                 72: 0.00000,  71: 0.00000,  70: 0.00000,  69: 0.00000,  68: 0.00000,  67: 0.00000,  66: 0.00000,  65: 0.00000,
                 64: 0.00000,  63: 0.00000,  62: 0.00000,  61: 0.00000,  60: 0.00000,  59: 0.00000,  58: 0.00000,  57: 0.00000,
                 56: 0.00000,  55: 0.00000,  54: 0.00000,  53: 0.00000,  52: 0.00000,  51: 0.00000,  50: 0.00000,  49: 0.00000,
                 48: 0.00000,  47: 0.00000,  46: 0.00000,  45: 0.00000,  44: 0.00000,  43: 0.00000,  42: 0.00000,  41: 0.00000,
                 40: 0.00000,  39: 0.00000,  38: 0.00000,  37: 0.00000,  36: 0.00000,  35: 0.00000,  34: 0.00000,  33: 0.00000,
                 32: 0.00000,  31: 0.00000,  30: 0.00000,  29: 0.00000,  28: 0.00000,  27: 0.00000,  26: 0.00000,  25: 0.00000,
                 24: 0.00000,  23: 0.00000,  22: 0.00000,  21: 0.00000,  20: 0.00000,  19: 0.00000,  18: 0.00000,  17: 0.00000,
                 16: 0.00000,  15: 0.00000,  14: 0.00000,  13: 0.00000,  12: 0.00000,  11: 0.00000,  10: 0.00000,   9: 0.00000,
                  8: 0.00000,   7: 0.00000,   6: 0.00000,   5: 0.00000,   4: 0.00000,   3: 0.00000,   2: 0.00000,   1: 0.00000
    92 |      |  80: 0.00000,  79: 0.00000,  78: 0.00000,  77: 0.00000,  76: 0.00000,  75: 0.00000,  74: 0.00000,  73: 0.00000,
                 72: 0.00000,  71: 0.00000,  70: 0.00000,  69: 0.00000,  68: 0.00000,  67: 0.00000,  66: 0.00000,  65: 0.00000,
                 64: 0.00000,  63: 0.00000,  62: 0.00000,  61: 0.00000,  60: 0.00000,  59: 0.00000,  58: 0.00000,  57: 0.00000,
                 56: 0.00000,  55: 0.00000,  54: 0.00000,  53: 0.00000,  52: 0.00000,  51: 0.00000,  50: 0.00000,  49: 0.00000,
                 48: 0.00000,  47: 0.00000,  46: 0.00000,  45: 0.00000,  44: 0.00000,  43: 0.00000,  42: 0.00000,  41: 0.00000,
                 40: 0.00000,  39: 0.00000,  38: 0.00000,  37: 0.00000,  36: 0.00000,  35: 0.00000,  34: 0.00000,  33: 0.00000,
                 32: 0.00000,  31: 0.00000,  30: 0.00000,  29: 0.00000,  28: 0.00000,  27: 0.00000,  26: 0.00000,  25: 0.00000,
                 24: 0.00000,  23: 0.00000,  22: 0.00000,  21: 0.00000,  20: 0.00000,  19: 0.00000,  18: 0.00000,  17: 0.00000,
                 16: 0.00000,  15: 0.00000,  14: 0.00000,  13: 0.00000,  12: 0.00000,  11: 0.00000,  10: 0.00000,   9: 0.00000,
                  8: 0.00000,   7: 0.00000,   6: 0.00000,   5: 0.00000,   4: 0.00000,   3: 0.00000,   2: 0.00000,   1: 0.00000
    93 |      |  80: 0.00000,  79: 0.00000,  78: 0.00000,  77: 0.00000,  76: 0.00000,  75: 0.00000,  74: 0.00000,  73: 0.00000,
                 72: 0.00000,  71: 0.00000,  70: 0.00000,  69: 0.00000,  68: 0.00000,  67: 0.00000,  66: 0.00000,  65: 0.00000,
                 64: 0.00000,  63: 0.00000,  62: 0.00000,  61: 0.00000,  60: 0.00000,  59: 0.00000,  58: 0.00000,  57: 0.00000,
                 56: 0.00000,  55: 0.00000,  54: 0.00000,  53: 0.00000,  52: 0.00000,  51: 0.00000,  50: 0.00000,  49: 0.00000,
                 48: 0.00000,  47: 0.00000,  46: 0.00000,  45: 0.00000,  44: 0.00000,  43: 0.00000,  42: 0.00000,  41: 0.00000,
                 40: 0.00000,  39: 0.00000,  38: 0.00000,  37: 0.00000,  36: 0.00000,  35: 0.00000,  34: 0.00000,  33: 0.00000,
                 32: 0.00000,  31: 0.00000,  30: 0.00000,  29: 0.00000,  28: 0.00000,  27: 0.00000,  26: 0.00000,  25: 0.00000,
                 24: 0.00000,  23: 0.00000,  22: 0.00000,  21: 0.00000,  20: 0.00000,  19: 0.00000,  18: 0.00000,  17: 0.00000,
                 16: 0.00000,  15: 0.00000,  14: 0.00000,  13: 0.00000,  12: 0.00000,  11: 0.00000,  10: 0.00000,   9: 0.00000,
                  8: 0.00000,   7: 0.00000,   6: 0.00000,   5: 0.00000,   4: 0.00000,   3: 0.00000,   2: 0.00000,   1: 0.00000
    94 |      |  80: 0.00000,  79: 0.00000,  78: 0.00000,  77: 0.00000,  76: 0.00000,  75: 0.00000,  74: 0.00000,  73: 0.00000,
                 72: 0.00000,  71: 0.00000,  70: 0.00000,  69: 0.00000,  68: 0.00000,  67: 0.00000,  66: 0.00000,  65: 0.00000,
                 64: 0.00000,  63: 0.00000,  62: 0.00000,  61: 0.00000,  60: 0.00000,  59: 0.00000,  58: 0.00000,  57: 0.00000,
                 56: 0.00000,  55: 0.00000,  54: 0.00000,  53: 0.00000,  52: 0.00000,  51: 0.00000,  50: 0.00000,  49: 0.00000,
                 48: 0.00000,  47: 0.00000,  46: 0.00000,  45: 0.00000,  44: 0.00000,  43: 0.00000,  42: 0.00000,  41: 0.00000,
                 40: 0.00000,  39: 0.00000,  38: 0.00000,  37: 0.00000,  36: 0.00000,  35: 0.00000,  34: 0.00000,  33: 0.00000,
                 32: 0.00000,  31: 0.00000,  30: 0.00000,  29: 0.00000,  28: 0.00000,  27: 0.00000,  26: 0.00000,  25: 0.00000,
                 24: 0.00000,  23: 0.00000,  22: 0.00000,  21: 0.00000,  20: 0.00000,  19: 0.00000,  18: 0.00000,  17: 0.00000,
                 16: 0.00000,  15: 0.00000,  14: 0.00000,  13: 0.00000,  12: 0.00000,  11: 0.00000,  10: 0.00000,   9: 0.00000,
                  8: 0.00000,   7: 0.00000,   6: 0.00000,   5: 0.00000,   4: 0.00000,   3: 0.00000,   2: 0.00000,   1: 0.00000
    95 |      |  80: 0.00000,  79: 0.00000,  78: 0.00000,  77: 0.00000,  76: 0.00000,  75: 0.00000,  74: 0.00000,  73: 0.00000,
                 72: 0.00000,  71: 0.00000,  70: 0.00000,  69: 0.00000,  68: 0.00000,  67: 0.00000,  66: 0.00000,  65: 0.00000,
                 64: 0.00000,  63: 0.00000,  62: 0.00000,  61: 0.00000,  60: 0.00000,  59: 0.00000,  58: 0.00000,  57: 0.00000,
                 56: 0.00000,  55: 0.00000,  54: 0.00000,  53: 0.00000,  52: 0.00000,  51: 0.00000,  50: 0.00000,  49: 0.00000,
                 48: 0.00000,  47: 0.00000,  46: 0.00000,  45: 0.00000,  44: 0.00000,  43: 0.00000,  42: 0.00000,  41: 0.00000,
                 40: 0.00000,  39: 0.00000,  38: 0.00000,  37: 0.00000,  36: 0.00000,  35: 0.00000,  34: 0.00000,  33: 0.00000,
                 32: 0.00000,  31: 0.00000,  30: 0.00000,  29: 0.00000,  28: 0.00000,  27: 0.00000,  26: 0.00000,  25: 0.00000,
                 24: 0.00000,  23: 0.00000,  22: 0.00000,  21: 0.00000,  20: 0.00000,  19: 0.00000,  18: 0.00000,  17: 0.00000,
                 16: 0.00000,  15: 0.00000,  14: 0.00000,  13: 0.00000,  12: 0.00000,  11: 0.00000,  10: 0.00000,   9: 0.00000,
                  8: 0.00000,   7: 0.00000,   6: 0.00000,   5: 0.00000,   4: 0.00000,   3: 0.00000,   2: 0.00000,   1: 0.00000
    96 |      |  80: 0.00000,  79: 0.00000,  78: 0.00000,  77: 0.00000,  76: 0.00000,  75: 0.00000,  74: 0.00000,  73: 0.00000,
                 72: 0.00000,  71: 0.00000,  70: 0.00000,  69: 0.00000,  68: 0.00000,  67: 0.00000,  66: 0.00000,  65: 0.00000,
                 64: 0.00000,  63: 0.00000,  62: 0.00000,  61: 0.00000,  60: 0.00000,  59: 0.00000,  58: 0.00000,  57: 0.00000,
                 56: 0.00000,  55: 0.00000,  54: 0.00000,  53: 0.00000,  52: 0.00000,  51: 0.00000,  50: 0.00000,  49: 0.00000,
                 48: 0.00000,  47: 0.00000,  46: 0.00000,  45: 0.00000,  44: 0.00000,  43: 0.00000,  42: 0.00000,  41: 0.00000,
                 40: 0.00000,  39: 0.00000,  38: 0.00000,  37: 0.00000,  36: 0.00000,  35: 0.00000,  34: 0.00000,  33: 0.00000,
                 32: 0.00000,  31: 0.00000,  30: 0.00000,  29: 0.00000,  28: 0.00000,  27: 0.00000,  26: 0.00000,  25: 0.00000,
                 24: 0.00000,  23: 0.00000,  22: 0.00000,  21: 0.00000,  20: 0.00000,  19: 0.00000,  18: 0.00000,  17: 0.00000,
                 16: 0.00000,  15: 0.00000,  14: 0.00000,  13: 0.00000,  12: 0.00000,  11: 0.00000,  10: 0.00000,   9: 0.00000,
                  8: 0.00000,   7: 0.00000,   6: 0.00000,   5: 0.00000,   4: 0.00000,   3: 0.00000,   2: 0.00000,   1: 0.00000
    97 |      |  80: 0.00000,  79: 0.00000,  78: 0.00000,  77: 0.00000,  76: 0.00000,  75: 0.00000,  74: 0.00000,  73: 0.00000,
                 72: 0.00000,  71: 0.00000,  70: 0.00000,  69: 0.00000,  68: 0.00000,  67: 0.00000,  66: 0.00000,  65: 0.00000,
                 64: 0.00000,  63: 0.00000,  62: 0.00000,  61: 0.00000,  60: 0.00000,  59: 0.00000,  58: 0.00000,  57: 0.00000,
                 56: 0.00000,  55: 0.00000,  54: 0.00000,  53: 0.00000,  52: 0.00000,  51: 0.00000,  50: 0.00000,  49: 0.00000,
                 48: 0.00000,  47: 0.00000,  46: 0.00000,  45: 0.00000,  44: 0.00000,  43: 0.00000,  42: 0.00000,  41: 0.00000,
                 40: 0.00000,  39: 0.00000,  38: 0.00000,  37: 0.00000,  36: 0.00000,  35: 0.00000,  34: 0.00000,  33: 0.00000,
                 32: 0.00000,  31: 0.00000,  30: 0.00000,  29: 0.00000,  28: 0.00000,  27: 0.00000,  26: 0.00000,  25: 0.00000,
                 24: 0.00000,  23: 0.00000,  22: 0.00000,  21: 0.00000,  20: 0.00000,  19: 0.00000,  18: 0.00000,  17: 0.00000,
                 16: 0.00000,  15: 0.00000,  14: 0.00000,  13: 0.00000,  12: 0.00000,  11: 0.00000,  10: 0.00000,   9: 0.00000,
                  8: 0.00000,   7: 0.00000,   6: 0.00000,   5: 0.00000,   4: 0.00000,   3: 0.00000,   2: 0.00000,   1: 0.00000
    98 |      |  80: 0.00000,  79: 0.00000,  78: 0.00000,  77: 0.00000,  76: 0.00000,  75: 0.00000,  74: 0.00000,  73: 0.00000,
                 72: 0.00000,  71: 0.00000,  70: 0.00000,  69: 0.00000,  68: 0.00000,  67: 0.00000,  66: 0.00000,  65: 0.00000,
                 64: 0.00000,  63: 0.00000,  62: 0.00000,  61: 0.00000,  60: 0.00000,  59: 0.00000,  58: 0.00000,  57: 0.00000,
                 56: 0.00000,  55: 0.00000,  54: 0.00000,  53: 0.00000,  52: 0.00000,  51: 0.00000,  50: 0.00000,  49: 0.00000,
                 48: 0.00000,  47: 0.00000,  46: 0.00000,  45: 0.00000,  44: 0.00000,  43: 0.00000,  42: 0.00000,  41: 0.00000,
                 40: 0.00000,  39: 0.00000,  38: 0.00000,  37: 0.00000,  36: 0.00000,  35: 0.00000,  34: 0.00000,  33: 0.00000,
                 32: 0.00000,  31: 0.00000,  30: 0.00000,  29: 0.00000,  28: 0.00000,  27: 0.00000,  26: 0.00000,  25: 0.00000,
                 24: 0.00000,  23: 0.00000,  22: 0.00000,  21: 0.00000,  20: 0.00000,  19: 0.00000,  18: 0.00000,  17: 0.00000,
                 16: 0.00000,  15: 0.00000,  14: 0.00000,  13: 0.00000,  12: 0.00000,  11: 0.00000,  10: 0.00000,   9: 0.00000,
                  8: 0.00000,   7: 0.00000,   6: 0.00000,   5: 0.00000,   4: 0.00000,   3: 0.00000,   2: 0.00000,   1: 0.00000
    99 |      |  80: 0.00000,  79: 0.00000,  78: 0.00000,  77: 0.00000,  76: 0.00000,  75: 0.00000,  74: 0.00000,  73: 0.00000,
                 72: 0.00000,  71: 0.00000,  70: 0.00000,  69: 0.00000,  68: 0.00000,  67: 0.00000,  66: 0.00000,  65: 0.00000,
                 64: 0.00000,  63: 0.00000,  62: 0.00000,  61: 0.00000,  60: 0.00000,  59: 0.00000,  58: 0.00000,  57: 0.00000,
                 56: 0.00000,  55: 0.00000,  54: 0.00000,  53: 0.00000,  52: 0.00000,  51: 0.00000,  50: 0.00000,  49: 0.00000,
                 48: 0.00000,  47: 0.00000,  46: 0.00000,  45: 0.00000,  44: 0.00000,  43: 0.00000,  42: 0.00000,  41: 0.00000,
                 40: 0.00000,  39: 0.00000,  38: 0.00000,  37: 0.00000,  36: 0.00000,  35: 0.00000,  34: 0.00000,  33: 0.00000,
                 32: 0.00000,  31: 0.00000,  30: 0.00000,  29: 0.00000,  28: 0.00000,  27: 0.00000,  26: 0.00000,  25: 0.00000,
                 24: 0.00000,  23: 0.00000,  22: 0.00000,  21: 0.00000,  20: 0.00000,  19: 0.00000,  18: 0.00000,  17: 0.00000,
                 16: 0.00000,  15: 0.00000,  14: 0.00000,  13: 0.00000,  12: 0.00000,  11: 0.00000,  10: 0.00000,   9: 0.00000,
                  8: 0.00000,   7: 0.00000,   6: 0.00000,   5: 0.00000,   4: 0.00000,   3: 0.00000,   2: 0.00000,   1: 0.00000
   100 |      |  80: 0.00000,  79: 0.00000,  78: 0.00000,  77: 0.00000,  76: 0.00000,  75: 0.00000,  74: 0.00000,  73: 0.00000,
                 72: 0.00000,  71: 0.00000,  70: 0.00000,  69: 0.00000,  68: 0.00000,  67: 0.00000,  66: 0.00000,  65: 0.00000,
                 64: 0.00000,  63: 0.00000,  62: 0.00000,  61: 0.00000,  60: 0.00000,  59: 0.00000,  58: 0.00000,  57: 0.00000,
                 56: 0.00000,  55: 0.00000,  54: 0.00000,  53: 0.00000,  52: 0.00000,  51: 0.00000,  50: 0.00000,  49: 0.00000,
                 48: 0.00000,  47: 0.00000,  46: 0.00000,  45: 0.00000,  44: 0.00000,  43: 0.00000,  42: 0.00000,  41: 0.00000,
                 40: 0.00000,  39: 0.00000,  38: 0.00000,  37: 0.00000,  36: 0.00000,  35: 0.00000,  34: 0.00000,  33: 0.00000,
                 32: 0.00000,  31: 0.00000,  30: 0.00000,  29: 0.00000,  28: 0.00000,  27: 0.00000,  26: 0.00000,  25: 0.00000,
                 24: 0.00000,  23: 0.00000,  22: 0.00000,  21: 0.00000,  20: 0.00000,  19: 0.00000,  18: 0.00000,  17: 0.00000,
                 16: 0.00000,  15: 0.00000,  14: 0.00000,  13: 0.00000,  12: 0.00000,  11: 0.00000,  10: 0.00000,   9: 0.00000,
                  8: 0.00000,   7: 0.00000,   6: 0.00000,   5: 0.00000,   4: 0.00000,   3: 0.00000,   2: 0.00000,   1: 0.00000
   101 |      |  80: 0.00000,  79: 0.00000,  78: 0.00000,  77: 0.00000,  76: 0.00000,  75: 0.00000,  74: 0.00000,  73: 0.00000,
                 72: 0.00000,  71: 0.00000,  70: 0.00000,  69: 0.00000,  68: 0.00000,  67: 0.00000,  66: 0.00000,  65: 0.00000,
                 64: 0.00000,  63: 0.00000,  62: 0.00000,  61: 0.00000,  60: 0.00000,  59: 0.00000,  58: 0.00000,  57: 0.00000,
                 56: 0.00000,  55: 0.00000,  54: 0.00000,  53: 0.00000,  52: 0.00000,  51: 0.00000,  50: 0.00000,  49: 0.00000,
                 48: 0.00000,  47: 0.00000,  46: 0.00000,  45: 0.00000,  44: 0.00000,  43: 0.00000,  42: 0.00000,  41: 0.00000,
                 40: 0.00000,  39: 0.00000,  38: 0.00000,  37: 0.00000,  36: 0.00000,  35: 0.00000,  34: 0.00000,  33: 0.00000,
                 32: 0.00000,  31: 0.00000,  30: 0.00000,  29: 0.00000,  28: 0.00000,  27: 0.00000,  26: 0.00000,  25: 0.00000,
                 24: 0.00000,  23: 0.00000,  22: 0.00000,  21: 0.00000,  20: 0.00000,  19: 0.00000,  18: 0.00000,  17: 0.00000,
                 16: 0.00000,  15: 0.00000,  14: 0.00000,  13: 0.00000,  12: 0.00000,  11: 0.00000,  10: 0.00000,   9: 0.00000,
                  8: 0.00000,   7: 0.00000,   6: 0.00000,   5: 0.00000,   4: 0.00000,   3: 0.00000,   2: 0.00000,   1: 0.00000
   102 |      |  80: 0.00000,  79: 0.00000,  78: 0.00000,  77: 0.00000,  76: 0.00000,  75: 0.00000,  74: 0.00000,  73: 0.00000,
                 72: 0.00000,  71: 0.00000,  70: 0.00000,  69: 0.00000,  68: 0.00000,  67: 0.00000,  66: 0.00000,  65: 0.00000,
                 64: 0.00000,  63: 0.00000,  62: 0.00000,  61: 0.00000,  60: 0.00000,  59: 0.00000,  58: 0.00000,  57: 0.00000,
                 56: 0.00000,  55: 0.00000,  54: 0.00000,  53: 0.00000,  52: 0.00000,  51: 0.00000,  50: 0.00000,  49: 0.00000,
                 48: 0.00000,  47: 0.00000,  46: 0.00000,  45: 0.00000,  44: 0.00000,  43: 0.00000,  42: 0.00000,  41: 0.00000,
                 40: 0.00000,  39: 0.00000,  38: 0.00000,  37: 0.00000,  36: 0.00000,  35: 0.00000,  34: 0.00000,  33: 0.00000,
                 32: 0.00000,  31: 0.00000,  30: 0.00000,  29: 0.00000,  28: 0.00000,  27: 0.00000,  26: 0.00000,  25: 0.00000,
                 24: 0.00000,  23: 0.00000,  22: 0.00000,  21: 0.00000,  20: 0.00000,  19: 0.00000,  18: 0.00000,  17: 0.00000,
                 16: 0.00000,  15: 0.00000,  14: 0.00000,  13: 0.00000,  12: 0.00000,  11: 0.00000,  10: 0.00000,   9: 0.00000,
                  8: 0.00000,   7: 0.00000,   6: 0.00000,   5: 0.00000,   4: 0.00000,   3: 0.00000,   2: 0.00000,   1: 0.00000
   103 |      |  80: 0.00000,  79: 0.00000,  78: 0.00000,  77: 0.00000,  76: 0.00000,  75: 0.00000,  74: 0.00000,  73: 0.00000,
                 72: 0.00000,  71: 0.00000,  70: 0.00000,  69: 0.00000,  68: 0.00000,  67: 0.00000,  66: 0.00000,  65: 0.00000,
                 64: 0.00000,  63: 0.00000,  62: 0.00000,  61: 0.00000,  60: 0.00000,  59: 0.00000,  58: 0.00000,  57: 0.00000,
                 56: 0.00000,  55: 0.00000,  54: 0.00000,  53: 0.00000,  52: 0.00000,  51: 0.00000,  50: 0.00000,  49: 0.00000,
                 48: 0.00000,  47: 0.00000,  46: 0.00000,  45: 0.00000,  44: 0.00000,  43: 0.00000,  42: 0.00000,  41: 0.00000,
                 40: 0.00000,  39: 0.00000,  38: 0.00000,  37: 0.00000,  36: 0.00000,  35: 0.00000,  34: 0.00000,  33: 0.00000,
                 32: 0.00000,  31: 0.00000,  30: 0.00000,  29: 0.00000,  28: 0.00000,  27: 0.00000,  26: 0.00000,  25: 0.00000,
                 24: 0.00000,  23: 0.00000,  22: 0.00000,  21: 0.00000,  20: 0.00000,  19: 0.00000,  18: 0.00000,  17: 0.00000,
                 16: 0.00000,  15: 0.00000,  14: 0.00000,  13: 0.00000,  12: 0.00000,  11: 0.00000,  10: 0.00000,   9: 0.00000,
                  8: 0.00000,   7: 0.00000,   6: 0.00000,   5: 0.00000,   4: 0.00000,   3: 0.00000,   2: 0.00000,   1: 0.00000
   104 |      |  80: 0.00000,  79: 0.00000,  78: 0.00000,  77: 0.00000,  76: 0.00000,  75: 0.00000,  74: 0.00000,  73: 0.00000,
                 72: 0.00000,  71: 0.00000,  70: 0.00000,  69: 0.00000,  68: 0.00000,  67: 0.00000,  66: 0.00000,  65: 0.00000,
                 64: 0.00000,  63: 0.00000,  62: 0.00000,  61: 0.00000,  60: 0.00000,  59: 0.00000,  58: 0.00000,  57: 0.00000,
                 56: 0.00000,  55: 0.00000,  54: 0.00000,  53: 0.00000,  52: 0.00000,  51: 0.00000,  50: 0.00000,  49: 0.00000,
                 48: 0.00000,  47: 0.00000,  46: 0.00000,  45: 0.00000,  44: 0.00000,  43: 0.00000,  42: 0.00000,  41: 0.00000,
                 40: 0.00000,  39: 0.00000,  38: 0.00000,  37: 0.00000,  36: 0.00000,  35: 0.00000,  34: 0.00000,  33: 0.00000,
                 32: 0.00000,  31: 0.00000,  30: 0.00000,  29: 0.00000,  28: 0.00000,  27: 0.00000,  26: 0.00000,  25: 0.00000,
                 24: 0.00000,  23: 0.00000,  22: 0.00000,  21: 0.00000,  20: 0.00000,  19: 0.00000,  18: 0.00000,  17: 0.00000,
                 16: 0.00000,  15: 0.00000,  14: 0.00000,  13: 0.00000,  12: 0.00000,  11: 0.00000,  10: 0.00000,   9: 0.00000,
                  8: 0.00000,   7: 0.00000,   6: 0.00000,   5: 0.00000,   4: 0.00000,   3: 0.00000,   2: 0.00000,   1: 0.00000
   105 |      |  80: 0.00000,  79: 0.00000,  78: 0.00000,  77: 0.00000,  76: 0.00000,  75: 0.00000,  74: 0.00000,  73: 0.00000,
                 72: 0.00000,  71: 0.00000,  70: 0.00000,  69: 0.00000,  68: 0.00000,  67: 0.00000,  66: 0.00000,  65: 0.00000,
                 64: 0.00000,  63: 0.00000,  62: 0.00000,  61: 0.00000,  60: 0.00000,  59: 0.00000,  58: 0.00000,  57: 0.00000,
                 56: 0.00000,  55: 0.00000,  54: 0.00000,  53: 0.00000,  52: 0.00000,  51: 0.00000,  50: 0.00000,  49: 0.00000,
                 48: 0.00000,  47: 0.00000,  46: 0.00000,  45: 0.00000,  44: 0.00000,  43: 0.00000,  42: 0.00000,  41: 0.00000,
                 40: 0.00000,  39: 0.00000,  38: 0.00000,  37: 0.00000,  36: 0.00000,  35: 0.00000,  34: 0.00000,  33: 0.00000,
                 32: 0.00000,  31: 0.00000,  30: 0.00000,  29: 0.00000,  28: 0.00000,  27: 0.00000,  26: 0.00000,  25: 0.00000,
                 24: 0.00000,  23: 0.00000,  22: 0.00000,  21: 0.00000,  20: 0.00000,  19: 0.00000,  18: 0.00000,  17: 0.00000,
                 16: 0.00000,  15: 0.00000,  14: 0.00000,  13: 0.00000,  12: 0.00000,  11: 0.00000,  10: 0.00000,   9: 0.00000,
                  8: 0.00000,   7: 0.00000,   6: 0.00000,   5: 0.00000,   4: 0.00000,   3: 0.00000,   2: 0.00000,   1: 0.00000
   106 |      |  80: 0.00000,  79: 0.00000,  78: 0.00000,  77: 0.00000,  76: 0.00000,  75: 0.00000,  74: 0.00000,  73: 0.00000,
                 72: 0.00000,  71: 0.00000,  70: 0.00000,  69: 0.00000,  68: 0.00000,  67: 0.00000,  66: 0.00000,  65: 0.00000,
                 64: 0.00000,  63: 0.00000,  62: 0.00000,  61: 0.00000,  60: 0.00000,  59: 0.00000,  58: 0.00000,  57: 0.00000,
                 56: 0.00000,  55: 0.00000,  54: 0.00000,  53: 0.00000,  52: 0.00000,  51: 0.00000,  50: 0.00000,  49: 0.00000,
                 48: 0.00000,  47: 0.00000,  46: 0.00000,  45: 0.00000,  44: 0.00000,  43: 0.00000,  42: 0.00000,  41: 0.00000,
                 40: 0.00000,  39: 0.00000,  38: 0.00000,  37: 0.00000,  36: 0.00000,  35: 0.00000,  34: 0.00000,  33: 0.00000,
                 32: 0.00000,  31: 0.00000,  30: 0.00000,  29: 0.00000,  28: 0.00000,  27: 0.00000,  26: 0.00000,  25: 0.00000,
                 24: 0.00000,  23: 0.00000,  22: 0.00000,  21: 0.00000,  20: 0.00000,  19: 0.00000,  18: 0.00000,  17: 0.00000,
                 16: 0.00000,  15: 0.00000,  14: 0.00000,  13: 0.00000,  12: 0.00000,  11: 0.00000,  10: 0.00000,   9: 0.00000,
                  8: 0.00000,   7: 0.00000,   6: 0.00000,   5: 0.00000,   4: 0.00000,   3: 0.00000,   2: 0.00000,   1: 0.00000
   107 |      |  80: 0.00000,  79: 0.00000,  78: 0.00000,  77: 0.00000,  76: 0.00000,  75: 0.00000,  74: 0.00000,  73: 0.00000,
                 72: 0.00000,  71: 0.00000,  70: 0.00000,  69: 0.00000,  68: 0.00000,  67: 0.00000,  66: 0.00000,  65: 0.00000,
                 64: 0.00000,  63: 0.00000,  62: 0.00000,  61: 0.00000,  60: 0.00000,  59: 0.00000,  58: 0.00000,  57: 0.00000,
                 56: 0.00000,  55: 0.00000,  54: 0.00000,  53: 0.00000,  52: 0.00000,  51: 0.00000,  50: 0.00000,  49: 0.00000,
                 48: 0.00000,  47: 0.00000,  46: 0.00000,  45: 0.00000,  44: 0.00000,  43: 0.00000,  42: 0.00000,  41: 0.00000,
                 40: 0.00000,  39: 0.00000,  38: 0.00000,  37: 0.00000,  36: 0.00000,  35: 0.00000,  34: 0.00000,  33: 0.00000,
                 32: 0.00000,  31: 0.00000,  30: 0.00000,  29: 0.00000,  28: 0.00000,  27: 0.00000,  26: 0.00000,  25: 0.00000,
                 24: 0.00000,  23: 0.00000,  22: 0.00000,  21: 0.00000,  20: 0.00000,  19: 0.00000,  18: 0.00000,  17: 0.00000,
                 16: 0.00000,  15: 0.00000,  14: 0.00000,  13: 0.00000,  12: 0.00000,  11: 0.00000,  10: 0.00000,   9: 0.00000,
                  8: 0.00000,   7: 0.00000,   6: 0.00000,   5: 0.00000,   4: 0.00000,   3: 0.00000,   2: 0.00000,   1: 0.00000
   108 |      |  80: 0.00000,  79: 0.00000,  78: 0.00000,  77: 0.00000,  76: 0.00000,  75: 0.00000,  74: 0.00000,  73: 0.00000,
                 72: 0.00000,  71: 0.00000,  70: 0.00000,  69: 0.00000,  68: 0.00000,  67: 0.00000,  66: 0.00000,  65: 0.00000,
                 64: 0.00000,  63: 0.00000,  62: 0.00000,  61: 0.00000,  60: 0.00000,  59: 0.00000,  58: 0.00000,  57: 0.00000,
                 56: 0.00000,  55: 0.00000,  54: 0.00000,  53: 0.00000,  52: 0.00000,  51: 0.00000,  50: 0.00000,  49: 0.00000,
                 48: 0.00000,  47: 0.00000,  46: 0.00000,  45: 0.00000,  44: 0.00000,  43: 0.00000,  42: 0.00000,  41: 0.00000,
                 40: 0.00000,  39: 0.00000,  38: 0.00000,  37: 0.00000,  36: 0.00000,  35: 0.00000,  34: 0.00000,  33: 0.00000,
                 32: 0.00000,  31: 0.00000,  30: 0.00000,  29: 0.00000,  28: 0.00000,  27: 0.00000,  26: 0.00000,  25: 0.00000,
                 24: 0.00000,  23: 0.00000,  22: 0.00000,  21: 0.00000,  20: 0.00000,  19: 0.00000,  18: 0.00000,  17: 0.00000,
                 16: 0.00000,  15: 0.00000,  14: 0.00000,  13: 0.00000,  12: 0.00000,  11: 0.00000,  10: 0.00000,   9: 0.00000,
                  8: 0.00000,   7: 0.00000,   6: 0.00000,   5: 0.00000,   4: 0.00000,   3: 0.00000,   2: 0.00000,   1: 0.00000
   109 |      |  80: 0.00000,  79: 0.00000,  78: 0.00000,  77: 0.00000,  76: 0.00000,  75: 0.00000,  74: 0.00000,  73: 0.00000,
                 72: 0.00000,  71: 0.00000,  70: 0.00000,  69: 0.00000,  68: 0.00000,  67: 0.00000,  66: 0.00000,  65: 0.00000,
                 64: 0.00000,  63: 0.00000,  62: 0.00000,  61: 0.00000,  60: 0.00000,  59: 0.00000,  58: 0.00000,  57: 0.00000,
                 56: 0.00000,  55: 0.00000,  54: 0.00000,  53: 0.00000,  52: 0.00000,  51: 0.00000,  50: 0.00000,  49: 0.00000,
                 48: 0.00000,  47: 0.00000,  46: 0.00000,  45: 0.00000,  44: 0.00000,  43: 0.00000,  42: 0.00000,  41: 0.00000,
                 40: 0.00000,  39: 0.00000,  38: 0.00000,  37: 0.00000,  36: 0.00000,  35: 0.00000,  34: 0.00000,  33: 0.00000,
                 32: 0.00000,  31: 0.00000,  30: 0.00000,  29: 0.00000,  28: 0.00000,  27: 0.00000,  26: 0.00000,  25: 0.00000,
                 24: 0.00000,  23: 0.00000,  22: 0.00000,  21: 0.00000,  20: 0.00000,  19: 0.00000,  18: 0.00000,  17: 0.00000,
                 16: 0.00000,  15: 0.00000,  14: 0.00000,  13: 0.00000,  12: 0.00000,  11: 0.00000,  10: 0.00000,   9: 0.00000,
                  8: 0.00000,   7: 0.00000,   6: 0.00000,   5: 0.00000,   4: 0.00000,   3: 0.00000,   2: 0.00000,   1: 0.00000
   110 |      |  80: 0.00000,  79: 0.00000,  78: 0.00000,  77: 0.00000,  76: 0.00000,  75: 0.00000,  74: 0.00000,  73: 0.00000,
                 72: 0.00000,  71: 0.00000,  70: 0.00000,  69: 0.00000,  68: 0.00000,  67: 0.00000,  66: 0.00000,  65: 0.00000,
                 64: 0.00000,  63: 0.00000,  62: 0.00000,  61: 0.00000,  60: 0.00000,  59: 0.00000,  58: 0.00000,  57: 0.00000,
                 56: 0.00000,  55: 0.00000,  54: 0.00000,  53: 0.00000,  52: 0.00000,  51: 0.00000,  50: 0.00000,  49: 0.00000,
                 48: 0.00000,  47: 0.00000,  46: 0.00000,  45: 0.00000,  44: 0.00000,  43: 0.00000,  42: 0.00000,  41: 0.00000,
                 40: 0.00000,  39: 0.00000,  38: 0.00000,  37: 0.00000,  36: 0.00000,  35: 0.00000,  34: 0.00000,  33: 0.00000,
                 32: 0.00000,  31: 0.00000,  30: 0.00000,  29: 0.00000,  28: 0.00000,  27: 0.00000,  26: 0.00000,  25: 0.00000,
                 24: 0.00000,  23: 0.00000,  22: 0.00000,  21: 0.00000,  20: 0.00000,  19: 0.00000,  18: 0.00000,  17: 0.00000,
                 16: 0.00000,  15: 0.00000,  14: 0.00000,  13: 0.00000,  12: 0.00000,  11: 0.00000,  10: 0.00000,   9: 0.00000,
                  8: 0.00000,   7: 0.00000,   6: 0.00000,   5: 0.00000,   4: 0.00000,   3: 0.00000,   2: 0.00000,   1: 0.00000
   111 |      | 110: 0.00000, 109: 0.00000, 108: 0.00000, 107: 0.00000, 106: 0.00000, 105: 0.00000, 104: 0.00000, 103: 0.00000,
                102: 0.00000, 101: 0.00000, 100: 0.00000,  99: 0.00000,  98: 0.00000,  97: 0.00000,  96: 0.00000,  95: 0.00000,
                 94: 0.00000,  93: 0.00000,  92: 0.00000,  91: 0.00000,  90: 0.00000,  89: 0.00000,  88: 0.00000,  87: 0.00000,
                 86: 0.00000,  85: 0.00000,  84: 0.00000,  83: 0.00000,  82: 0.00000,  81: 0.00000
-------|------|----------------------------------------------------------------------------------------------------------------
