SNNS network definition file V1.4-3D
generated at Tue Mar 21 15:57:07 2006

network name : sample
source files :
no. of units : 81
no. of connections : 710
no. of unit types : 0
no. of site types : 0


learning function : Std_Backpropagation
update function   : Topological_Order


unit default section :

act      | bias     | st | subnet | layer | act func     | out func
---------|----------|----|--------|-------|--------------|-------------
 0.00000 |  0.00000 | h  |      0 |     1 | Act_Logistic | Out_Identity 
---------|----------|----|--------|-------|--------------|-------------


unit definition section :

no. | typeName | unitName | act      | bias     | st | position | act func | out func | sites
----|----------|----------|----------|----------|----|----------|----------|----------|-------
  1 |          |          |  0.00000 |  0.00000 | i  |  2, 2,-5592 |||
  2 |          |          |  0.00000 |  0.00000 | i  |  3, 2,-5592 |||
  3 |          |          |  0.00000 |  0.00000 | i  |  4, 2,-5592 |||
  4 |          |          |  0.00000 |  0.00000 | i  |  5, 2,-5592 |||
  5 |          |          |  0.00000 |  0.00000 | i  |  6, 2,-5592 |||
  6 |          |          |  0.00000 |  0.00000 | i  |  7, 2,-5592 |||
  7 |          |          |  0.00000 |  0.00000 | i  |  8, 2,-5592 |||
  8 |          |          |  0.00000 |  0.00000 | i  |  2, 3,-5592 |||
  9 |          |          |  0.00000 |  0.00000 | i  |  3, 3,-5592 |||
 10 |          |          |  0.00000 |  0.00000 | i  |  4, 3,-5592 |||
 11 |          |          |  0.00000 |  0.00000 | i  |  5, 3,-5592 |||
 12 |          |          |  0.00000 |  0.00000 | i  |  6, 3,-5592 |||
 13 |          |          |  0.00000 |  0.00000 | i  |  7, 3,-5592 |||
 14 |          |          |  0.00000 |  0.00000 | i  |  8, 3,-5592 |||
 15 |          |          |  0.00000 |  0.00000 | i  |  2, 4,-5592 |||
 16 |          |          |  0.00000 |  0.00000 | i  |  3, 4,-5592 |||
 17 |          |          |  0.00000 |  0.00000 | i  |  4, 4,-5592 |||
 18 |          |          |  0.00000 |  0.00000 | i  |  5, 4,-5592 |||
 19 |          |          |  0.00000 |  0.00000 | i  |  6, 4,-5592 |||
 20 |          |          |  0.00000 |  0.00000 | i  |  7, 4,-5592 |||
 21 |          |          |  0.00000 |  0.00000 | i  |  8, 4,-5592 |||
 22 |          |          |  0.00000 |  0.00000 | i  |  2, 5,-5592 |||
 23 |          |          |  0.00000 |  0.00000 | i  |  3, 5,-5592 |||
 24 |          |          |  0.00000 |  0.00000 | i  |  4, 5,-5592 |||
 25 |          |          |  0.00000 |  0.00000 | i  |  5, 5,-5592 |||
 26 |          |          |  0.00000 |  0.00000 | i  |  6, 5,-5592 |||
 27 |          |          |  0.00000 |  0.00000 | i  |  7, 5,-5592 |||
 28 |          |          |  0.00000 |  0.00000 | i  |  8, 5,-5592 |||
 29 |          |          |  0.00000 |  0.00000 | i  |  2, 6,-5592 |||
 30 |          |          |  0.00000 |  0.00000 | i  |  3, 6,-5592 |||
 31 |          |          |  0.00000 |  0.00000 | i  |  4, 6,-5592 |||
 32 |          |          |  0.00000 |  0.00000 | i  |  5, 6,-5592 |||
 33 |          |          |  0.00000 |  0.00000 | i  |  6, 6,-5592 |||
 34 |          |          |  0.00000 |  0.00000 | i  |  7, 6,-5592 |||
 35 |          |          |  0.00000 |  0.00000 | i  |  8, 6,-5592 |||
 36 |          |          |  0.00000 |  0.00000 | i  |  2, 7,-5592 |||
 37 |          |          |  0.00000 |  0.00000 | i  |  3, 7,-5592 |||
 38 |          |          |  0.00000 |  0.00000 | i  |  4, 7,-5592 |||
 39 |          |          |  0.00000 |  0.00000 | i  |  5, 7,-5592 |||
 40 |          |          |  0.00000 |  0.00000 | i  |  6, 7,-5592 |||
 41 |          |          |  0.00000 |  0.00000 | i  |  7, 7,-5592 |||
 42 |          |          |  0.00000 |  0.00000 | i  |  8, 7,-5592 |||
 43 |          |          |  0.00000 |  0.00000 | i  |  2, 8,-5592 |||
 44 |          |          |  0.00000 |  0.00000 | i  |  3, 8,-5592 |||
 45 |          |          |  0.00000 |  0.00000 | i  |  4, 8,-5592 |||
 46 |          |          |  0.00000 |  0.00000 | i  |  5, 8,-5592 |||
 47 |          |          |  0.00000 |  0.00000 | i  |  6, 8,-5592 |||
 48 |          |          |  0.00000 |  0.00000 | i  |  7, 8,-5592 |||
 49 |          |          |  0.00000 |  0.00000 | i  |  8, 8,-5592 |||
 50 |          |          |  0.00000 |  0.00000 | i  |  2, 9,-5592 |||
 51 |          |          |  0.00000 |  0.00000 | i  |  3, 9,-5592 |||
 52 |          |          |  0.00000 |  0.00000 | i  |  4, 9,-5592 |||
 53 |          |          |  0.00000 |  0.00000 | i  |  5, 9,-5592 |||
 54 |          |          |  0.00000 |  0.00000 | i  |  6, 9,-5592 |||
 55 |          |          |  0.00000 |  0.00000 | i  |  7, 9,-5592 |||
 56 |          |          |  0.00000 |  0.00000 | i  |  8, 9,-5592 |||
 57 |          |          |  0.00000 |  0.00000 | i  |  2,10,-5592 |||
 58 |          |          |  0.00000 |  0.00000 | i  |  3,10,-5592 |||
 59 |          |          |  0.00000 |  0.00000 | i  |  4,10,-5592 |||
 60 |          |          |  0.00000 |  0.00000 | i  |  5,10,-5592 |||
 61 |          |          |  0.00000 |  0.00000 | i  |  6,10,-5592 |||
 62 |          |          |  0.00000 |  0.00000 | i  |  7,10,-5592 |||
 63 |          |          |  0.00000 |  0.00000 | i  |  8,10,-5592 |||
 64 |          |          |  0.00000 |  0.00000 | i  |  2,11,-5592 |||
 65 |          |          |  0.00000 |  0.00000 | i  |  3,11,-5592 |||
 66 |          |          |  0.00000 |  0.00000 | i  |  4,11,-5592 |||
 67 |          |          |  0.00000 |  0.00000 | i  |  5,11,-5592 |||
 68 |          |          |  0.00000 |  0.00000 | i  |  6,11,-5592 |||
 69 |          |          |  0.00000 |  0.00000 | i  |  7,11,-5592 |||
 70 |          |          |  0.00000 |  0.00000 | i  |  8,11,-5592 |||
 71 |          |          |  0.00000 |  0.00000 | h  | 11, 2,-5592 |||
 72 |          |          |  0.00000 |  0.00000 | h  | 11, 3,-5592 |||
 73 |          |          |  0.00000 |  0.00000 | h  | 11, 4,-5592 |||
 74 |          |          |  0.00000 |  0.00000 | h  | 11, 5,-5592 |||
 75 |          |          |  0.00000 |  0.00000 | h  | 11, 6,-5592 |||
 76 |          |          |  0.00000 |  0.00000 | h  | 11, 7,-5592 |||
 77 |          |          |  0.00000 |  0.00000 | h  | 11, 8,-5592 |||
 78 |          |          |  0.00000 |  0.00000 | h  | 11, 9,-5592 |||
 79 |          |          |  0.00000 |  0.00000 | h  | 11,10,-5592 |||
 80 |          |          |  0.00000 |  0.00000 | h  | 11,11,-5592 |||
 81 |          |          |  0.00000 |  0.00000 | o  | 14, 2,-5592 |||
----|----------|----------|----------|----------|----|----------|----------|----------|-------


connection definition section :

target | site | source:weight
-------|------|---------------------------------------------------------------------------------------------------------------------
    71 |      | 70: 0.00000, 69: 0.00000, 68: 0.00000, 67: 0.00000, 66: 0.00000, 65: 0.00000, 64: 0.00000, 63: 0.00000, 62: 0.00000,
                61: 0.00000, 60: 0.00000, 59: 0.00000, 58: 0.00000, 57: 0.00000, 56: 0.00000, 55: 0.00000, 54: 0.00000, 53: 0.00000,
                52: 0.00000, 51: 0.00000, 50: 0.00000, 49: 0.00000, 48: 0.00000, 47: 0.00000, 46: 0.00000, 45: 0.00000, 44: 0.00000,
                43: 0.00000, 42: 0.00000, 41: 0.00000, 40: 0.00000, 39: 0.00000, 38: 0.00000, 37: 0.00000, 36: 0.00000, 35: 0.00000,
                34: 0.00000, 33: 0.00000, 32: 0.00000, 31: 0.00000, 30: 0.00000, 29: 0.00000, 28: 0.00000, 27: 0.00000, 26: 0.00000,
                25: 0.00000, 24: 0.00000, 23: 0.00000, 22: 0.00000, 21: 0.00000, 20: 0.00000, 19: 0.00000, 18: 0.00000, 17: 0.00000,
                16: 0.00000, 15: 0.00000, 14: 0.00000, 13: 0.00000, 12: 0.00000, 11: 0.00000, 10: 0.00000,  9: 0.00000,  8: 0.00000,
                 7: 0.00000,  6: 0.00000,  5: 0.00000,  4: 0.00000,  3: 0.00000,  2: 0.00000,  1: 0.00000
    72 |      | 70: 0.00000, 69: 0.00000, 68: 0.00000, 67: 0.00000, 66: 0.00000, 65: 0.00000, 64: 0.00000, 63: 0.00000, 62: 0.00000,
                61: 0.00000, 60: 0.00000, 59: 0.00000, 58: 0.00000, 57: 0.00000, 56: 0.00000, 55: 0.00000, 54: 0.00000, 53: 0.00000,
                52: 0.00000, 51: 0.00000, 50: 0.00000, 49: 0.00000, 48: 0.00000, 47: 0.00000, 46: 0.00000, 45: 0.00000, 44: 0.00000,
                43: 0.00000, 42: 0.00000, 41: 0.00000, 40: 0.00000, 39: 0.00000, 38: 0.00000, 37: 0.00000, 36: 0.00000, 35: 0.00000,
                34: 0.00000, 33: 0.00000, 32: 0.00000, 31: 0.00000, 30: 0.00000, 29: 0.00000, 28: 0.00000, 27: 0.00000, 26: 0.00000,
                25: 0.00000, 24: 0.00000, 23: 0.00000, 22: 0.00000, 21: 0.00000, 20: 0.00000, 19: 0.00000, 18: 0.00000, 17: 0.00000,
                16: 0.00000, 15: 0.00000, 14: 0.00000, 13: 0.00000, 12: 0.00000, 11: 0.00000, 10: 0.00000,  9: 0.00000,  8: 0.00000,
                 7: 0.00000,  6: 0.00000,  5: 0.00000,  4: 0.00000,  3: 0.00000,  2: 0.00000,  1: 0.00000
    73 |      | 70: 0.00000, 69: 0.00000, 68: 0.00000, 67: 0.00000, 66: 0.00000, 65: 0.00000, 64: 0.00000, 63: 0.00000, 62: 0.00000,
                61: 0.00000, 60: 0.00000, 59: 0.00000, 58: 0.00000, 57: 0.00000, 56: 0.00000, 55: 0.00000, 54: 0.00000, 53: 0.00000,
                52: 0.00000, 51: 0.00000, 50: 0.00000, 49: 0.00000, 48: 0.00000, 47: 0.00000, 46: 0.00000, 45: 0.00000, 44: 0.00000,
                43: 0.00000, 42: 0.00000, 41: 0.00000, 40: 0.00000, 39: 0.00000, 38: 0.00000, 37: 0.00000, 36: 0.00000, 35: 0.00000,
                34: 0.00000, 33: 0.00000, 32: 0.00000, 31: 0.00000, 30: 0.00000, 29: 0.00000, 28: 0.00000, 27: 0.00000, 26: 0.00000,
                25: 0.00000, 24: 0.00000, 23: 0.00000, 22: 0.00000, 21: 0.00000, 20: 0.00000, 19: 0.00000, 18: 0.00000, 17: 0.00000,
                16: 0.00000, 15: 0.00000, 14: 0.00000, 13: 0.00000, 12: 0.00000, 11: 0.00000, 10: 0.00000,  9: 0.00000,  8: 0.00000,
                 7: 0.00000,  6: 0.00000,  5: 0.00000,  4: 0.00000,  3: 0.00000,  2: 0.00000,  1: 0.00000
    74 |      | 70: 0.00000, 69: 0.00000, 68: 0.00000, 67: 0.00000, 66: 0.00000, 65: 0.00000, 64: 0.00000, 63: 0.00000, 62: 0.00000,
                61: 0.00000, 60: 0.00000, 59: 0.00000, 58: 0.00000, 57: 0.00000, 56: 0.00000, 55: 0.00000, 54: 0.00000, 53: 0.00000,
                52: 0.00000, 51: 0.00000, 50: 0.00000, 49: 0.00000, 48: 0.00000, 47: 0.00000, 46: 0.00000, 45: 0.00000, 44: 0.00000,
                43: 0.00000, 42: 0.00000, 41: 0.00000, 40: 0.00000, 39: 0.00000, 38: 0.00000, 37: 0.00000, 36: 0.00000, 35: 0.00000,
                34: 0.00000, 33: 0.00000, 32: 0.00000, 31: 0.00000, 30: 0.00000, 29: 0.00000, 28: 0.00000, 27: 0.00000, 26: 0.00000,
                25: 0.00000, 24: 0.00000, 23: 0.00000, 22: 0.00000, 21: 0.00000, 20: 0.00000, 19: 0.00000, 18: 0.00000, 17: 0.00000,
                16: 0.00000, 15: 0.00000, 14: 0.00000, 13: 0.00000, 12: 0.00000, 11: 0.00000, 10: 0.00000,  9: 0.00000,  8: 0.00000,
                 7: 0.00000,  6: 0.00000,  5: 0.00000,  4: 0.00000,  3: 0.00000,  2: 0.00000,  1: 0.00000
    75 |      | 70: 0.00000, 69: 0.00000, 68: 0.00000, 67: 0.00000, 66: 0.00000, 65: 0.00000, 64: 0.00000, 63: 0.00000, 62: 0.00000,
                61: 0.00000, 60: 0.00000, 59: 0.00000, 58: 0.00000, 57: 0.00000, 56: 0.00000, 55: 0.00000, 54: 0.00000, 53: 0.00000,
                52: 0.00000, 51: 0.00000, 50: 0.00000, 49: 0.00000, 48: 0.00000, 47: 0.00000, 46: 0.00000, 45: 0.00000, 44: 0.00000,
                43: 0.00000, 42: 0.00000, 41: 0.00000, 40: 0.00000, 39: 0.00000, 38: 0.00000, 37: 0.00000, 36: 0.00000, 35: 0.00000,
                34: 0.00000, 33: 0.00000, 32: 0.00000, 31: 0.00000, 30: 0.00000, 29: 0.00000, 28: 0.00000, 27: 0.00000, 26: 0.00000,
                25: 0.00000, 24: 0.00000, 23: 0.00000, 22: 0.00000, 21: 0.00000, 20: 0.00000, 19: 0.00000, 18: 0.00000, 17: 0.00000,
                16: 0.00000, 15: 0.00000, 14: 0.00000, 13: 0.00000, 12: 0.00000, 11: 0.00000, 10: 0.00000,  9: 0.00000,  8: 0.00000,
                 7: 0.00000,  6: 0.00000,  5: 0.00000,  4: 0.00000,  3: 0.00000,  2: 0.00000,  1: 0.00000
    76 |      | 70: 0.00000, 69: 0.00000, 68: 0.00000, 67: 0.00000, 66: 0.00000, 65: 0.00000, 64: 0.00000, 63: 0.00000, 62: 0.00000,
                61: 0.00000, 60: 0.00000, 59: 0.00000, 58: 0.00000, 57: 0.00000, 56: 0.00000, 55: 0.00000, 54: 0.00000, 53: 0.00000,
                52: 0.00000, 51: 0.00000, 50: 0.00000, 49: 0.00000, 48: 0.00000, 47: 0.00000, 46: 0.00000, 45: 0.00000, 44: 0.00000,
                43: 0.00000, 42: 0.00000, 41: 0.00000, 40: 0.00000, 39: 0.00000, 38: 0.00000, 37: 0.00000, 36: 0.00000, 35: 0.00000,
                34: 0.00000, 33: 0.00000, 32: 0.00000, 31: 0.00000, 30: 0.00000, 29: 0.00000, 28: 0.00000, 27: 0.00000, 26: 0.00000,
                25: 0.00000, 24: 0.00000, 23: 0.00000, 22: 0.00000, 21: 0.00000, 20: 0.00000, 19: 0.00000, 18: 0.00000, 17: 0.00000,
                16: 0.00000, 15: 0.00000, 14: 0.00000, 13: 0.00000, 12: 0.00000, 11: 0.00000, 10: 0.00000,  9: 0.00000,  8: 0.00000,
                 7: 0.00000,  6: 0.00000,  5: 0.00000,  4: 0.00000,  3: 0.00000,  2: 0.00000,  1: 0.00000
    77 |      | 70: 0.00000, 69: 0.00000, 68: 0.00000, 67: 0.00000, 66: 0.00000, 65: 0.00000, 64: 0.00000, 63: 0.00000, 62: 0.00000,
                61: 0.00000, 60: 0.00000, 59: 0.00000, 58: 0.00000, 57: 0.00000, 56: 0.00000, 55: 0.00000, 54: 0.00000, 53: 0.00000,
                52: 0.00000, 51: 0.00000, 50: 0.00000, 49: 0.00000, 48: 0.00000, 47: 0.00000, 46: 0.00000, 45: 0.00000, 44: 0.00000,
                43: 0.00000, 42: 0.00000, 41: 0.00000, 40: 0.00000, 39: 0.00000, 38: 0.00000, 37: 0.00000, 36: 0.00000, 35: 0.00000,
                34: 0.00000, 33: 0.00000, 32: 0.00000, 31: 0.00000, 30: 0.00000, 29: 0.00000, 28: 0.00000, 27: 0.00000, 26: 0.00000,
                25: 0.00000, 24: 0.00000, 23: 0.00000, 22: 0.00000, 21: 0.00000, 20: 0.00000, 19: 0.00000, 18: 0.00000, 17: 0.00000,
                16: 0.00000, 15: 0.00000, 14: 0.00000, 13: 0.00000, 12: 0.00000, 11: 0.00000, 10: 0.00000,  9: 0.00000,  8: 0.00000,
                 7: 0.00000,  6: 0.00000,  5: 0.00000,  4: 0.00000,  3: 0.00000,  2: 0.00000,  1: 0.00000
    78 |      | 70: 0.00000, 69: 0.00000, 68: 0.00000, 67: 0.00000, 66: 0.00000, 65: 0.00000, 64: 0.00000, 63: 0.00000, 62: 0.00000,
                61: 0.00000, 60: 0.00000, 59: 0.00000, 58: 0.00000, 57: 0.00000, 56: 0.00000, 55: 0.00000, 54: 0.00000, 53: 0.00000,
                52: 0.00000, 51: 0.00000, 50: 0.00000, 49: 0.00000, 48: 0.00000, 47: 0.00000, 46: 0.00000, 45: 0.00000, 44: 0.00000,
                43: 0.00000, 42: 0.00000, 41: 0.00000, 40: 0.00000, 39: 0.00000, 38: 0.00000, 37: 0.00000, 36: 0.00000, 35: 0.00000,
                34: 0.00000, 33: 0.00000, 32: 0.00000, 31: 0.00000, 30: 0.00000, 29: 0.00000, 28: 0.00000, 27: 0.00000, 26: 0.00000,
                25: 0.00000, 24: 0.00000, 23: 0.00000, 22: 0.00000, 21: 0.00000, 20: 0.00000, 19: 0.00000, 18: 0.00000, 17: 0.00000,
                16: 0.00000, 15: 0.00000, 14: 0.00000, 13: 0.00000, 12: 0.00000, 11: 0.00000, 10: 0.00000,  9: 0.00000,  8: 0.00000,
                 7: 0.00000,  6: 0.00000,  5: 0.00000,  4: 0.00000,  3: 0.00000,  2: 0.00000,  1: 0.00000
    79 |      | 70: 0.00000, 69: 0.00000, 68: 0.00000, 67: 0.00000, 66: 0.00000, 65: 0.00000, 64: 0.00000, 63: 0.00000, 62: 0.00000,
                61: 0.00000, 60: 0.00000, 59: 0.00000, 58: 0.00000, 57: 0.00000, 56: 0.00000, 55: 0.00000, 54: 0.00000, 53: 0.00000,
                52: 0.00000, 51: 0.00000, 50: 0.00000, 49: 0.00000, 48: 0.00000, 47: 0.00000, 46: 0.00000, 45: 0.00000, 44: 0.00000,
                43: 0.00000, 42: 0.00000, 41: 0.00000, 40: 0.00000, 39: 0.00000, 38: 0.00000, 37: 0.00000, 36: 0.00000, 35: 0.00000,
                34: 0.00000, 33: 0.00000, 32: 0.00000, 31: 0.00000, 30: 0.00000, 29: 0.00000, 28: 0.00000, 27: 0.00000, 26: 0.00000,
                25: 0.00000, 24: 0.00000, 23: 0.00000, 22: 0.00000, 21: 0.00000, 20: 0.00000, 19: 0.00000, 18: 0.00000, 17: 0.00000,
                16: 0.00000, 15: 0.00000, 14: 0.00000, 13: 0.00000, 12: 0.00000, 11: 0.00000, 10: 0.00000,  9: 0.00000,  8: 0.00000,
                 7: 0.00000,  6: 0.00000,  5: 0.00000,  4: 0.00000,  3: 0.00000,  2: 0.00000,  1: 0.00000
    80 |      | 70: 0.00000, 69: 0.00000, 68: 0.00000, 67: 0.00000, 66: 0.00000, 65: 0.00000, 64: 0.00000, 63: 0.00000, 62: 0.00000,
                61: 0.00000, 60: 0.00000, 59: 0.00000, 58: 0.00000, 57: 0.00000, 56: 0.00000, 55: 0.00000, 54: 0.00000, 53: 0.00000,
                52: 0.00000, 51: 0.00000, 50: 0.00000, 49: 0.00000, 48: 0.00000, 47: 0.00000, 46: 0.00000, 45: 0.00000, 44: 0.00000,
                43: 0.00000, 42: 0.00000, 41: 0.00000, 40: 0.00000, 39: 0.00000, 38: 0.00000, 37: 0.00000, 36: 0.00000, 35: 0.00000,
                34: 0.00000, 33: 0.00000, 32: 0.00000, 31: 0.00000, 30: 0.00000, 29: 0.00000, 28: 0.00000, 27: 0.00000, 26: 0.00000,
                25: 0.00000, 24: 0.00000, 23: 0.00000, 22: 0.00000, 21: 0.00000, 20: 0.00000, 19: 0.00000, 18: 0.00000, 17: 0.00000,
                16: 0.00000, 15: 0.00000, 14: 0.00000, 13: 0.00000, 12: 0.00000, 11: 0.00000, 10: 0.00000,  9: 0.00000,  8: 0.00000,
                 7: 0.00000,  6: 0.00000,  5: 0.00000,  4: 0.00000,  3: 0.00000,  2: 0.00000,  1: 0.00000
    81 |      | 80: 0.00000, 79: 0.00000, 78: 0.00000, 77: 0.00000, 76: 0.00000, 75: 0.00000, 74: 0.00000, 73: 0.00000, 72: 0.00000,
                71: 0.00000
-------|------|---------------------------------------------------------------------------------------------------------------------
