SNNS network definition file V1.4-3D
generated at Fri Mar 17 20:26:58 2006

network name : 1i_10h
source files :
no. of units : 15
no. of connections : 50
no. of unit types : 0
no. of site types : 0


learning function : Std_Backpropagation
update function   : Topological_Order


unit default section :

act      | bias     | st | subnet | layer | act func     | out func
---------|----------|----|--------|-------|--------------|-------------
 0.00000 |  0.00000 | h  |      0 |     1 | Act_Logistic | Out_Identity 
---------|----------|----|--------|-------|--------------|-------------


unit definition section :

no. | typeName | unitName | act      | bias     | st | position | act func | out func | sites
----|----------|----------|----------|----------|----|----------|----------|----------|-------
  1 |          |          |  0.00000 |  0.00000 | i  |  2, 2,-5592 |||
  2 |          |          |  0.00000 |  0.00000 | i  |  3, 2,-5592 |||
  3 |          |          |  0.00000 |  0.00000 | i  |  4, 2,-5592 |||
  4 |          |          |  0.00000 |  0.00000 | i  |  5, 2,-5592 |||
  5 |          |          |  0.00000 |  0.00000 | h  |  8, 2,-5592 |||
  6 |          |          |  0.00000 |  0.00000 | h  |  8, 3,-5592 |||
  7 |          |          |  0.00000 |  0.00000 | h  |  8, 4,-5592 |||
  8 |          |          |  0.00000 |  0.00000 | h  |  8, 5,-5592 |||
  9 |          |          |  0.00000 |  0.00000 | h  |  8, 6,-5592 |||
 10 |          |          |  0.00000 |  0.00000 | h  |  8, 7,-5592 |||
 11 |          |          |  0.00000 |  0.00000 | h  |  8, 8,-5592 |||
 12 |          |          |  0.00000 |  0.00000 | h  |  8, 9,-5592 |||
 13 |          |          |  0.00000 |  0.00000 | h  |  8,10,-5592 |||
 14 |          |          |  0.00000 |  0.00000 | h  |  8,11,-5592 |||
 15 |          |          |  0.00000 |  0.00000 | o  | 11, 2,-5592 |||
----|----------|----------|----------|----------|----|----------|----------|----------|-------


connection definition section :

target | site | source:weight
-------|------|---------------------------------------------------------------------------------------------------------------------
     5 |      |  4: 0.00000,  3: 0.00000,  2: 0.00000,  1: 0.00000
     6 |      |  4: 0.00000,  3: 0.00000,  2: 0.00000,  1: 0.00000
     7 |      |  4: 0.00000,  3: 0.00000,  2: 0.00000,  1: 0.00000
     8 |      |  4: 0.00000,  3: 0.00000,  2: 0.00000,  1: 0.00000
     9 |      |  4: 0.00000,  3: 0.00000,  2: 0.00000,  1: 0.00000
    10 |      |  4: 0.00000,  3: 0.00000,  2: 0.00000,  1: 0.00000
    11 |      |  4: 0.00000,  3: 0.00000,  2: 0.00000,  1: 0.00000
    12 |      |  4: 0.00000,  3: 0.00000,  2: 0.00000,  1: 0.00000
    13 |      |  4: 0.00000,  3: 0.00000,  2: 0.00000,  1: 0.00000
    14 |      |  4: 0.00000,  3: 0.00000,  2: 0.00000,  1: 0.00000
    15 |      | 14: 0.00000, 13: 0.00000, 12: 0.00000, 11: 0.00000, 10: 0.00000,  9: 0.00000,  8: 0.00000,  7: 0.00000,  6: 0.00000,
                 5: 0.00000
-------|------|---------------------------------------------------------------------------------------------------------------------
