SNNS network definition file V1.4-3D
generated at Fri Mar 17 20:33:35 2006

network name : 1i_30h
source files :
no. of units : 35
no. of connections : 150
no. of unit types : 0
no. of site types : 0


learning function : Std_Backpropagation
update function   : Topological_Order


unit default section :

act      | bias     | st | subnet | layer | act func     | out func
---------|----------|----|--------|-------|--------------|-------------
 0.00000 |  0.00000 | h  |      0 |     1 | Act_Logistic | Out_Identity 
---------|----------|----|--------|-------|--------------|-------------


unit definition section :

no. | typeName | unitName | act      | bias     | st | position | act func | out func | sites
----|----------|----------|----------|----------|----|----------|----------|----------|-------
  1 |          |          |  0.00000 |  0.00000 | i  |  2, 2,-5592 |||
  2 |          |          |  0.00000 |  0.00000 | i  |  3, 2,-5592 |||
  3 |          |          |  0.00000 |  0.00000 | i  |  4, 2,-5592 |||
  4 |          |          |  0.00000 |  0.00000 | i  |  5, 2,-5592 |||
  5 |          |          |  0.00000 |  0.00000 | h  |  8, 2,-5592 |||
  6 |          |          |  0.00000 |  0.00000 | h  |  8, 3,-5592 |||
  7 |          |          |  0.00000 |  0.00000 | h  |  8, 4,-5592 |||
  8 |          |          |  0.00000 |  0.00000 | h  |  8, 5,-5592 |||
  9 |          |          |  0.00000 |  0.00000 | h  |  8, 6,-5592 |||
 10 |          |          |  0.00000 |  0.00000 | h  |  8, 7,-5592 |||
 11 |          |          |  0.00000 |  0.00000 | h  |  8, 8,-5592 |||
 12 |          |          |  0.00000 |  0.00000 | h  |  8, 9,-5592 |||
 13 |          |          |  0.00000 |  0.00000 | h  |  8,10,-5592 |||
 14 |          |          |  0.00000 |  0.00000 | h  |  8,11,-5592 |||
 15 |          |          |  0.00000 |  0.00000 | h  |  8,12,-5592 |||
 16 |          |          |  0.00000 |  0.00000 | h  |  8,13,-5592 |||
 17 |          |          |  0.00000 |  0.00000 | h  |  8,14,-5592 |||
 18 |          |          |  0.00000 |  0.00000 | h  |  8,15,-5592 |||
 19 |          |          |  0.00000 |  0.00000 | h  |  8,16,-5592 |||
 20 |          |          |  0.00000 |  0.00000 | h  |  8,17,-5592 |||
 21 |          |          |  0.00000 |  0.00000 | h  |  8,18,-5592 |||
 22 |          |          |  0.00000 |  0.00000 | h  |  8,19,-5592 |||
 23 |          |          |  0.00000 |  0.00000 | h  |  8,20,-5592 |||
 24 |          |          |  0.00000 |  0.00000 | h  |  8,21,-5592 |||
 25 |          |          |  0.00000 |  0.00000 | h  |  8,22,-5592 |||
 26 |          |          |  0.00000 |  0.00000 | h  |  8,23,-5592 |||
 27 |          |          |  0.00000 |  0.00000 | h  |  8,24,-5592 |||
 28 |          |          |  0.00000 |  0.00000 | h  |  8,25,-5592 |||
 29 |          |          |  0.00000 |  0.00000 | h  |  8,26,-5592 |||
 30 |          |          |  0.00000 |  0.00000 | h  |  8,27,-5592 |||
 31 |          |          |  0.00000 |  0.00000 | h  |  8,28,-5592 |||
 32 |          |          |  0.00000 |  0.00000 | h  |  8,29,-5592 |||
 33 |          |          |  0.00000 |  0.00000 | h  |  8,30,-5592 |||
 34 |          |          |  0.00000 |  0.00000 | h  |  8,31,-5592 |||
 35 |          |          |  0.00000 |  0.00000 | o  | 11, 2,-5592 |||
----|----------|----------|----------|----------|----|----------|----------|----------|-------


connection definition section :

target | site | source:weight
-------|------|---------------------------------------------------------------------------------------------------------------------
     5 |      |  4: 0.00000,  3: 0.00000,  2: 0.00000,  1: 0.00000
     6 |      |  4: 0.00000,  3: 0.00000,  2: 0.00000,  1: 0.00000
     7 |      |  4: 0.00000,  3: 0.00000,  2: 0.00000,  1: 0.00000
     8 |      |  4: 0.00000,  3: 0.00000,  2: 0.00000,  1: 0.00000
     9 |      |  4: 0.00000,  3: 0.00000,  2: 0.00000,  1: 0.00000
    10 |      |  4: 0.00000,  3: 0.00000,  2: 0.00000,  1: 0.00000
    11 |      |  4: 0.00000,  3: 0.00000,  2: 0.00000,  1: 0.00000
    12 |      |  4: 0.00000,  3: 0.00000,  2: 0.00000,  1: 0.00000
    13 |      |  4: 0.00000,  3: 0.00000,  2: 0.00000,  1: 0.00000
    14 |      |  4: 0.00000,  3: 0.00000,  2: 0.00000,  1: 0.00000
    15 |      |  4: 0.00000,  3: 0.00000,  2: 0.00000,  1: 0.00000
    16 |      |  4: 0.00000,  3: 0.00000,  2: 0.00000,  1: 0.00000
    17 |      |  4: 0.00000,  3: 0.00000,  2: 0.00000,  1: 0.00000
    18 |      |  4: 0.00000,  3: 0.00000,  2: 0.00000,  1: 0.00000
    19 |      |  4: 0.00000,  3: 0.00000,  2: 0.00000,  1: 0.00000
    20 |      |  4: 0.00000,  3: 0.00000,  2: 0.00000,  1: 0.00000
    21 |      |  4: 0.00000,  3: 0.00000,  2: 0.00000,  1: 0.00000
    22 |      |  4: 0.00000,  3: 0.00000,  2: 0.00000,  1: 0.00000
    23 |      |  4: 0.00000,  3: 0.00000,  2: 0.00000,  1: 0.00000
    24 |      |  4: 0.00000,  3: 0.00000,  2: 0.00000,  1: 0.00000
    25 |      |  4: 0.00000,  3: 0.00000,  2: 0.00000,  1: 0.00000
    26 |      |  4: 0.00000,  3: 0.00000,  2: 0.00000,  1: 0.00000
    27 |      |  4: 0.00000,  3: 0.00000,  2: 0.00000,  1: 0.00000
    28 |      |  4: 0.00000,  3: 0.00000,  2: 0.00000,  1: 0.00000
    29 |      |  4: 0.00000,  3: 0.00000,  2: 0.00000,  1: 0.00000
    30 |      |  4: 0.00000,  3: 0.00000,  2: 0.00000,  1: 0.00000
    31 |      |  4: 0.00000,  3: 0.00000,  2: 0.00000,  1: 0.00000
    32 |      |  4: 0.00000,  3: 0.00000,  2: 0.00000,  1: 0.00000
    33 |      |  4: 0.00000,  3: 0.00000,  2: 0.00000,  1: 0.00000
    34 |      |  4: 0.00000,  3: 0.00000,  2: 0.00000,  1: 0.00000
    35 |      | 34: 0.00000, 33: 0.00000, 32: 0.00000, 31: 0.00000, 30: 0.00000, 29: 0.00000, 28: 0.00000, 27: 0.00000, 26: 0.00000,
                25: 0.00000, 24: 0.00000, 23: 0.00000, 22: 0.00000, 21: 0.00000, 20: 0.00000, 19: 0.00000, 18: 0.00000, 17: 0.00000,
                16: 0.00000, 15: 0.00000, 14: 0.00000, 13: 0.00000, 12: 0.00000, 11: 0.00000, 10: 0.00000,  9: 0.00000,  8: 0.00000,
                 7: 0.00000,  6: 0.00000,  5: 0.00000
-------|------|---------------------------------------------------------------------------------------------------------------------
